{"batch_size":10,"layer_sizes":[784,64,32,10],"loss":1.0,"loss_train":[],"layers":[{"Dense":{"weights":{"rows":64,"columns":784,"data":[[-0.023251686,-0.04760749,-0.014698043,-0.030796897,-0.036343265,0.039417,-0.054562308,-0.034662634,0.0416423,-0.032828826,0.054458924,0.057788454,0.004250847,0.06891359,-0.06818503,-0.011417441,0.08103331,0.08176466,-0.029334262,-0.015258759,0.049115203,-0.016972296,-0.0729986,-0.013988085,0.009002566,-0.06745799,0.01973819,0.009474836,0.014182374,-0.023168579,-0.003084302,-0.059063137,-0.071562536,-0.004593529,-0.067533575,0.021973975,-0.024204612,-0.022311438,0.05742968,0.06725415,0.049351193,-4716.565,-4716.623,-5567.7354,-4717.7046,-4717.7437,-0.05728133,-0.073499545,0.07596495,0.043092497,0.0812091,0.076498665,-0.035295464,-0.03347866,0.0771225,-0.038488846,-0.075581536,-0.075867176,-0.06850254,0.0039363503,-0.06222985,0.01747752,0.07497267,-0.060276173,0.048925765,0.013970338,-0.05601738,6144.331,7344.9907,4904.9126,137.19112,-10162.979,-14678.435,-15668.828,-14526.837,-11907.409,-7657.16,0.0017117783,0.046510316,-0.004403226,-0.0024904832,-0.06291436,-0.023788534,-0.060577393,0.004620701,-0.020379983,0.083504416,0.048183687,0.030697264,-0.017902978,6141.4663,7323.5415,10677.404,11385.182,11383.887,12587.791,10575.019,11000.461,5704.3975,-2720.1204,-8634.979,-5796.4033,-2393.667,-270.68506,8552.211,11725.759,6395.3247,0.002685815,0.0076909885,-0.032913115,-0.07399131,-0.04803209,0.059418596,-0.050278265,-0.048362892,0.013396874,-0.0742593,8004.283,9748.978,10119.53,13075.21,17314.9,17483.129,17589.666,15998.985,14058.557,8428.102,5385.4937,3612.1106,4811.7705,8064.5254,11165.921,13384.903,14049.348,7841.0757,2174.46,-5464.162,0.013673849,-0.061771616,0.06675025,0.0007041022,-0.00834626,0.062391527,7412.0723,6136.0796,10778.608,12804.219,15222.876,19775.516,22378.666,23120.473,21630.986,16647.422,10964.849,5694.0444,2604.2656,3392.1494,4845.3394,7699.551,9415.022,14166.874,14550.338,8987.395,1453.6417,458.13177,1582.7404,-5469.2427,0.009745538,0.004192874,0.045012243,-0.0056334287,7555.6396,8765.297,15080.061,15646.449,18097.223,21044.656,22441.613,21407.36,19728.5,14936.255,8509.314,5401.7725,5724.4097,7294.803,7185.2236,8420.44,10673.048,15019.654,13059.71,8639.416,-1907.6656,-384.9918,-3330.347,-5469.2837,0.03812471,-0.053030223,-0.046738237,-0.015431829,9335.294,14512.603,17402.102,19051.424,18896.365,19560.783,20878.697,20579.908,17081.035,11242.101,8317.081,8276.234,10587.298,11993.736,13323.723,13780.403,14869.909,15856.763,12777.301,7793.1133,-5188.912,-4734.802,-8672.341,-4307.161,-0.0537116,-0.069382384,-0.04330642,-0.028390441,11538.218,16461.076,17627.627,17623.836,19907.05,20278.434,20408.832,17837.557,13795.366,8738.103,6187.4565,8449.82,11351.027,15114.769,17974.299,19343.889,20050.217,19031.22,14756.148,6246.4014,-2329.9714,-8604.116,-8588.151,-3775.0208,0.010433078,-0.028298993,3314.687,3308.882,10140.169,15456.315,16603.307,19244.898,21101.17,18913.828,17149.559,13326.379,8786.351,4995.3877,4489.2734,7069.2827,10335.289,14930.151,18693.498,20908.055,21360.375,19794.307,15688.415,7326.797,-2973.11,-8483.384,-8932.332,-5466.9126,0.043041386,0.07898652,3314.8,3308.7764,8913.293,15054.218,16440.248,19527.516,20391.79,16821.63,12898.291,10190.612,5112.7495,371.5768,-1384.4153,1605.167,7814.911,14848.872,20010.133,22322.338,22924.121,19961.148,15264.662,9880.848,-200.67668,-4207.821,-6073.6143,-5466.9507,0.019486487,-0.01732149,0.03234677,0.0010504872,8515.093,11988.301,16084.272,18346.764,19102.014,14838.05,11896.809,8595.671,2448.2021,-3507.7964,-4092.644,1326.2429,6800.694,14248.61,18790.555,22155.637,22302.203,19480.674,14504.362,10354.903,6184.858,3467.223,-1973.3394,1433.4152,0.04456129,0.058574967,-0.048014943,0.04543961,7909.758,11565.914,15899.07,17428.775,18153.533,16409.96,13039.072,8877.319,3457.4316,-2524.2637,-2460.9219,1229.0846,5630.5444,12424.003,18453.787,20227.299,19633.287,15383.221,10957.234,7565.331,4629.339,2900.9421,1433.3297,1433.4431,0.016766272,0.07056116,-0.04680137,0.054927222,6973.343,13068.594,14559.078,16340.267,18892.723,17619.623,15295.675,11119.982,6754.811,3357.5935,557.0381,2592.1013,6913.47,14384.664,20300.094,21173.818,17688.256,10302.795,4253.1255,4465.4414,2237.6084,1049.7529,-4502.4116,1433.4747,0.025722176,0.027036443,-0.04462342,0.025497362,6558.9634,11466.399,12645.78,16513.592,19942.45,20289.338,17707.455,14665.723,15522.619,12345.24,7645.114,6047.234,8851.385,16758.613,21636.3,20624.166,14919.359,6891.007,2830.1965,4645.0376,4968.723,3986.5952,7107.1553,6142.9536,-0.0646943,-0.05308748,0.03521683,0.06919397,1566.1576,7924.0,14093.27,19391.074,22034.926,21984.627,18269.006,17583.7,17643.672,14676.9795,8772.253,7027.6914,11149.095,19344.8,22734.977,20998.064,12957.896,6166.273,5535.744,8550.734,10115.742,9091.862,8474.087,6142.935,0.0483635,0.0425139,0.0010593161,-0.038173765,-4359.7505,3267.4011,13907.212,22359.309,21921.605,19625.266,16242.22,15314.688,14982.094,11669.198,7726.839,7440.143,13682.358,21268.037,24653.98,20290.371,10790.17,5285.5405,6725.586,11595.621,12933.123,14392.816,11419.992,6142.921,-0.036776748,-0.018327259,-0.028964613,0.016542882,6373.411,7787.289,15941.965,20716.684,19175.87,13507.363,8322.937,5162.6196,5362.75,7059.8687,8482.275,10316.703,15966.375,20447.059,21177.31,15428.85,9038.33,6826.355,11659.895,15658.329,16129.703,17429.295,14192.496,0.01218354,-0.03564185,-0.009948872,-0.045924433,-0.07632972,13630.745,15136.258,16998.021,17650.121,14304.932,7707.2183,317.16095,-3547.262,1221.1348,5597.8467,8044.4414,10921.13,14681.345,16424.115,14993.27,11226.715,8939.445,11252.681,14132.205,18444.035,16722.652,17033.873,10253.273,-0.018202677,-0.045163877,-0.028866142,-0.06340787,7308.213,16627.969,23060.393,22257.848,18455.854,11507.067,3171.3044,-3114.389,-2345.4963,1722.7639,5936.1465,8513.996,10702.475,11427.156,11752.704,13066.986,13669.02,13986.992,14408.564,15240.36,17625.48,15021.173,12514.973,6142.1353,0.052996285,0.07805016,0.008408949,0.026753351,7552.287,18186.852,24370.143,26206.525,21714.584,13321.142,5199.7188,812.1079,1447.3301,3321.245,5667.883,8187.165,8889.805,8937.581,10266.682,13799.937,16623.92,18191.49,17658.432,15997.436,17505.895,16811.111,12999.955,6259.645,1433.3503,-0.015056625,0.017214037,-0.01139871,8796.521,16570.78,23855.02,26729.945,22648.318,15735.987,8674.793,6996.202,6469.4077,6922.7427,6620.042,7429.55,7205.6904,8138.9883,10875.372,14987.824,17453.166,17153.748,18136.93,18439.87,18474.852,16027.377,12457.485,6962.8745,-38.328762,-0.06960403,-0.026077405,0.059204973,6527.8765,10338.078,17462.104,23041.465,20063.375,13903.944,8335.676,7180.4365,8119.1597,8278.088,8762.552,8515.57,9252.346,10556.066,12911.425,14406.588,14614.523,15497.313,17800.977,18320.857,16254.23,9843.977,6799.7754,1433.465,1433.4729,0.06301146,0.06592145,0.044409864,-0.0372872,4634.4194,9412.1455,13587.862,13796.685,8009.61,3159.2158,3371.7256,5868.352,6585.07,8496.105,10571.596,11474.003,13194.937,14316.16,14124.748,15358.319,15792.382,16138.691,15321.724,11249.886,9720.142,6138.541,-0.07614311,0.079476275,-0.06688889,0.062283568,0.026230685,-0.0695615,4634.4136,-166.25693,4082.213,7458.5156,5802.7974,3771.6133,6949.467,9530.129,8981.218,9541.707,11018.047,11600.543,12369.709,15609.536,15799.674,17271.781,16070.823,14228.922,11903.586,7763.817,8210.128,-0.009363413,0.048633896,-0.05194959,-0.021233693,0.06779162,-0.039877757,0.046473436,-0.007860191,4089.8977,6516.641,8402.827,10001.092,13325.421,17471.771,18356.596,17132.846,17548.543,18962.459,18333.111,16490.97,16504.082,12365.744,12162.77,8975.628,8024.1953,6244.419,4689.844,-0.0102054775,0.02814012,-0.044006877,-0.05337611,0.033747032,0.03994745,-0.026186924,-0.007819898,-0.05597625,4695.286,5826.2686,8216.541,8728.703,13495.081,14615.471,14112.073,12698.218,11833.306,11337.839,12700.772,12482.558,12370.437,9626.676,8117.0044,4968.87,-0.0062237605,-0.065077506,-0.06537981,-0.06844659,-0.04454707,0.07782953,-0.044571076,0.022892065,0.034914665,0.0829952,-0.00473772,-0.08044943,-0.048953727,3306.397,5207.7856,4801.3335,3798.1965,-0.009554416,0.004251875,0.027446061,3311.7437,3311.765,3597.241,3309.0034,3309.0364,4078.0344,4692.2217,4692.2275,0.0079272315,0.060423456,-0.049553204,0.046214767,0.01696524,0.0685531,-0.00069335103,0.028202973],[-0.04073153,-0.009191163,-0.004662417,0.0732635,-0.018408857,-0.072354525,-0.033528797,-0.015799776,-0.040755976,0.04090803,-0.019817203,0.0663571,-0.029617496,-0.045892928,-0.035765365,0.07110619,0.002705492,0.030697927,0.07057565,0.018933691,-0.035266623,0.023370534,0.017816238,-0.031917818,0.010774009,0.016890913,0.03296943,0.026114248,-0.0009598434,0.015168972,0.009038568,0.037641793,-0.063007295,0.0033769608,-0.056677222,-0.016767234,-0.035879176,0.06647272,0.00025800616,0.029793218,0.050728492,-4690.852,-4690.8013,-5537.1006,-4692.559,-4692.519,0.040525585,0.04127281,0.008690052,0.062493123,-0.04651292,-0.039115176,-0.083459914,-0.020878784,-0.050469007,0.056022637,-0.0012189075,-0.04608459,0.05553595,-0.02458876,0.07205018,-0.03537075,0.08240832,-0.0690643,-0.02542809,-0.022525243,0.048691936,6145.5967,7340.6597,4918.084,131.4694,-10101.854,-14589.853,-15591.77,-14432.737,-11857.214,-7619.2036,0.014086455,0.017421365,-0.042871974,-0.050383132,-0.04891029,-0.007988438,-0.07552755,-0.035114206,0.0032507777,0.0045174584,-0.0062766,0.011013538,-0.05979889,6143.859,7323.523,10680.055,11389.492,11382.996,12583.354,10563.635,11006.507,5697.1475,-2713.1755,-8601.459,-5790.456,-2391.61,-262.4949,8560.075,11727.551,6386.778,-0.054122984,-0.035768636,-0.017558336,-0.06620391,-0.062045567,0.025773957,0.04391689,-0.04018578,0.08333499,-0.038316734,8017.339,9751.908,10120.088,13067.883,17327.514,17474.797,17580.184,15960.881,14024.196,8379.554,5346.7544,3577.6619,4763.956,8017.171,11121.271,13363.945,14066.842,7828.8003,2167.9548,-5457.0566,0.04685744,0.02872508,-0.057216555,-0.056286797,-0.03139894,-0.056861445,7434.835,6175.941,10808.462,12848.042,15266.336,19821.898,22419.885,23152.371,21646.637,16636.676,10924.405,5629.897,2529.9397,3306.9946,4746.265,7606.2954,9328.169,14117.5205,14536.889,8975.3545,1434.2177,454.44916,1582.0558,-5454.5264,-0.015898407,-0.020752445,0.03456246,0.08204811,7581.6904,8780.522,15147.247,15717.34,18153.215,21087.387,22492.74,21435.379,19749.404,14919.159,8459.153,5338.9863,5645.1494,7204.998,7085.5596,8319.797,10579.349,14956.221,13016.615,8635.043,-1922.7152,-389.6894,-3307.5615,-5454.492,-0.047590043,-0.014331847,0.06386451,-0.036175445,9394.138,14568.503,17469.652,19129.43,18964.574,19625.975,20923.053,20623.021,17098.562,11212.741,8272.936,8230.439,10534.606,11938.216,13260.998,13707.188,14794.322,15792.023,12737.859,7797.3374,-5186.6494,-4717.65,-8642.068,-4298.156,0.074634664,-0.0028053448,-0.028116774,0.044427,11621.664,16524.352,17694.395,17661.707,19956.8,20309.625,20428.756,17845.365,13775.006,8700.109,6145.746,8411.756,11321.929,15103.487,17959.793,19325.48,20027.494,18996.938,14721.135,6237.8496,-2340.881,-8608.162,-8551.679,-3765.578,0.021440923,-0.01010488,3344.5398,3346.0784,10221.536,15524.937,16667.531,19269.523,21142.512,18929.775,17154.607,13310.048,8744.037,4952.7393,4444.584,7035.174,10321.326,14935.535,18691.31,20912.883,21346.139,19759.223,15651.228,7285.3145,-3014.7795,-8518.932,-8928.08,-5454.368,0.04888285,-0.04741033,3344.421,3346.0483,9002.392,15138.914,16492.092,19548.477,20404.82,16826.174,12878.78,10159.811,5076.361,332.0948,-1426.1327,1564.7545,7794.968,14841.561,20008.736,22324.088,22910.719,19922.938,15215.691,9806.892,-267.1108,-4263.3467,-6070.4336,-5454.2466,-0.050328862,-0.031199995,0.08039563,0.05807426,8592.032,12070.962,16093.458,18348.732,19100.775,14829.638,11871.086,8562.408,2409.2864,-3544.791,-4125.43,1284.2476,6763.8047,14220.849,18780.473,22159.39,22292.898,19452.832,14452.979,10258.271,6080.1064,3394.1316,-2015.9281,1384.7426,0.0012918115,0.03320475,-0.022399701,0.078175806,7967.867,11621.601,15884.267,17408.09,18140.459,16385.473,13010.878,8849.636,3444.824,-2543.9434,-2493.1006,1181.1526,5586.1924,12400.778,18459.865,20244.564,19641.377,15352.245,10888.231,7454.856,4496.687,2797.5325,1384.801,1384.7378,-0.0015027821,0.042862706,-0.075049,0.019754075,6997.837,13103.369,14531.582,16282.011,18859.613,17583.979,15255.569,11096.357,6747.16,3341.5315,517.69934,2541.9575,6871.84,14381.012,20335.674,21219.88,17713.893,10287.76,4168.022,4337.7593,2115.3967,924.7359,-4510.007,1384.778,0.08382245,-0.018223576,-0.022207998,0.0032681897,6580.3896,11469.21,12579.534,16441.459,19874.502,20234.123,17654.484,14633.214,15507.687,12322.086,7595.189,5999.3145,8826.631,16783.857,21699.94,20690.406,14945.215,6865.536,2749.0344,4528.924,4858.8726,3864.8552,7112.6313,6149.7344,0.015078545,-0.0645989,-0.07062712,0.0033865124,1569.58,7912.5405,14007.954,19311.492,21958.592,21911.27,18209.662,17540.06,17608.945,14629.226,8706.07,6968.1265,11126.146,19382.494,22816.521,21069.002,12981.875,6134.652,5470.498,8459.289,10026.46,9006.999,8480.974,6149.5825,0.025835566,0.026206978,-0.039372116,0.048148103,-4338.054,3264.5825,13832.601,22291.027,21839.52,19543.309,16170.544,15248.052,14909.575,11588.996,7646.6055,7368.6323,13656.648,21292.975,24721.602,20335.55,10798.293,5247.163,6660.8745,11510.955,12841.309,14328.992,11434.378,6149.627,0.03976503,0.0049049184,-0.055712365,-0.03833404,6405.8037,7809.1,15903.349,20645.322,19080.22,13416.656,8239.863,5073.988,5271.5684,6981.5884,8412.93,10267.789,15945.464,20457.578,21207.242,15435.675,9020.701,6772.4336,11594.246,15587.464,16049.469,17386.475,14201.697,0.06761538,-0.061712615,-0.06662594,-0.062785126,-0.0317135,13691.282,15175.24,16977.352,17581.041,14196.919,7606.2266,230.02887,-3620.403,1145.0369,5527.736,7994.2437,10884.362,14661.064,16420.873,14991.872,11210.043,8893.768,11186.98,14082.346,18403.28,16679.31,17022.246,10259.392,-0.025672358,-0.028607395,0.006355241,-0.082179695,7325.446,16704.904,23129.47,22265.115,18398.184,11396.413,3057.811,-3209.1367,-2420.5498,1653.5394,5875.5645,8479.152,10663.422,11400.49,11735.656,13049.852,13636.423,13935.319,14364.205,15199.25,17584.217,14977.332,12487.103,6139.1914,-0.038178258,0.034186013,0.083535396,0.059796058,7569.54,18253.207,24453.67,26260.967,21698.672,13242.854,5084.9214,704.8328,1357.8345,3245.8982,5618.4536,8146.4336,8849.927,8899.013,10237.292,13775.656,16590.973,18156.521,17632.242,15966.156,17467.191,16765.195,12990.627,6258.0625,1384.8448,-0.011465438,0.048372217,-0.04589778,8818.609,16612.57,23946.023,26820.629,22679.89,15699.948,8593.807,6909.5137,6392.4517,6864.843,6581.4414,7392.745,7159.3926,8095.5547,10838.534,14954.5205,17419.457,17139.518,18120.383,18422.71,18461.145,16020.647,12460.986,6940.3286,-87.36384,-0.0023544878,0.011409283,0.06459751,6570.504,10397.423,17542.832,23135.09,20134.176,13899.829,8286.27,7114.0215,8051.406,8229.808,8722.845,8469.215,9197.148,10511.879,12879.617,14372.425,14593.016,15466.673,17775.36,18326.291,16261.041,9853.208,6804.865,1384.8414,1384.8346,0.04161472,0.005058594,0.018243909,0.07658889,4671.4795,9485.315,13676.707,13890.379,8046.9663,3156.808,3335.9685,5831.1064,6543.906,8451.261,10529.204,11431.683,13184.293,14308.065,14099.894,15331.041,15766.2295,16129.94,15338.242,11263.298,9720.846,6145.032,-0.014679536,-0.046404947,-0.028837726,0.07310154,0.08368573,-0.06706511,4671.486,-120.17362,4135.5283,7508.173,5838.765,3810.5686,6967.2764,9546.729,8969.3955,9535.971,11001.495,11601.13,12393.428,15636.791,15813.383,17301.877,16089.763,14252.238,11919.698,7789.472,8219.945,0.049593396,-0.07163843,0.04718993,-0.074397445,-0.0025437847,-0.05983174,-0.048472535,0.002559632,4121.6265,6552.736,8457.211,10098.943,13425.892,17593.26,18455.22,17209.697,17628.676,19039.56,18421.959,16564.98,16575.113,12413.968,12209.141,8995.644,8035.6597,6253.0015,4697.6504,-0.0018353313,0.014099367,-0.07740085,0.015774928,-0.05131937,-0.042708028,-0.03133649,-0.027381185,0.026065715,4696.2236,5835.249,8282.566,8810.395,13619.697,14718.653,14211.133,12780.957,11924.159,11416.661,12772.324,12551.407,12418.048,9659.56,8163.7993,4992.4863,-0.04864019,-0.07836386,0.07658965,-0.010646321,0.046377294,-0.049407568,0.0817535,-0.006645009,-0.0054055676,0.040118955,-0.003005892,0.079632334,0.06758989,3346.177,5263.1455,4868.9844,3847.7446,0.08288587,-0.026406202,0.04247407,3340.547,3340.589,3626.4192,3346.506,3346.5903,4108.4814,4701.953,4701.9404,-0.046550523,0.019845925,-0.046598755,-0.017630957,0.0025784597,-0.07665055,-0.03484361,0.010691501],[-0.01182574,0.018156193,-0.0020830482,-0.06736124,-0.014570579,-0.032934755,-0.018126227,0.079959996,-0.020357363,0.041607074,0.05993294,-0.054618277,-0.081564575,0.030505799,0.058544584,-0.0012429133,-0.036691274,-0.05400757,-0.061852075,0.08328805,0.0073088408,-0.075064644,-0.013746545,-0.01561182,-0.05279109,0.011145182,-0.058691524,0.0419574,0.0045096353,0.047157146,-0.000005632639,-0.07993145,-0.053606134,-0.012680598,0.024045452,-0.043027863,-0.02016662,0.05552327,-0.06332203,-0.034074087,-0.043458577,-4683.7256,-4683.719,-5535.035,-4681.2524,-4681.2817,0.08232742,0.010829963,-0.030439038,0.045953937,-0.05570266,0.010737665,0.006441593,-0.024064407,0.022909433,0.0153059065,-0.0021964982,0.07846383,-0.0786238,-0.009678893,0.051472925,0.017217308,0.0039261654,-0.048949156,0.021583714,-0.08046909,-0.016896151,6117.03,7309.7017,4910.3447,199.08699,-10057.061,-14558.015,-15534.183,-14440.785,-11843.75,-7604.5825,0.04878079,-0.022189043,-0.057949796,0.07072178,0.07978637,-0.06324215,-0.08155834,-0.021197014,0.08267104,0.07693539,-0.023019955,-0.082198024,0.01099854,6119.696,7295.8154,10641.049,11349.39,11359.161,12573.887,10624.571,11059.403,5794.238,-2554.1729,-8432.354,-5622.747,-2272.434,-161.8872,8580.446,11695.262,6376.8228,0.008646935,0.00004644692,-0.07749428,0.037469722,-0.021873683,-0.0622342,-0.029712293,0.04328949,0.055750556,0.083909236,7995.578,9740.61,10128.855,13095.502,17309.156,17455.906,17619.398,16155.227,14256.336,8661.936,5623.2744,3869.8357,5094.6035,8273.6875,11251.758,13367.721,14000.989,7795.4907,2136.6726,-5463.939,-0.025875695,-0.04762608,0.07760123,0.08329765,-0.060984485,0.06303447,7342.163,6075.239,10738.302,12743.541,15161.911,19708.695,22310.57,23063.791,21633.004,16736.254,11121.842,5918.1704,2894.8132,3677.7727,5123.0884,7920.0254,9605.061,14223.721,14528.611,8958.823,1453.0958,435.7354,1555.0803,-5471.305,0.024368636,-0.008301832,-0.040096115,-0.08178833,7482.354,8699.523,14981.397,15549.626,18018.926,20944.125,22374.246,21374.941,19726.758,15025.999,8673.011,5619.998,5966.2285,7550.9414,7436.2163,8646.4,10841.067,15082.661,13058.58,8598.2295,-1910.4747,-379.10614,-3330.6934,-5471.353,-0.08267988,0.046443768,-0.037325285,-0.060343377,9214.432,14362.051,17226.6,18892.871,18770.043,19484.1,20819.326,20528.688,17093.98,11343.975,8488.018,8471.218,10776.845,12195.761,13509.705,13941.242,15011.527,15929.295,12795.715,7758.163,-5188.9326,-4707.2783,-8737.484,-4357.1943,0.0018854886,0.016378492,-0.04503348,0.07883594,11344.403,16270.482,17427.074,17502.564,19784.346,20234.904,20378.146,17866.83,13866.4,8863.918,6347.238,8606.512,11478.249,15216.133,18066.035,19414.02,20097.756,19057.521,14788.292,6279.886,-2290.6536,-8532.817,-8679.106,-3820.418,-0.026616558,-0.058215402,3211.858,3210.7004,9950.045,15284.721,16455.832,19205.654,21042.266,18910.383,17193.44,13427.162,8935.169,5154.0005,4650.8457,7232.1914,10436.236,14982.701,18712.219,20916.068,21365.861,19819.223,15748.415,7461.673,-2867.595,-8332.749,-9009.421,-5462.766,-0.029486518,-0.022184353,3211.717,3210.6753,8747.391,14892.404,16351.101,19529.568,20427.352,16905.266,13035.739,10337.571,5276.8296,557.0576,-1177.8346,1829.7455,7942.2104,14875.668,19983.855,22274.127,22890.775,19988.406,15409.996,10155.379,130.94969,-3958.7244,-6069.939,-5462.8135,0.062397324,0.016975082,-0.026699044,0.025378436,8357.782,11843.517,16141.185,18449.459,19208.13,14999.666,12072.147,8759.718,2613.2263,-3352.9282,-3937.524,1479.8281,6902.433,14261.448,18751.322,22091.379,22246.977,19533.191,14723.413,10776.4795,6718.2734,3814.0483,-1831.5431,1583.0063,0.037949294,-0.011437282,-0.014017567,-0.07049635,7778.044,11452.024,16037.934,17638.023,18343.047,16607.467,13233.105,9031.9375,3573.9077,-2455.1882,-2370.8618,1354.3627,5710.8623,12422.889,18403.121,20160.875,19599.285,15528.501,11298.296,8112.7324,5263.1523,3349.521,1582.9457,1583.0228,0.064687915,-0.0079384,-0.0025828555,-0.08295048,6896.2715,13013.423,14751.209,16642.906,19149.092,17837.547,15495.256,11264.036,6818.193,3372.2434,660.7856,2709.7373,6985.653,14361.788,20216.24,21114.367,17709.125,10553.085,4753.6978,5082.2485,2917.5225,1533.2472,-4413.108,1583.026,-0.005002424,0.05144126,0.012099691,0.016096883,6486.0103,11482.096,12978.267,16901.082,20250.545,20516.799,17884.6,14783.671,15549.017,12341.366,7740.7417,6159.9766,8914.289,16701.871,21542.148,20548.771,14959.888,7192.0312,3345.899,5233.134,5597.575,4456.8677,7076.7393,6118.657,-0.03780532,0.018410586,-0.024443481,0.038709506,1534.9148,7986.4688,14507.42,19769.777,22319.207,22196.39,18429.414,17659.336,17646.158,14719.517,8908.226,7167.1597,11199.743,19269.006,22628.35,20919.703,13022.128,6469.258,5981.732,9022.604,10606.732,9466.644,8445.677,6118.5894,-0.07439612,-0.04330201,-0.014876574,0.05562509,-4410.355,3305.409,14250.303,22659.24,22194.676,19850.59,16397.896,15393.806,15033.748,11785.148,7909.686,7585.203,13696.942,21174.75,24521.867,20239.92,10912.305,5599.332,7138.4062,11964.051,13341.99,14637.998,11370.397,6118.645,0.05157862,0.08331557,0.04640723,0.014586844,6293.363,7773.403,16193.427,21002.36,19473.09,13787.712,8561.288,5329.552,5510.6934,7254.749,8687.166,10427.073,15944.043,20356.484,21100.488,15464.164,9219.734,7140.5317,11974.399,15947.321,16402.096,17573.709,14150.479,0.08353295,-0.05240993,0.043312214,-0.019120984,0.034605354,13508.968,15071.963,17154.92,17915.018,14643.631,8067.4336,638.8146,-3291.3257,1442.9487,5826.2246,8238.968,11016.978,14677.07,16387.555,15029.129,11359.269,9156.867,11512.791,14362.239,18662.21,16937.031,17152.104,10218.511,-0.07793033,0.003624998,-0.0487381,0.041682042,7257.8374,16504.477,22935.072,22299.953,18643.354,11824.057,3549.8113,-2751.683,-2021.0864,2004.4165,6158.009,8685.121,10800.72,11463.789,11808.776,13183.287,13813.679,14162.376,14599.093,15459.358,17823.84,15230.514,12619.343,6113.662,0.061819695,0.07983712,-0.043097895,0.015886374,7495.448,18054.12,24218.58,26127.248,21780.043,13522.009,5522.283,1155.8184,1775.0629,3619.1782,5917.4756,8374.448,9016.82,9037.877,10393.324,13944.946,16744.389,18300.14,17801.83,16203.8545,17694.025,16895.379,12958.508,6277.5527,1583.0049,0.07007951,-0.055773653,-0.027138323,8704.778,16450.895,23713.35,26579.203,22607.268,15835.159,8880.146,7261.229,6742.3154,7168.2363,6834.2295,7603.902,7360.825,8294.737,11038.323,15128.335,17584.562,17277.578,18278.498,18604.332,18557.775,16007.117,12413.598,7034.4653,154.82387,0.07842923,-0.012392789,-0.021677747,6421.1606,10225.987,17363.963,22905.303,19952.02,13902.92,8470.171,7382.377,8310.056,8456.975,8918.036,8673.5,9411.251,10716.541,13085.007,14582.941,14760.813,15650.138,17944.908,18386.766,16253.119,9816.62,6775.642,1582.9835,1582.962,0.035570852,-0.050738722,0.027100436,0.039825454,4571.0933,9301.111,13473.096,13647.547,7880.6753,3120.089,3465.9324,5976.871,6696.566,8586.84,10655.153,11578.425,13288.87,14417.613,14244.852,15473.923,15884.442,16170.778,15300.711,11237.396,9696.945,6115.1416,0.07987649,-0.07056373,0.0836801,0.009783,0.0031723827,0.071876295,4571.1226,-253.75404,3950.0532,7367.081,5707.585,3593.6758,6810.874,9429.068,8917.716,9462.005,10919.546,11530.202,12324.204,15563.912,15802.486,17272.545,16015.129,14163.98,11853.091,7749.472,8188.5015,0.07747965,0.03800448,-0.08293795,0.022062019,-0.060549438,0.0076760054,-0.034901448,-0.03176161,4019.8918,6404.3374,8232.606,9776.14,13087.818,17258.488,18148.273,16925.018,17321.52,18752.238,18089.027,16315.55,16378.308,12311.36,12095.788,8926.817,8011.464,6236.71,4680.159,0.004809156,0.07416669,-0.009157412,-0.054353617,-0.040869087,-0.019996338,0.031182893,0.006084837,-0.06784282,4681.3384,5764.186,8049.3096,8523.679,13290.941,14407.103,13866.756,12490.93,11643.125,11084.701,12469.8,12297.776,12255.727,9564.271,8036.993,4895.827,0.039544947,0.050403602,0.078576915,-0.076547116,-0.01537706,0.03425073,-0.06373741,-0.04369729,0.02664277,-0.048153702,-0.01042977,0.06507733,0.032589853,3212.7712,5059.3584,4660.008,3685.7205,0.012825333,-0.018801771,0.08066348,3212.5042,3212.5125,3485.387,3210.3237,3210.282,4010.1875,4681.564,4681.693,-0.0014476106,0.07953071,-0.049149964,0.03940045,0.040514417,0.0052679107,0.04998935,0.068910815],[-0.060537506,-0.047912724,-0.0048873723,0.0035759062,0.06720237,0.063064285,-0.035336755,0.06702044,-0.030719124,0.017168514,-0.040093165,0.08400235,-0.059266835,0.03202437,-0.066644385,-0.07079414,0.008642383,-0.055217315,0.002670534,0.040227115,0.07927779,-0.044322196,0.01451952,0.06050799,0.06732374,0.026457384,-0.054073773,-0.0058211163,0.0076071993,0.05618646,-0.029087588,-0.050887227,-0.02258252,0.026685327,-0.07636365,-0.08133279,-0.026731312,-0.06648257,0.0609918,-0.034307886,0.029247522,4522.9214,4522.9146,5323.1895,4523.098,4523.037,-0.046975825,0.041700296,0.0033754557,-0.03677382,0.073608674,0.045802303,-0.038559176,0.003110312,-0.07598524,0.07452718,0.08147598,0.021091446,-0.012781009,-0.039451372,0.06038662,-0.054921485,-0.0032601655,-0.023534901,0.0055305064,-0.068111695,0.08092674,-5806.5537,-6933.0757,-4625.7866,-42.915157,9719.939,14015.164,14991.662,13848.069,11384.689,7321.0464,-0.03656894,-0.07790428,0.010783553,-0.059680827,-0.039198965,0.015500814,-0.052555285,-0.08112652,-0.039895546,0.026617318,-0.07320934,-0.047622792,-0.039492927,-5807.466,-6928.5107,-10072.142,-10740.602,-10719.632,-11791.575,-9739.885,-10223.413,-5166.665,2938.1033,8525.53,5863.825,2492.83,407.61572,-8019.8047,-11081.433,-6049.5728,0.030843206,0.047882445,0.021159314,-0.034838814,0.03864178,0.029171534,0.027899705,-0.06979519,0.015174329,-0.04817857,-7580.7188,-9228.465,-9471.201,-12144.9,-16252.173,-16581.543,-16571.69,-14480.504,-12554.161,-7177.222,-4391.4287,-2689.17,-3571.8914,-6849.136,-10197.355,-12729.467,-13445.474,-7542.4077,-2121.067,5191.726,-0.06233993,0.021027409,0.017583288,-0.020107038,-0.03696362,0.019842573,-7226.243,-6084.6836,-10368.66,-12385.919,-14611.785,-18934.387,-21475.46,-22206.947,-20648.012,-15647.209,-10109.271,-4836.386,-1599.4011,-2267.5356,-3482.6855,-6325.723,-8061.0635,-13171.165,-13834.421,-8582.724,-1414.2881,-503.0449,-1555.624,5187.194,0.06833265,0.059839554,-0.010621831,-0.07133233,-7383.37,-8501.985,-14661.084,-15324.394,-17541.0,-20398.979,-21657.16,-20611.219,-19050.844,-14216.123,-7903.264,-4709.88,-4771.9443,-6071.362,-5868.834,-7066.4805,-9402.664,-13965.765,-12385.018,-8441.163,1754.4757,358.4628,3069.5251,5187.0864,0.060977362,0.06691641,0.07803809,-0.082747445,-9341.6045,-14288.628,-17119.309,-18782.064,-18610.53,-19162.953,-20340.797,-20136.977,-16695.453,-10825.307,-7743.4116,-7525.993,-9631.1,-10852.465,-12093.654,-12528.354,-13582.817,-14804.399,-12204.473,-7753.2886,4786.937,4468.496,8047.292,4000.1394,0.07838028,-0.005081497,0.03457907,-0.032451134,-11747.197,-16211.799,-17550.373,-17409.37,-19582.621,-19735.793,-19840.508,-17267.941,-13300.379,-8321.182,-5762.0557,-7869.8315,-10708.931,-14381.318,-17063.957,-18384.703,-19088.328,-18165.28,-14109.093,-6056.9414,2151.7522,8468.175,7879.582,3491.4807,0.0066429675,0.06179426,-3692.6418,-3692.402,-10460.186,-15314.679,-16541.064,-18540.053,-20433.371,-18295.861,-16552.486,-12705.042,-8166.1143,-4591.844,-4099.267,-6531.205,-9896.068,-14430.903,-18060.318,-20166.984,-20537.713,-18913.273,-14907.587,-6665.283,3102.5142,8783.526,8335.289,5189.9253,-0.047554385,0.042783998,-3692.6577,-3692.393,-9334.359,-15067.1455,-16107.152,-18554.363,-19330.309,-16073.674,-12164.549,-9547.306,-4686.3545,-55.96327,1683.448,-996.4469,-7305.9062,-14333.814,-19401.533,-21683.926,-22098.574,-19025.04,-14085.691,-8301.803,1587.7742,5189.8174,5773.9976,5190.0005,0.044560008,-0.046550825,-0.073095344,-0.007076271,-8968.498,-12269.924,-15090.199,-17055.48,-17874.93,-13878.732,-11044.143,-7976.938,-2097.9482,3490.4119,4016.0513,-1024.7267,-6372.4297,-13787.581,-18332.457,-21596.953,-21595.6,-18464.352,-13006.156,-7932.9263,-3165.2546,-1347.7806,2647.9883,-410.78302,0.06339305,0.051308505,0.043279372,-0.004688002,-8250.445,-11580.364,-14506.343,-15695.314,-16623.553,-15050.965,-11955.73,-8253.419,-3316.4956,2120.201,2182.176,-1055.8618,-5407.694,-12238.855,-18164.188,-19873.623,-19105.436,-14293.8125,-9113.285,-4644.6836,-1059.7264,-265.4592,-410.66718,-410.62604,-0.0028552413,0.02312193,0.039746,-0.024150621,-6932.937,-12766.355,-12943.663,-14049.471,-16904.95,-15962.725,-13920.565,-10360.12,-6682.0967,-3692.6143,-602.1129,-2408.2112,-6704.8677,-14297.471,-20130.521,-20810.941,-17209.982,-9228.624,-2100.334,-1341.2832,1274.0377,1498.5483,4644.088,-410.76535,0.023354389,0.034395047,0.01768452,0.029035829,-6523.5557,-10826.126,-10338.552,-13663.854,-17456.77,-18266.062,-16122.233,-13692.472,-14987.496,-12163.933,-7200.082,-5643.094,-8659.574,-16782.059,-21489.576,-20486.865,-14613.717,-5772.014,-728.67505,-1654.3649,-1576.9119,-1331.7637,-6744.392,-5811.109,-0.07500799,0.028637156,-0.0028039962,-0.08179667,-1614.6725,-7285.8027,-11191.41,-16348.933,-19420.62,-19795.17,-16637.404,-16431.045,-16865.924,-13922.065,-7937.988,-6361.899,-10869.827,-19246.41,-22598.799,-20855.332,-12686.898,-5089.8374,-3623.4587,-5926.488,-7201.7734,-6716.821,-8009.846,-5811.109,-0.022472698,-0.061121922,0.05020141,0.015447952,4007.8774,-3035.8389,-11491.274,-19542.695,-19319.227,-17475.797,-14728.008,-14231.1875,-14021.1,-10609.489,-6625.3774,-6668.3457,-13339.383,-20958.404,-24324.822,-19966.387,-10363.486,-4182.297,-4830.0415,-9267.299,-10159.583,-12247.545,-10797.855,-5811.225,0.022978619,0.019861951,-0.04724087,0.024111174,-6510.1465,-7627.5845,-13982.692,-18098.568,-16648.867,-11497.556,-6960.5854,-4348.5273,-4562.7705,-5946.5977,-7259.0156,-9596.753,-15592.5625,-20105.854,-20828.797,-15022.208,-8367.075,-5528.5986,-9821.516,-13471.149,-13876.6,-15618.005,-13396.832,-0.072391346,-0.07256401,0.07098424,-0.06978892,-0.06019906,-13348.323,-14734.078,-15407.822,-15410.756,-11912.814,-5738.5923,873.38165,4121.1875,-387.63452,-4424.623,-7022.0684,-10309.466,-14331.313,-16145.809,-14573.882,-10628.07,-8003.522,-9807.513,-12500.705,-16500.588,-14796.685,-15443.22,-9696.533,0.08281251,-0.03283807,0.006435178,0.06295835,-7086.702,-16229.575,-22298.77,-20841.076,-16608.432,-9381.9375,-1387.7906,4225.447,3274.071,-667.64417,-4914.1855,-7741.5796,-10139.009,-11124.282,-11371.443,-12364.674,-12742.674,-12763.465,-13047.326,-13555.192,-15790.55,-13172.367,-11229.392,-5804.2285,0.0005900115,-0.08228882,0.048318677,-0.021263197,-7348.818,-17713.078,-23631.83,-25053.68,-20280.21,-11766.136,-3587.4685,511.56113,-218.71101,-2139.215,-4706.1943,-7458.2905,-8384.26,-8526.197,-9672.975,-12867.679,-15498.808,-16889.05,-16221.329,-14322.521,-15638.073,-15279.6045,-12272.461,-5774.783,-410.6222,-0.051830344,0.0406041,-0.07420257,-8675.396,-16130.669,-23200.34,-25858.586,-21708.338,-14661.39,-7551.363,-5751.0913,-5299.1587,-5936.12,-5935.039,-6907.2363,-6707.0356,-7529.468,-10085.631,-13938.097,-16106.179,-15885.9375,-16669.137,-16741.826,-16972.188,-15077.022,-11766.507,-6157.2236,1152.4026,0.018055193,-0.04015692,-0.047747232,-6666.8257,-10393.221,-17087.318,-22468.53,-19743.66,-13559.939,-7719.626,-6341.1055,-7310.5396,-7611.683,-8222.9,-7928.6533,-8510.802,-9739.531,-11906.672,-13192.516,-13429.842,-14107.423,-16284.347,-16981.137,-15247.851,-9316.261,-6444.5776,-410.72784,-410.7446,0.02010072,0.028617866,-0.028611787,-0.018510781,-4743.0464,-9690.771,-13732.96,-14175.473,-8704.841,-3805.1072,-3416.1628,-5708.9814,-6362.415,-8235.663,-10114.613,-10747.258,-12461.151,-13513.209,-13124.016,-14177.093,-14552.43,-15104.659,-14474.499,-10639.956,-9188.222,-5807.7485,-0.0787839,-0.04443366,-0.04559257,0.038323835,-0.051014997,0.034716986,-4742.9956,-396.95663,-4759.1733,-7787.7534,-6376.4463,-4962.635,-7758.6626,-10146.293,-9461.528,-9968.77,-11227.02,-11640.119,-12289.627,-15319.557,-15219.562,-16477.89,-15422.998,-13739.082,-11375.577,-7369.719,-7775.456,-0.06401889,0.06844548,-0.05375137,-0.024007052,0.05775436,-0.031858254,0.04714585,-0.041220143,-4396.232,-6806.058,-8915.231,-10796.442,-14223.104,-18003.574,-18786.615,-17668.05,-17915.646,-19130.781,-18575.379,-16495.516,-16336.684,-12090.33,-11939.708,-8778.523,-7624.093,-5935.3975,-4458.9556,0.025407575,0.03676153,-0.059600465,-0.041191947,-0.030908018,0.061543696,-0.06891775,0.016832195,0.016452536,-4459.018,-5807.2397,-8710.831,-9379.157,-13961.904,-15176.191,-14879.861,-13271.87,-12308.861,-12096.907,-13221.98,-12750.648,-12212.402,-9393.506,-8120.149,-5157.1924,-0.06729244,0.046696015,-0.0026228428,0.0011769533,0.07756094,0.0019327626,-0.075893745,0.0630805,0.019798718,-0.08206891,0.009311654,-0.060490616,0.025114052,-3694.163,-5808.8735,-5374.6255,-4259.002,-0.058007017,0.08386492,-0.0470617,-3688.3494,-3688.3477,-4004.5247,-3692.2068,-3692.1733,-4374.355,-4465.3037,-4465.298,0.040938415,0.03907998,-0.071791045,-0.033345956,-0.025715075,0.08073767,0.053289898,0.079516225],[0.022784956,-0.033955023,-0.021918986,-0.0509206,-0.05713792,0.07914766,0.068028904,-0.0012459606,0.0444557,-0.008502141,-0.0070165023,0.05255661,0.006582983,0.048938178,-0.013049662,-0.04299415,-0.0056914464,0.008782424,-0.046504136,-0.039137177,-0.016083412,0.02868338,-0.025059063,-0.014788672,-0.042854067,0.0823615,-0.07102325,-0.08031502,0.031449437,0.051261805,-0.00006150454,0.0026635379,-0.058446534,-0.06830787,0.033510186,-0.075148836,-0.06569736,0.06637659,-0.06400873,-0.034087062,0.04499223,-4690.4434,-4690.5327,-5536.784,-4692.2583,-4692.3037,-0.054756656,0.0781525,-0.08234455,-0.080000184,0.021259643,0.07416367,0.008399181,-0.08076796,-0.05668721,-0.061823077,-0.053581648,0.052751563,0.079177745,0.008160591,-0.03308675,-0.0016869083,0.003905505,0.05005143,-0.07711095,-0.07076111,0.039974242,6145.3384,7340.5596,4917.4077,131.99928,-10100.894,-14588.676,-15590.184,-14431.358,-11856.094,-7618.6343,0.05145981,-0.016055673,0.024966247,-0.0666492,-0.0016348287,0.006838359,0.008210704,0.07600046,-0.049352717,0.010673873,-0.01626388,-0.064601384,0.02700793,6143.613,7323.334,10679.88,11389.254,11382.159,12582.159,10562.414,11007.388,5698.555,-2711.8252,-8601.431,-5789.8423,-2389.2588,-260.2455,8559.798,11727.633,6386.5015,0.05718326,-0.059868596,0.07126481,0.018082872,-0.05804143,-0.043233022,-0.052399278,0.0651008,-0.065135546,-0.062079158,8017.0103,9751.785,10120.679,13067.72,17325.975,17473.768,17581.268,15962.19,14023.934,8379.741,5346.882,3578.7175,4765.334,8018.814,11123.055,13363.043,14064.177,7828.5728,2169.192,-5456.765,-0.062023263,0.019663423,0.02281385,-0.058534734,0.081390865,0.023987256,7433.832,6177.1646,10806.936,12847.059,15266.25,19821.172,22419.213,23148.826,21644.13,16634.953,10924.49,5630.022,2530.5906,3308.873,4748.2676,7607.173,9327.756,14116.991,14535.403,8975.114,1433.12,451.36722,1580.7821,-5454.4106,-0.0408746,0.031609915,0.020484246,-0.0068022385,7580.759,8779.824,15147.575,15721.33,18154.062,21086.594,22491.084,21433.111,19746.518,14918.974,8459.695,5339.1953,5645.9233,7205.484,7084.5356,8318.024,10578.314,14956.641,13016.481,8635.426,-1923.9392,-390.65878,-3307.1973,-5454.417,-0.029568441,-0.048648573,0.07639279,0.035419583,9393.256,14567.406,17467.346,19130.385,18966.38,19626.277,20924.488,20621.123,17097.285,11213.482,8274.07,8231.513,10535.495,11938.512,13259.943,13706.029,14793.085,15790.686,12737.412,7798.582,-5184.791,-4716.341,-8642.493,-4298.3984,0.029041544,0.0795648,0.06343456,0.04828035,11621.135,16521.893,17692.168,17661.0,19957.975,20311.59,20429.234,17842.889,13772.978,8699.69,6145.688,8412.4795,11323.108,15104.212,17958.988,19323.775,20026.344,18997.158,14721.091,6239.779,-2337.533,-8610.817,-8551.883,-3765.7188,0.06621156,0.06041109,3344.681,3346.2993,10220.611,15522.802,16666.8,19269.168,21142.137,18929.072,17154.639,13307.101,8741.812,4952.1924,4444.081,7034.6733,10322.146,14934.692,18689.156,20911.35,21345.422,19760.318,15653.09,7287.8555,-3013.7231,-8521.076,-8928.136,-5454.156,-0.0079007,0.040115766,3344.6514,3346.3154,9002.358,15137.403,16490.922,19547.615,20403.717,16825.76,12877.133,10158.157,5076.1875,332.2394,-1425.8662,1564.1967,7795.8066,14840.037,20006.586,22322.965,22910.145,19923.564,15217.767,9807.923,-265.60638,-4260.7,-6070.3066,-5454.1255,-0.057617933,-0.07911206,-0.042391423,0.038888894,8592.101,12070.442,16093.816,18347.658,19099.328,14829.407,11870.529,8562.245,2409.5757,-3544.524,-4124.8857,1283.9309,6763.8223,14219.586,18778.643,22158.855,22292.645,19453.422,14454.126,10259.132,6081.15,3394.4578,-2016.0251,1384.6073,-0.058329076,0.07640224,0.02514191,-0.08217621,7967.6357,11621.114,15884.581,17406.998,18139.244,16385.066,13010.603,8849.448,3445.3257,-2541.8928,-2492.7434,1180.6434,5585.604,12399.734,18459.03,20244.69,19641.078,15352.086,10887.808,7456.575,4496.8203,2798.014,1384.6931,1384.5656,-0.06247538,-0.082661495,-0.0022853836,-0.050092537,6995.4214,13101.24,14533.141,16282.844,18859.543,17582.537,15254.698,11096.076,6747.4175,3342.2056,517.74445,2541.8022,6871.341,14380.308,20335.414,21219.664,17714.271,10289.317,4168.851,4340.1777,2115.3508,924.5341,-4509.9116,1384.6116,-0.012237929,-0.0051761344,0.08137848,0.035971247,6578.923,11466.925,12580.524,16440.406,19872.418,20232.568,17654.22,14632.797,15507.336,12323.553,7596.163,5998.6235,8825.909,16782.84,21699.373,20690.812,14946.751,6867.639,2749.5312,4529.84,4857.212,3865.124,7112.204,6149.5483,-0.003250599,-0.07020088,0.034274593,0.029542573,1571.6426,7912.514,14005.08,19310.69,21956.643,21910.111,18208.824,17539.46,17608.57,14629.895,8706.571,6967.6714,11125.1875,19381.17,22815.836,21068.932,12982.626,6136.1084,5471.468,8458.977,10026.502,9006.864,8480.73,6149.4966,-0.02245802,0.05769155,0.006090574,-0.020801015,-4338.0522,3263.8853,13827.634,22287.783,21838.285,19541.945,16169.414,15247.341,14908.683,11588.112,7646.1123,7367.73,13655.6875,21292.078,24721.262,20335.344,10798.23,5248.1455,6661.4097,11510.718,12838.267,14326.132,11433.884,6149.6055,0.056755878,-0.039286602,0.03299863,-0.064695984,6403.312,7806.7495,15900.212,20642.676,19078.527,13415.729,8239.385,5073.666,5269.7715,6980.69,8412.186,10266.959,15945.011,20457.006,21207.887,15436.604,9021.724,6771.7876,11592.696,15586.146,16047.151,17384.729,14201.367,-0.016819797,-0.08066442,0.052560978,0.065235995,0.013093144,13690.095,15174.076,16975.896,17579.777,14195.394,7605.5913,230.0858,-3620.9885,1143.441,5527.289,7993.3135,10883.884,14660.907,16420.094,14992.661,11211.39,8894.203,11184.612,14080.182,18399.496,16676.914,17020.93,10258.909,-0.046931423,0.05989317,-0.06088698,0.08317829,7323.3643,16703.375,23129.068,22266.293,18397.607,11394.589,3056.9143,-3208.4148,-2420.8,1653.2147,5874.987,8478.923,10663.278,11400.174,11735.219,13050.747,13637.129,13933.954,14361.674,15196.686,17579.918,14975.152,12485.7295,6139.1406,0.07875735,0.059791572,0.057475604,0.028265,7567.0913,18251.826,24453.586,26261.033,21698.934,13240.352,5082.2524,703.2434,1356.8287,3245.1382,5618.6797,8147.4595,8850.184,8898.719,10237.744,13776.758,16589.877,18154.873,17629.979,15964.723,17464.527,16763.777,12990.377,6257.7705,1384.5809,0.065605305,0.08092459,0.07412232,8815.709,16611.826,23946.44,26820.037,22680.492,15700.676,8593.424,6907.8735,6391.007,6865.1235,6582.7554,7394.777,7160.9204,8095.645,10840.048,14954.608,17416.896,17138.277,18117.35,18421.006,18459.625,16019.911,12460.734,6939.6523,-89.860344,-0.07754658,-0.001770854,0.06819815,6570.762,10399.3545,17546.738,23135.402,20136.162,13902.158,8288.57,7113.7417,8051.981,8230.404,8724.483,8471.224,9198.056,10511.829,12880.308,14369.54,14590.454,15463.831,17774.453,18325.271,16260.749,9853.152,6804.6367,1384.6573,1384.6602,-0.01484172,0.045388512,-0.00056069344,-0.012974314,4671.546,9486.733,13678.608,13892.8545,8051.74,3160.27,3335.4077,5830.514,6543.9067,8452.517,10529.415,11430.415,13182.608,14306.541,14098.326,15328.888,15766.119,16131.781,15337.555,11261.315,9720.123,6144.768,-0.0070108697,0.013153061,0.0012112856,-0.023412567,-0.043081228,-0.026630417,4671.6504,-119.67986,4136.5366,7509.023,5839.8784,3811.3606,6962.975,9543.348,8968.787,9537.211,11000.979,11600.364,12393.522,15636.185,15812.081,17297.885,16088.577,14251.674,11916.94,7787.527,8219.54,-0.068514615,-0.045055058,-0.0331495,-0.0065620616,0.038867176,0.02312839,0.04007622,-0.0625484,4121.5845,6552.906,8457.5,10098.8125,13425.35,17591.889,18454.688,17209.559,17628.697,19037.875,18420.484,16564.387,16575.127,12413.85,12209.134,8995.182,8035.229,6252.7134,4697.4604,0.0033147708,0.04041908,0.043066673,-0.031956684,-0.058138072,0.07503279,0.06645962,0.017090417,-0.05503618,4695.8096,5834.9136,8282.452,8810.388,13617.525,14717.818,14211.412,12781.075,11924.4375,11416.787,12772.223,12551.028,12417.729,9658.946,8163.5356,4992.5337,-0.08336855,-0.03102564,0.054339625,-0.07068149,0.08023385,-0.06660879,0.03688336,0.054515652,-0.058206096,-0.030283332,-0.08267335,0.02700799,-0.040137567,3346.2415,5263.295,4869.1606,3847.9565,0.072064035,0.054972,0.021184258,3340.6035,3340.6436,3626.6384,3346.6921,3346.7317,4108.431,4701.758,4701.7363,-0.01898443,-0.03257511,0.012980975,0.021820478,-0.0597595,0.02976901,-0.050106976,-0.009705871],[-0.047001313,0.082942165,0.010773167,0.0039936677,0.008366033,-0.07514809,0.022814095,-0.048539456,-0.018122658,0.07142081,-0.0060707405,0.00327567,0.030756667,0.014521785,-0.0210004,-0.019874446,0.046123452,0.06585144,-0.057275135,0.013049245,-0.03525511,-0.060621615,0.078809895,0.0010825992,-0.053299617,0.05906097,0.030674323,0.04294514,0.0391313,-0.005281426,0.08057471,-0.042955764,-0.04028118,0.022067532,-0.00026433915,-0.029312901,0.013642162,-0.05028709,-0.036029067,0.057133682,0.009350039,-4762.7437,-4762.7344,-5610.0195,-4766.0264,-4765.9155,-0.028256997,0.04086885,-0.06954493,0.07825448,-0.007895723,-0.0054910555,-0.08137588,0.04082136,-0.05562519,0.074289955,0.0059330463,0.0530098,0.07306335,0.07157894,0.0838129,0.041726254,-0.035218112,0.07064729,0.050642245,-0.05850724,-0.06277454,6043.0454,7233.396,4887.4297,256.15582,-10114.786,-14715.917,-15703.318,-14695.566,-12020.675,-7735.891,-0.05897157,-0.04163995,0.027875513,-0.05279831,-0.0076044723,0.0004742369,-0.0774869,0.0012251884,0.032590732,-0.06426723,0.036717504,0.028256737,-0.010217786,6042.31,7214.0493,10527.0,11228.97,11271.656,12517.099,10714.487,11148.323,5961.8677,-2281.5698,-8238.741,-5432.9995,-2187.0396,-95.95453,8564.629,11581.12,6344.4824,-0.053832814,0.022931576,-0.059765156,0.05479785,0.036130868,-0.04844147,0.017019324,0.015976198,-0.001646176,-0.06434635,7892.3154,9628.996,10089.145,13113.003,17253.883,17309.629,17567.15,16567.768,14787.733,9278.238,6202.277,4464.4927,5792.1064,8844.221,11579.012,13431.973,13990.806,7836.8516,2182.261,-5524.108,0.04795686,0.052943625,0.0030226558,-0.028432757,-0.028412685,0.030868694,7181.4624,5955.6846,10522.3,12518.991,14960.134,19439.143,22052.615,22874.363,21639.318,17045.895,11581.617,6510.749,3643.1433,4479.7593,6008.145,8748.527,10333.221,14595.129,14717.664,9153.609,1622.2805,512.40137,1590.6555,-5530.491,0.06275719,-0.00048957765,0.025515832,-0.018641919,7314.8086,8531.735,14620.617,15191.475,17757.232,20721.395,22271.346,21392.553,19792.281,15328.283,9158.871,6253.161,6732.174,8412.637,8328.61,9526.475,11592.797,15537.948,13374.921,8788.929,-1680.6254,-204.03966,-3308.8728,-5530.502,0.07173882,0.024642043,0.07193101,-0.027227625,8979.394,14018.128,16808.072,18496.666,18560.723,19401.049,20825.793,20544.838,17266.965,11752.88,9054.403,9144.699,11500.888,12959.127,14284.38,14699.089,15720.338,16441.297,13128.678,7959.0205,-5004.5186,-4530.3745,-8961.9375,-4490.2544,0.08197614,-0.06459057,-0.018454567,-0.07791391,10986.837,15843.362,16994.094,17259.287,19603.225,20264.928,20467.889,18127.438,14280.919,9389.237,6953.8716,9230.104,12061.309,15719.9,18545.727,19874.057,20511.092,19412.867,15130.325,6634.5356,-2059.5786,-8293.146,-8931.915,-3937.7458,0.05482971,-0.07639528,3097.5637,3098.8276,9693.19,14935.028,16110.467,19138.215,21031.508,19059.281,17520.52,13960.204,9617.937,5803.132,5270.3467,7855.1846,10923.562,15354.028,19029.268,21208.121,21657.143,20155.17,16112.966,7970.5845,-2536.4775,-7918.288,-9224.779,-5530.0693,0.057657473,0.040634386,3097.5454,3098.8098,8520.376,14598.368,16189.246,19587.238,20626.81,17229.531,13616.232,11013.712,5976.6855,1249.9747,-526.56714,2552.5388,8469.653,15201.654,20205.633,22423.463,23088.057,20317.564,15898.154,10858.843,886.95734,-3375.7104,-6152.1914,-5530.112,-0.054247588,-0.064591676,0.05425591,-0.0059128106,8146.7,11568.91,16284.416,18762.592,19592.986,15547.5205,12772.633,9462.617,3326.8333,-2795.7476,-3454.7656,2054.916,7384.788,14567.149,18961.332,22205.545,22408.02,19889.781,15315.088,11717.951,7811.719,4600.0415,-1543.1516,1892.2023,-0.023155082,-0.020560876,-0.007228926,0.039000705,7554.6626,11214.454,16369.245,18179.762,18933.516,17297.928,13974.797,9700.354,4128.726,-2136.7239,-2013.8916,1858.4882,6166.5776,12735.508,18570.588,20279.055,19788.89,16006.332,12079.239,9264.0,6529.058,4319.106,1892.3279,1892.1884,-0.07437071,0.0022532567,-0.021111459,0.041099913,6712.1313,12836.033,15217.653,17403.762,19922.094,18612.578,16269.847,11885.354,7242.2285,3611.5547,1099.9375,3237.1116,7462.2964,14597.921,20263.258,21209.729,17913.55,11146.766,5835.783,6356.3335,4232.5186,2522.36,-4232.635,1892.1838,0.034926437,0.06602322,0.013253361,0.022277549,6352.439,11477.768,13713.659,17880.441,21169.473,21323.035,18612.184,15349.44,15885.646,12625.504,8299.783,6749.411,9355.328,16810.482,21530.473,20546.766,15140.252,7853.2144,4445.556,6472.3066,6842.05,5434.5244,7005.6123,6042.4106,-0.017926462,0.007952519,0.072935335,-0.08054463,1544.7173,8123.166,15441.235,20789.785,23249.809,22976.37,19107.652,18165.432,17984.02,15160.423,9593.629,7838.4243,11602.05,19321.338,22542.88,20863.867,13212.144,7123.9346,6939.6816,10069.812,11594.937,10229.91,8335.006,6042.439,0.082642786,-0.046416238,0.056015722,-0.08336945,-4540.4526,3524.4905,15164.476,23541.516,23066.256,20666.547,17056.5,15893.81,15487.232,12429.513,8721.547,8284.199,14065.612,21234.953,24404.342,20263.193,11215.74,6268.633,8050.6313,12828.015,14239.535,15212.231,11242.159,6042.4023,-0.06458795,0.012850396,-0.028596286,0.058631025,6147.9893,7833.37,16879.398,21884.416,20405.135,14686.508,9322.123,5931.121,6145.587,8025.6963,9519.557,11026.754,16229.614,20459.418,21135.229,15678.203,9663.575,7845.8315,12704.934,16614.252,17050.385,17940.457,14009.507,-0.057641856,0.064731784,0.08185556,0.048051246,0.042272843,13167.696,14921.141,17647.965,18786.0,15668.361,9096.21,1507.6019,-2648.3809,2144.0881,6622.0947,8976.468,11540.951,14990.615,16606.96,15297.885,11756.388,9696.511,12119.177,14868.263,19083.742,17412.605,17428.969,10110.357,0.06571398,0.052701302,-0.067475654,0.08158182,7085.9316,16090.023,22514.31,22434.307,19256.578,12822.563,4628.96,-1858.8157,-1226.3247,2789.8384,6908.7725,9325.797,11315.36,11880.162,12214.48,13616.823,14267.237,14656.071,15047.558,15933.911,18185.23,15702.323,12855.513,6030.885,-0.021353222,0.05205106,0.045875244,0.05436518,7303.5503,17646.893,23695.107,25833.182,22026.396,14224.262,6509.138,2096.424,2678.224,4483.0815,6696.175,9026.679,9571.453,9563.591,10916.525,14447.737,17179.889,18648.93,18167.795,16644.74,18087.959,17080.402,12797.822,6280.231,1892.1844,-0.020349339,-0.042215824,0.034970313,8471.418,16103.001,23191.424,26070.795,22531.21,16242.103,9571.044,8065.9297,7549.1357,7929.149,7509.093,8203.834,7968.924,8914.737,11620.45,15633.683,18046.98,17624.889,18606.604,18957.756,18714.254,15860.944,12276.696,7167.8022,581.1337,0.022170193,-0.04897551,-0.0006149784,6215.6567,9975.559,17056.58,22462.836,19666.018,13998.431,8959.019,8030.339,8957.454,9093.735,9512.328,9301.307,10079.603,11353.807,13683.22,15153.87,15226.384,16101.973,18253.66,18516.037,16157.203,9696.877,6693.2324,1892.2399,1892.2538,0.0061809793,0.05637189,0.06315247,0.0016100556,4422.28,9037.174,13242.513,13365.888,7726.6855,3182.7378,3837.798,6436.2397,7196.6304,9059.469,11169.6875,12174.526,13821.991,14866.739,14720.697,15842.09,16106.546,16237.863,15250.492,11156.212,9587.892,6034.118,0.06099098,0.021714851,0.013476148,0.083985634,0.038801096,-0.039740905,4422.315,-416.62384,3778.0994,7208.8276,5549.484,3373.108,6724.971,9434.365,9005.429,9571.344,11072.949,11712.712,12523.398,15664.568,15944.4795,17285.125,15947.526,14063.815,11792.726,7735.2095,8117.377,-0.044908,-0.018710062,0.012772322,-0.009393439,-0.06449728,-0.019074157,0.036531717,-0.013300806,3922.0664,6268.9473,8026.353,9532.025,12713.517,16929.967,17899.219,16670.043,17037.725,18528.732,17862.525,16219.689,16348.88,12399.673,12034.6875,8898.258,8110.1523,6308.806,4722.941,0.075707234,0.027035825,0.051301815,0.0026354417,-0.07987857,-0.04773572,-0.058954082,0.037209287,0.03326959,4726.36,5695.6353,7888.198,8322.801,12953.497,14096.718,13545.573,12261.772,11395.829,10891.7,12267.925,12174.727,12265.066,9573.55,7935.6357,4816.617,0.0617444,-0.06474556,0.017267443,-0.07982828,-0.011244595,0.026611984,0.081902705,-0.076083645,-0.033626705,-0.029343005,-0.04802505,0.05598996,0.012162179,3098.8503,4886.401,4518.4375,3561.8552,-0.014686532,0.024046943,0.037247837,3098.9424,3098.9443,3369.0762,3097.551,3097.7012,3904.0571,4725.316,4725.22,-0.05338186,-0.002550006,0.06402958,0.027331106,-0.029638272,-0.03279824,0.07204,-0.03145439],[-0.06923081,-0.06603231,-0.078217015,-0.05574267,-0.033393428,0.0539395,0.0010181218,0.008700803,-0.063659474,0.07813617,0.025341332,-0.04745397,0.021521665,-0.035208706,-0.0077039003,-0.061160587,-0.008266218,0.05145078,0.0658148,-0.019358315,0.032089144,-0.06470862,-0.020224683,-0.038094107,-0.007070832,0.06769607,0.04990139,0.013810962,-0.07453451,-0.0050893575,-0.022160947,0.038846157,0.052824743,0.019244581,-0.040512994,0.06910036,0.078768365,0.0016503707,-0.06643762,-0.0795812,-0.041008886,-4766.032,-4766.053,-5615.551,-4771.6533,-4771.6343,0.05160763,0.06277197,-0.002411969,0.04541605,-0.03564247,-0.04495262,-0.038140696,0.066879876,-0.010494284,0.07200556,-0.0824818,0.05982346,0.07225334,-0.06870824,-0.0030761808,-0.067344815,0.05271917,-0.04035859,0.017766848,0.073754884,-0.067885,6049.787,7241.5557,4898.8374,268.6796,-10116.751,-14722.447,-15711.885,-14711.728,-12033.212,-7742.1646,-0.075348236,0.005936995,0.06501231,0.031840086,0.07192374,0.066374205,-0.040283184,-0.059162088,0.0068027377,-0.08410646,-0.049227376,-0.013972059,-0.027354714,6049.6333,7222.8315,10540.83,11243.1875,11287.025,12531.846,10726.647,11164.101,5978.4272,-2263.4507,-8225.951,-5419.6987,-2176.9607,-84.962135,8577.117,11587.459,6351.16,0.05936096,-0.057178732,-0.018462867,-0.0124119,-0.035032205,0.070103936,0.02054225,0.07485478,0.039621018,0.07115563,7901.8613,9639.899,10101.408,13131.06,17272.143,17326.748,17588.176,16594.54,14812.964,9305.276,6231.9575,4496.1147,5825.188,8871.108,11601.007,13452.264,14004.698,7851.2993,2188.2485,-5529.0747,0.020703346,0.04132981,-0.07770465,0.040651187,-0.014711119,0.011057578,7187.721,5962.9536,10533.608,12532.061,14976.827,19459.21,22077.479,22899.35,21667.865,17076.172,11612.253,6542.2427,3677.2197,4517.354,6046.2783,8783.591,10361.629,14620.032,14740.007,9172.54,1629.7134,515.57355,1597.6262,-5534.302,-0.02859123,-0.015032917,0.05372057,-0.03380415,7321.23,8541.327,14636.022,15211.755,17780.91,20746.506,22300.473,21421.951,19822.732,15363.03,9192.255,6289.2573,6768.2827,8449.99,8366.826,9566.792,11628.244,15568.398,13401.76,8813.281,-1667.2437,-195.80244,-3309.7803,-5534.328,0.0026192367,-0.056302316,-0.07088617,-0.04281143,8987.102,14033.238,16825.453,18513.678,18586.213,19433.828,20859.975,20576.848,17300.342,11788.682,9092.46,9182.065,11538.417,12997.058,14320.727,14735.571,15756.482,16475.438,13158.397,7987.4673,-4993.556,-4525.33,-8973.992,-4497.0356,-0.0795874,0.04189018,0.028447479,-0.018255942,10994.789,15860.12,17011.236,17280.584,19633.312,20299.814,20499.31,18157.979,14316.017,9429.314,6993.546,9268.618,12097.291,15755.922,18579.742,19909.727,20546.604,19446.922,15163.635,6662.1777,-2038.0222,-8286.57,-8950.2705,-3943.921,-0.011716284,-0.00038882345,3105.9697,3103.9185,9703.446,14951.75,16132.596,19166.22,21062.115,19089.877,17550.215,13991.533,9657.015,5843.3076,5308.983,7893.3955,10959.868,15387.468,19063.588,21243.367,21690.902,20187.984,16144.319,8000.2285,-2515.7764,-7903.372,-9235.061,-5534.2646,0.041219167,-0.011345245,3106.0486,3103.966,8532.964,14616.636,16211.829,19613.305,20655.625,17257.578,13642.309,11045.019,6014.354,1286.1127,-487.95837,2592.9597,8506.695,15233.222,20239.291,22459.775,23121.678,20350.28,15929.769,10888.561,910.0752,-3359.8284,-6157.2046,-5534.262,0.06664356,0.08062277,0.08258074,0.013724409,8158.794,11586.358,16303.146,18787.828,19620.486,15576.965,12797.581,9496.911,3363.384,-2758.872,-3415.3513,2094.1091,7421.7256,14601.912,18997.027,22240.826,22440.738,19920.705,15344.345,11746.964,7838.3804,4616.995,-1536.9128,1898.4735,-0.041127954,0.025185771,0.062499903,0.048339523,7565.3647,11227.558,16387.59,18206.207,18963.496,17327.688,14004.6045,9737.337,4164.9243,-2100.5159,-1976.2286,1897.8296,6203.829,12770.981,18606.346,20311.27,19819.64,16036.4795,12106.946,9292.601,6558.546,4338.4814,1898.6056,1898.6046,0.07082147,-0.0803793,0.00046117604,0.07889996,6718.7773,12851.43,15238.06,17432.826,19952.69,18641.926,16301.406,11922.301,7276.65,3646.9563,1139.6895,3274.6145,7498.8506,14633.368,20298.03,21240.48,17945.383,11181.081,5866.1934,6386.6797,4263.902,2541.7522,-4233.312,1898.5104,-0.011016592,0.029111534,-0.062311873,-0.027408402,6358.2803,11491.155,13735.628,17909.857,21200.607,21352.525,18644.1,15385.457,15918.452,12659.272,8335.565,6784.903,9391.436,16846.416,21564.336,20579.926,15171.968,7885.4126,4479.346,6503.647,6871.8457,5454.825,7015.001,6049.404,0.051570974,-0.07194081,-0.076774195,0.061434694,1549.1625,8135.5635,15465.713,20819.145,23280.873,23007.512,19139.74,18196.611,18013.773,15191.978,9626.553,7871.8604,11636.942,19357.049,22577.34,20897.6,13243.816,7155.7715,6971.7925,10101.706,11623.466,10247.624,8343.97,6049.409,0.020568661,-0.029790286,-0.07747539,-0.016799882,-4549.174,3540.3333,15189.141,23569.412,23097.154,20699.479,17090.627,15928.526,15519.719,12462.53,8756.024,8319.611,14100.298,21270.271,24438.738,20294.123,11251.643,6299.053,8081.525,12856.561,14267.419,15230.8125,11256.043,6049.4307,-0.0628425,-0.011535704,-0.0036557466,-0.020265952,6158.444,7852.399,16905.133,21912.682,20435.195,14721.991,9358.171,5963.922,6178.4307,8062.0767,9556.625,11064.039,16265.487,20494.436,21169.033,15710.167,9698.61,7878.162,12734.7,16640.068,17073.105,17957.809,14023.762,-0.04276019,0.018289454,-0.062396385,-0.026446994,-0.0094837025,13181.312,14945.493,17675.217,18815.732,15702.286,9130.52,1539.6028,-2617.8618,2177.3774,6657.835,9011.065,11576.724,15025.5205,16642.209,15330.946,11789.25,9725.896,12147.895,14896.429,19109.217,17433.71,17446.656,10125.201,0.011140808,-0.044921134,0.06989268,-0.06508015,7093.115,16106.595,22539.13,22463.28,19287.432,12857.191,4663.715,-1825.746,-1192.9324,2823.1816,6942.7803,9359.696,11351.83,11916.772,12250.498,13649.118,14299.347,14682.865,15075.147,15961.847,18207.56,15716.249,12867.629,6037.615,0.06447629,0.03710462,-0.02854406,0.059012778,7310.9062,17663.867,23720.85,25862.662,22053.346,14253.872,6544.6455,2132.3828,2714.3396,4517.8096,6731.689,9062.619,9609.226,9600.586,10951.238,14479.083,17210.727,18677.576,18194.148,16669.236,18107.33,17098.86,12812.622,6287.3657,1898.6111,-0.00745707,0.078932814,-0.08304047,8478.825,16120.716,23216.701,26100.754,22561.771,16271.241,9603.325,8100.727,7585.0444,7964.055,7545.669,8240.202,8007.4077,8950.626,11653.114,15661.502,18075.734,17653.418,18632.182,18979.027,18732.354,15878.967,12287.326,7175.49,589.87463,0.0348403,-0.060573544,0.047728635,6223.2905,9989.983,17073.549,22483.951,19690.896,14027.891,8989.084,8063.8276,8993.176,9131.679,9550.802,9338.548,10116.553,11387.52,13714.417,15182.534,15257.175,16130.777,18277.348,18536.877,16175.438,9710.914,6701.5493,1898.5974,1898.616,-0.07765307,-0.025720872,-0.065975904,0.07066537,4428.22,9051.162,13262.312,13392.144,7754.474,3208.7837,3866.7363,6469.563,7232.34,9093.615,11202.671,12210.218,13853.53,14894.399,14747.686,15873.002,16135.458,16263.069,15267.652,11169.496,9598.635,6041.3975,0.047548585,-0.031088293,-0.018917367,-0.022894852,0.078845076,-0.067087956,4428.1045,-411.74942,3800.4673,7229.2485,5573.311,3395.1326,6744.599,9461.437,9032.499,9601.936,11104.697,11743.624,12550.518,15685.857,15961.344,17306.291,15964.57,14079.572,11805.553,7746.0933,8125.226,-0.017817803,0.059571736,-0.02592104,0.033698678,0.03350874,0.017244115,0.05616582,0.08048131,3932.3818,6278.521,8034.91,9553.538,12737.516,16947.49,17924.13,16699.037,17062.668,18559.412,17889.09,16244.629,16368.108,12409.566,12045.059,8904.145,8119.8613,6312.3716,4728.7744,0.07486022,0.073153086,-0.053761218,0.060628794,-0.035462417,0.050514065,0.037144013,-0.080413714,0.08017177,4732.3647,5696.4478,7903.4688,8337.606,12962.888,14111.533,13567.999,12282.14,11412.807,10910.144,12288.697,12196.544,12286.562,9587.188,7939.565,4818.733,0.05194486,-0.043116502,0.046605982,-0.046008844,-0.008584484,0.0096800625,0.024786055,0.004190482,-0.017054297,-0.07834701,0.044772707,0.08021004,-0.030671474,3105.233,4896.8374,4527.4736,3568.3467,0.05914528,-0.0095345825,0.064556845,3105.5093,3105.5347,3376.029,3104.054,3104.071,3913.8,4731.049,4731.0654,-0.0036091357,-0.025379758,0.06709189,-0.036300126,-0.014231652,0.02045399,0.025656395,-0.03981585],[-0.08131634,-0.009510756,0.06205573,0.08166214,-0.04221101,0.022961617,0.05113218,-0.074592516,0.059846155,0.0031535327,0.016892217,-0.067953706,0.018213287,-0.03393944,0.030614316,-0.0691262,0.07940025,0.026362523,-0.035796933,-0.057509355,-0.05684065,-0.0085693225,-0.034320157,0.07705697,-0.06919676,-0.0582875,-0.07538638,0.0647868,0.08316786,0.024864815,-0.01687006,0.06898082,-0.07569246,-0.032558125,-0.057470508,-0.0784964,0.031289622,0.0727414,-0.040851917,0.070808925,-0.01891753,4561.7686,4561.8276,5366.464,4561.7373,4561.7666,0.06253218,0.021359101,-0.0151136,0.03522762,0.036684453,-0.01452744,-0.02747029,0.06836874,0.0386201,0.061858617,0.047275744,0.018568553,-0.08394001,-0.01924982,0.04568448,0.016210958,-0.06626648,-0.04152975,0.07547944,0.012945339,-0.06306196,-5744.4854,-6859.709,-4500.256,145.27992,9865.987,14203.728,15181.953,13947.795,11446.711,7358.9194,0.06016057,-0.07139619,-0.014248617,-0.051665213,-0.07615534,0.040619485,0.012784399,-0.014566362,-0.01143533,0.02380827,0.00565286,-0.061430648,-0.055199668,-5743.449,-6849.788,-9974.996,-10639.606,-10577.407,-11637.037,-9598.644,-10034.6455,-4933.0405,3201.3254,8785.45,6147.9424,2773.957,684.9637,-7807.961,-10989.859,-5991.0854,-0.07743474,0.0014846176,-0.023360323,-0.040659755,0.05467684,0.018676229,0.0702787,-0.06946182,-0.08108226,-0.060084872,-7511.0107,-9138.033,-9448.798,-12173.157,-16080.66,-16119.718,-16108.53,-14318.612,-12387.203,-6982.796,-4102.61,-2414.137,-3469.078,-6700.1143,-9996.066,-12447.871,-13265.176,-7445.1504,-2087.9343,5139.0376,-0.041334797,0.057940952,-0.08284389,0.011167906,-0.005818248,0.06821864,-6963.262,-5783.0806,-10159.184,-12068.5,-14225.684,-18405.38,-20750.72,-21374.7,-19865.129,-15036.539,-9571.928,-4455.2803,-1395.1982,-2145.0732,-3540.7012,-6327.619,-8064.3833,-12936.815,-13566.942,-8502.62,-1384.2322,-469.0264,-1528.2013,5135.637,-0.0696088,0.06887006,-0.039876092,-0.06851018,-7101.365,-8253.288,-14219.126,-14733.023,-16881.525,-19557.068,-20783.008,-19728.195,-18143.37,-13475.514,-7321.2637,-4310.9365,-4555.858,-6024.005,-5947.9336,-7115.254,-9327.735,-13650.997,-12032.534,-8127.415,1774.9575,370.75037,3061.211,5135.7446,-0.066809855,-0.021055892,0.080136575,-0.04427569,-8823.535,-13679.258,-16391.41,-17910.83,-17720.133,-18215.855,-19370.066,-19120.156,-15724.627,-10097.232,-7219.079,-7179.0244,-9389.527,-10703.391,-11947.023,-12361.071,-13376.423,-14389.955,-11702.367,-7268.2637,4904.3916,4504.997,8135.448,4038.5193,-0.04396749,-0.06618307,0.07829172,0.040088452,-10960.765,-15506.4795,-16659.076,-16563.508,-18673.408,-18846.66,-18951.963,-16452.408,-12591.628,-7766.16,-5323.2915,-7477.1016,-10286.191,-13905.131,-16568.354,-17872.506,-18503.81,-17502.463,-13485.033,-5587.528,2447.3281,8395.987,8014.2563,3534.3115,0.069560684,-0.002489999,-3291.7349,-3291.082,-9723.194,-14613.126,-15703.389,-17932.64,-19682.506,-17519.744,-15863.605,-12145.821,-7735.7925,-4199.9297,-3706.9463,-6172.7295,-9423.74,-13850.149,-17418.902,-19520.574,-19850.854,-18204.018,-14264.95,-6234.8013,3357.7046,8555.329,8377.254,5136.3457,0.02157826,-0.01784107,-3291.73,-3291.0815,-8607.596,-14344.017,-15452.278,-18076.197,-18846.158,-15463.581,-11676.228,-9124.349,-4314.1807,205.29625,1893.4509,-937.8498,-7027.5117,-13812.614,-18777.379,-20984.896,-21400.592,-18330.568,-13585.188,-8098.011,1430.8147,4821.587,5708.667,5136.2456,0.016216896,-0.022861,0.033810265,0.0148454085,-8280.118,-11563.183,-14746.361,-16761.648,-17472.213,-13437.934,-10679.086,-7625.582,-1798.4423,3795.9272,4256.4844,-899.3604,-6124.201,-13318.94,-17742.979,-20898.408,-20864.184,-17810.02,-12595.422,-8026.66,-3753.2502,-1842.3722,2379.5042,-684.37286,0.058817603,-0.012621872,0.012854829,0.0382607,-7671.424,-11040.405,-14316.601,-15606.427,-16395.176,-14749.44,-11652.084,-7836.1465,-2822.9517,2637.9626,2506.6062,-928.418,-5162.0015,-11733.826,-17484.135,-19089.418,-18311.924,-13667.594,-8878.34,-5016.7095,-1982.2098,-980.8926,-684.30347,-684.38513,0.029237695,0.061852,-0.03508653,0.03597895,-6632.1846,-12310.997,-12856.39,-14166.992,-16788.557,-15763.675,-13678.981,-9904.794,-6047.948,-3029.9258,-385.09024,-2293.1921,-6444.368,-13662.634,-19260.082,-19919.938,-16331.021,-8660.05,-2171.8706,-1906.4987,292.16806,734.3419,4485.661,-684.40674,-0.07366227,-0.011565007,-0.043655775,0.06671549,-6224.4326,-10613.516,-10584.723,-13976.881,-17525.363,-18150.662,-15897.989,-13290.143,-14388.532,-11630.968,-7101.0483,-5554.94,-8289.906,-15937.751,-20516.352,-19403.73,-13617.411,-5314.8076,-841.1283,-2177.6692,-2441.157,-2026.01,-6672.919,-5750.148,0.06914135,0.029212244,-0.026638098,0.031755514,-1525.1757,-7222.271,-11658.418,-16700.615,-19475.266,-19669.656,-16393.193,-16074.331,-16469.895,-13733.234,-8038.1616,-6389.3086,-10445.56,-18361.666,-21562.93,-19728.854,-11657.529,-4599.8433,-3556.7786,-6176.3667,-7700.8867,-7149.049,-7933.2437,-5750.155,-0.0016326159,-0.044360302,0.024025477,0.041194476,4090.526,-2938.6426,-11761.084,-19694.207,-19337.998,-17374.11,-14489.195,-13942.523,-13875.187,-10743.038,-6923.2554,-6756.091,-12895.367,-20170.61,-23352.975,-18902.43,-9434.508,-3700.2715,-4731.899,-9306.381,-10529.082,-12496.684,-10707.162,-5750.144,-0.0049302876,0.04400394,0.03892903,0.016369574,-6121.921,-7130.744,-13934.016,-18217.95,-16697.309,-11474.899,-6869.9365,-4277.7583,-4694.0874,-6256.2065,-7587.118,-9548.796,-15113.634,-19368.52,-19901.21,-14041.881,-7553.4043,-5092.9365,-9584.295,-13424.892,-14016.027,-15690.443,-13282.364,-0.005366236,-0.033443466,0.038332596,-0.0045702234,0.0037324354,-12850.076,-14093.801,-15137.893,-15465.174,-12055.918,-5865.8394,779.06244,4067.0962,-596.438,-4721.8433,-7176.494,-10126.585,-13813.518,-15410.137,-13713.011,-9798.67,-7342.1006,-9367.4,-12203.955,-16336.248,-14838.902,-15480.077,-9610.059,0.0421462,0.054487146,-0.03767777,0.040883683,-6885.136,-15688.382,-21558.012,-20323.848,-16428.28,-9518.153,-1621.442,4057.4685,3137.139,-828.1581,-4966.824,-7610.709,-9821.346,-10567.668,-10675.84,-11625.238,-12010.364,-12160.0,-12566.313,-13303.04,-15632.915,-13228.887,-11246.226,-5734.8623,-0.018447727,-0.048615124,0.027801372,-0.025327034,-7119.996,-17130.434,-22849.041,-24317.287,-19764.516,-11587.13,-3716.7441,366.4955,-320.89697,-2186.7212,-4576.0156,-7139.143,-7933.11,-7938.5903,-9011.085,-12189.151,-14826.144,-16341.278,-15778.378,-14154.056,-15602.061,-15222.22,-12167.157,-5747.43,-684.4053,-0.035113566,0.032666862,0.04132729,-8286.702,-15588.381,-22378.477,-24974.201,-20941.54,-14112.908,-7252.843,-5571.451,-5111.055,-5662.699,-5555.748,-6424.5117,-6218.9375,-7004.9136,-9479.382,-13339.507,-15646.448,-15456.123,-16352.017,-16658.26,-16884.021,-14956.636,-11670.337,-6198.86,708.17505,0.030626252,0.08130675,0.082104914,-6175.899,-9763.527,-16280.129,-21524.496,-18749.277,-12720.715,-7205.652,-5953.3125,-6883.051,-7171.5547,-7719.0986,-7462.9136,-8078.7217,-9237.286,-11421.735,-12858.86,-13151.425,-13955.352,-16171.588,-16857.104,-15095.31,-9235.587,-6377.526,-684.3949,-684.3285,0.04887549,-0.017266758,-0.028655548,0.0066519678,-4393.9326,-8915.868,-12764.762,-13036.74,-7585.2695,-2861.395,-2796.6472,-5128.006,-5814.9434,-7635.694,-9556.038,-10317.582,-12011.576,-13121.8545,-12939.229,-14102.064,-14477.383,-14962.706,-14282.745,-10547.922,-9091.86,-5740.8584,0.072696514,0.053465135,-0.023156065,0.080481224,-0.072744004,-0.0026605055,-4393.807,-8.188423,-4085.5574,-7183.9595,-5556.7666,-3874.8843,-6838.8223,-9291.365,-8674.02,-9149.53,-10474.656,-10943.3,-11707.694,-14852.928,-14933.43,-16293.173,-15141.811,-13450.3955,-11218.112,-7326.591,-7701.6074,-0.0022171363,0.019716829,0.014036134,0.013718046,0.034109585,-0.04314428,0.0020843744,-0.03996642,-4046.477,-6378.783,-8261.435,-9897.401,-13129.212,-17013.084,-17873.846,-16718.262,-17042.062,-18305.102,-17706.63,-15933.881,-15902.689,-11925.443,-11729.897,-8637.725,-7665.977,-5967.208,-4476.758,0.04857219,0.016369648,0.0052987337,0.046193384,-0.027247902,0.021646686,-0.059981085,0.057373084,-0.07720507,-4474.27,-5618.453,-8087.975,-8609.106,-13153.063,-14257.644,-13843.458,-12415.9795,-11568.319,-11142.035,-12397.993,-12126.495,-11893.511,-9249.982,-7843.0864,-4845.149,-0.003429927,-0.023002908,0.08000005,-0.0070203766,-0.009969108,-0.06309999,-0.025323126,-0.006035164,0.02008807,0.042301618,-0.07815944,0.07013046,0.014535941,-3291.348,-5168.7534,-4786.305,-3797.0415,0.0001963973,-0.0548013,0.034929946,-3286.2888,-3286.2222,-3567.679,-3291.5056,-3291.4087,-4018.2598,-4482.5894,-4482.626,-0.03813963,-0.021720447,0.08338947,0.064889215,-0.020302512,0.034795977,-0.072016716,0.08338184],[0.04279942,0.0034327358,-0.044486385,-0.01379285,-0.03091273,-0.0028611124,0.022113979,0.037958674,-0.05144832,-0.00066838413,-0.020951666,0.03823529,-0.027705152,-0.02161149,-0.00040125847,0.043923043,0.013995104,-0.056085244,0.03489182,0.03100992,0.059246235,-0.022188846,-0.060806222,-0.05401864,0.06276537,-0.04035783,-0.051108815,-0.0712914,-0.024498675,0.07555076,-0.053203534,-0.025289472,0.02589304,-0.063773185,0.016834281,0.05748055,0.006633401,-0.060065776,-0.08002098,-0.02260879,-0.02883187,-4690.2295,-4690.181,-5539.924,-4688.74,-4688.6367,0.041870736,0.012223549,0.07051013,-0.00089818984,0.048064344,-0.026457522,-0.07439335,0.015300252,0.05233995,0.028824508,-0.035083365,-0.050135296,0.059909575,0.020160101,0.0120354295,0.038400665,0.06931052,0.037052102,0.027024291,-0.029098578,-0.064176425,6117.4697,7310.987,4911.5127,192.26254,-10079.572,-14581.552,-15557.258,-14462.395,-11863.987,-7619.721,0.08291135,-0.077173226,-0.0582652,0.023883335,0.069497176,0.077473186,0.0016344041,-0.06942849,-0.016967684,-0.049794205,0.011265829,0.05115951,0.019200064,6116.0337,7291.5083,10630.967,11337.43,11349.569,12561.8545,10600.191,11041.573,5775.436,-2588.4932,-8478.869,-5666.9263,-2299.8025,-183.86713,8564.324,11691.379,6376.4507,0.020350926,0.0036836788,-0.06702017,0.048521183,0.07776243,-0.070564374,-0.06874851,0.006063521,0.03291115,0.00952407,7996.4062,9734.25,10120.052,13084.176,17308.295,17485.508,17641.057,16131.317,14225.9795,8635.44,5596.6436,3833.7112,5035.9395,8231.675,11248.555,13387.03,14012.655,7821.8667,2141.5054,-5474.8716,-0.0111451,0.018632852,0.017847806,-0.0105083585,0.058988176,-0.02508746,7387.925,6124.4224,10762.357,12793.212,15214.762,19772.057,22389.096,23148.26,21701.389,16784.959,11149.983,5913.2466,2851.7297,3619.7305,5054.3164,7869.8315,9566.502,14229.967,14554.025,8966.81,1465.2368,449.3603,1560.495,-5480.5435,-0.062880345,-0.017556213,0.016428575,-0.018073708,7532.3955,8738.801,15049.063,15646.216,18106.951,21052.96,22472.455,21460.64,19814.738,15083.056,8710.68,5636.2354,5961.6504,7531.989,7404.3037,8615.567,10821.067,15096.398,13084.244,8641.577,-1888.7986,-367.73495,-3321.8406,-5480.545,0.038970858,-0.027585242,-0.004997909,-0.06606478,9316.563,14468.228,17349.31,19025.14,18899.867,19597.201,20930.846,20648.287,17192.936,11411.362,8534.154,8506.773,10808.078,12217.165,13527.442,13955.144,15018.03,15956.172,12833.377,7816.5425,-5150.0225,-4670.734,-8686.631,-4334.4424,0.031037413,0.03925173,0.03356237,-0.015517987,11505.649,16391.89,17577.805,17621.414,19903.324,20332.865,20480.473,17947.994,13933.908,8922.643,6399.0645,8663.888,11549.746,15295.905,18133.115,19480.61,20160.879,19117.97,14831.485,6314.55,-2258.1787,-8558.95,-8603.171,-3796.0671,-0.018109344,-0.025212765,3303.2935,3301.222,10116.66,15405.09,16582.82,19263.432,21124.543,18990.35,17263.064,13478.581,8967.54,5193.4023,4698.3276,7298.616,10545.723,15095.289,18818.547,21010.826,21447.234,19881.893,15780.94,7436.704,-2895.4102,-8428.268,-8972.53,-5474.6167,0.039421372,0.023648635,3303.2478,3301.129,8895.565,15012.637,16433.785,19564.898,20460.541,16952.723,13067.051,10372.118,5305.8374,576.0811,-1159.8926,1877.3676,8047.484,14990.574,20097.275,22382.947,22977.85,20030.584,15384.12,10049.258,-40.14,-4109.1406,-6091.1265,-5474.658,-0.07342936,0.0012872741,-0.056304827,0.037347123,8491.048,11976.359,16149.85,18448.625,19225.785,15013.08,12086.789,8785.974,2632.5642,-3323.4473,-3882.9177,1566.5953,7007.3623,14371.788,18866.986,22198.107,22338.113,19557.445,14655.293,10584.29,6457.4097,3628.09,-1925.0769,1492.5345,0.0647191,0.0005356595,-0.032836065,0.036988646,7888.5576,11548.273,16005.338,17587.756,18321.148,16596.367,13231.782,9063.8,3633.8333,-2356.2786,-2262.401,1453.7781,5813.7764,12544.99,18523.814,20278.354,19692.709,15516.967,11169.95,7864.388,4932.5435,3099.592,1492.5348,1492.5518,0.046930604,-0.05600711,-0.077942625,0.017274342,6954.7437,13078.356,14689.237,16532.498,19083.135,17804.9,15483.2,11299.309,6912.5654,3502.5957,757.55927,2799.6099,7088.5576,14498.984,20361.873,21239.377,17790.592,10509.051,4559.8276,4795.871,2567.318,1252.1031,-4477.418,1492.4967,-0.014105886,0.048091628,-0.057684712,-0.054854203,6549.4062,11493.545,12829.191,16728.451,20129.63,20455.812,17860.68,14813.375,15636.936,12455.203,7821.8555,6241.8047,9022.965,16855.172,21699.148,20698.674,15049.68,7132.817,3149.997,4972.45,5281.411,4199.2593,7070.5054,6118.0186,0.07033015,0.059966005,-0.072330534,-0.05416528,1571.0983,7971.9077,14299.271,19578.832,22188.447,22117.395,18399.877,17680.375,17710.523,14786.928,8952.29,7219.7534,11297.653,19417.81,22792.443,21069.834,13105.367,6417.7427,5835.298,8822.465,10372.954,9249.428,8444.533,6117.9473,-0.08043505,0.05245661,0.06903995,-0.08137947,-4366.7656,3337.4954,14103.157,22504.883,22064.562,19764.26,16363.34,15400.094,15062.895,11802.638,7920.469,7627.898,13798.45,21310.797,24676.922,20363.896,10971.868,5541.343,6999.3076,11817.752,13144.118,14484.559,11372.76,6117.97,0.04652115,-0.069481134,-0.0032805577,0.012035854,6378.6006,7844.514,16104.686,20871.307,19336.135,13667.663,8474.96,5294.317,5501.3057,7242.808,8691.604,10481.537,16053.478,20486.94,21229.395,15554.0205,9250.3125,7069.964,11869.425,15820.252,16251.397,17472.74,14150.216,0.047418095,-0.027870763,0.006342545,-0.010469876,-0.04814165,13595.608,15152.037,17114.982,17808.863,14496.232,7900.3774,501.78888,-3362.464,1409.6876,5810.4595,8262.765,11086.723,14780.767,16501.828,15119.005,11409.537,9158.163,11453.441,14284.374,18578.078,16823.547,17068.512,10209.989,0.025744297,-0.02668729,0.08395166,-0.07081522,7286.933,16589.309,23026.5,22303.32,18579.492,11694.221,3386.0938,-2888.8674,-2103.619,1962.1904,6157.529,8726.812,10874.036,11559.451,11891.831,13237.249,13842.91,14159.864,14563.835,15387.715,17744.69,15121.591,12545.612,6114.174,0.03870832,0.05201023,-0.071850084,0.054555453,7529.3643,18147.375,24323.324,26183.72,21770.922,13457.01,5406.8516,1059.8892,1712.5813,3587.0083,5923.8584,8416.594,9085.236,9112.205,10447.8125,13980.95,16769.2,18304.943,17781.607,16134.318,17608.059,16830.307,12959.063,6252.094,1492.4832,-0.022689551,0.012585834,0.07060046,8772.852,16538.98,23823.025,26683.238,22657.658,15832.012,8842.623,7228.1274,6730.183,7184.209,6868.4575,7660.303,7421.348,8341.86,11071.738,15153.814,17588.7,17277.307,18248.969,18540.06,18502.574,15999.496,12417.275,6989.024,68.67271,-0.07150077,-0.030162785,-0.019397177,6506.537,10325.253,17473.111,23026.756,20075.904,13972.351,8482.544,7389.723,8333.568,8500.872,8975.095,8729.391,9457.842,10748.568,13103.856,14582.178,14757.368,15625.631,17905.031,18354.564,16237.204,9817.993,6775.495,1492.502,1492.5332,0.00031542033,-0.001726836,0.051725782,-0.01909379,4631.022,9423.956,13626.134,13828.839,8049.293,3257.505,3548.6812,6048.4585,6768.739,8666.717,10734.24,11638.159,13343.306,14457.159,14250.843,15462.051,15861.349,16170.718,15312.021,11233.768,9696.359,6114.7075,-0.07867789,0.05522939,0.07751053,-0.042051997,0.028399669,0.078804575,4630.9126,-151.18913,4109.184,7501.513,5850.798,3804.7024,6999.454,9605.205,9074.426,9620.812,11067.072,11666.856,12440.72,15650.841,15852.199,17298.3,16058.845,14211.749,11876.058,7754.1245,8191.2817,0.052517243,-0.02224943,-0.048049215,-0.034721132,0.02999027,-0.073577605,0.04982058,0.0064177513,4104.375,6500.8716,8391.056,9996.566,13322.248,17465.363,18357.082,17130.135,17516.652,18941.125,18289.266,16477.885,16494.049,12369.651,12163.072,8972.788,8024.5977,6247.3213,4686.404,0.05118967,-0.04531928,-0.049512655,0.019209564,-0.056702152,-0.06280227,0.013737299,-0.0067951605,-0.025424402,4687.06,5815.16,8207.089,8716.895,13453.346,14616.27,14112.052,12697.285,11809.149,11325.491,12690.161,12474.982,12358.612,9612.231,8095.384,4967.248,-0.0615389,-0.06730677,-0.075997114,-0.030863937,-0.019080393,-0.07944306,-0.010299288,-0.03651758,-0.042383723,-0.021037944,0.022899985,0.043208577,0.023865402,3304.4993,5206.663,4802.6787,3796.7595,0.0068091974,0.061673112,-0.012372009,3304.6016,3304.6665,3589.8506,3304.3723,3304.449,4093.2727,4687.7534,4687.786,-0.00033725798,0.01645416,-0.060708392,-0.03209107,-0.0062499493,0.054536633,0.04970617,-0.0068549216],[-0.061802983,0.023656793,0.012873642,-0.062492304,0.0008113384,0.03722746,0.030391507,0.025981642,0.020156637,0.045770995,0.07264266,-0.050930586,0.04258559,-0.06291035,-0.016572528,0.004530877,0.027156055,0.024862267,0.041045167,0.014177926,0.06040404,-0.041695725,0.04874531,-0.013284847,-0.036109407,-0.06865476,0.058534794,-0.008158483,-0.06441614,0.05302047,0.019369662,-0.06166689,-0.004247986,-0.010660119,-0.07943935,-0.014062345,0.07843437,0.03917153,-0.009064093,-0.06316458,-0.060398504,-4690.8647,-4691.009,-5537.241,-4692.633,-4692.7285,0.055846833,-0.04809013,0.05274739,0.04230196,0.048255198,0.07775525,0.0013184845,-0.06270872,-0.00044497848,0.032086276,-0.033966634,0.008323051,-0.06931025,-0.07371383,-0.0020223036,0.07966926,0.052162297,0.07087395,-0.010929972,0.010352716,-0.08178181,6145.4536,7340.531,4917.286,132.08743,-10101.416,-14589.903,-15591.641,-14432.984,-11857.289,-7619.438,0.042283885,0.027335018,-0.024849832,0.061622553,0.075462066,-0.05737202,-0.040639658,-0.07345509,-0.020745985,-0.07758182,0.05461491,-0.080061354,-0.017617218,6143.644,7323.464,10679.864,11389.348,11382.157,12581.76,10561.74,11006.673,5698.347,-2713.2441,-8602.549,-5791.742,-2390.7122,-261.38464,8559.24,11726.966,6386.787,0.021173693,-0.0018671975,-0.037200045,-0.05248415,-0.0015158802,-0.005691685,0.016830489,-0.040528014,-0.070677824,0.006084077,8017.0327,9751.799,10119.095,13067.413,17326.777,17473.633,17576.975,15958.187,14021.983,8377.93,5344.9497,3575.5774,4762.552,8016.392,11118.958,13362.769,14068.953,7830.2646,2168.7415,-5456.948,-0.07224659,0.027461588,-0.07184252,0.0063988194,-0.073548324,-0.061461307,7434.945,6175.814,10807.843,12847.287,15265.898,19821.883,22418.846,23150.32,21643.55,16634.27,10922.541,5626.6133,2527.0083,3304.0261,4743.9434,7604.193,9326.436,14115.472,14537.363,8976.278,1435.0984,453.51584,1580.8385,-5454.6553,-0.03199529,0.011719026,-0.01083038,0.08081352,7581.8584,8780.073,15147.715,15716.087,18152.93,21087.12,22491.068,21431.998,19747.518,14916.839,8457.003,5337.1934,5643.493,7203.103,7082.8306,8316.642,10575.846,14954.014,13014.571,8633.11,-1925.6266,-391.39017,-3306.1953,-5454.534,0.053557985,-0.0696524,0.06810493,0.052231483,9394.888,14568.566,17470.729,19129.33,18964.818,19624.516,20920.05,20620.434,17095.168,11209.852,8271.629,8230.027,10534.1045,11937.263,13258.958,13705.314,14791.817,15789.734,12735.5205,7793.421,-5190.534,-4719.203,-8641.874,-4298.31,0.03642246,-0.04780248,-0.06088578,-0.017201059,11622.481,16525.969,17695.775,17661.197,19955.354,20306.861,20425.838,17842.348,13771.702,8698.433,6146.096,8411.993,11321.309,15102.249,17957.984,19323.643,20025.727,18994.852,14718.64,6234.6465,-2341.1912,-8609.987,-8551.762,-3765.7314,0.05044248,-0.036962897,3344.4417,3346.114,10220.999,15526.853,16669.1,19268.178,21141.041,18927.303,17152.975,13308.224,8741.956,4952.8667,4445.427,7034.9897,10319.903,14934.333,18689.975,20911.064,21344.621,19758.412,15651.053,7283.8936,-3013.4668,-8520.794,-8928.385,-5454.3657,0.0081484765,-0.02263055,3344.4902,3346.0356,9002.072,15140.949,16492.871,19547.457,20403.14,16825.018,12877.681,10158.579,5074.8804,332.20917,-1426.587,1564.0015,7793.9126,14839.969,20007.277,22322.19,22909.459,19921.766,15214.8125,9805.26,-268.09293,-4260.813,-6070.506,-5454.4077,-0.00080708414,-0.05718054,-0.009117082,0.008915991,8593.007,12072.486,16092.376,18347.656,19100.56,14829.346,11870.804,8561.497,2408.4207,-3545.137,-4126.646,1283.4141,6762.994,14219.3,18778.8,22157.041,22292.049,19453.13,14451.224,10256.3,6077.2056,3391.0967,-2015.4844,1384.6971,-0.046701334,-0.0535267,0.037228182,0.009141065,7969.472,11623.443,15881.353,17406.732,18139.293,16385.389,13010.538,8849.15,3444.7708,-2544.1191,-2494.7122,1180.3153,5585.662,12399.415,18458.11,20243.928,19642.121,15352.357,10885.481,7450.3657,4492.6196,2794.8884,1384.7255,1384.7445,-0.051551543,-0.063494205,-0.041383892,0.018458314,6999.4604,13105.184,14528.024,16279.392,18858.201,17583.605,15255.342,11096.888,6747.45,3340.6917,516.1073,2541.0408,6871.057,14379.808,20334.139,21219.543,17713.496,10286.831,4166.1763,4333.1304,2112.2253,924.18665,-4509.576,1384.7008,0.02815622,-0.05099815,-0.008339897,-0.028098825,6582.0815,11470.017,12575.783,16438.861,19873.26,20233.287,17654.1,14632.77,15507.781,12321.639,7594.515,5998.8193,8825.864,16782.475,21698.346,20689.098,14944.595,6864.938,2747.4524,4526.1694,4855.9263,3862.0642,7111.2915,6149.6035,0.030134745,-0.03864198,-0.04485451,0.014780432,1569.2352,7912.3335,14004.388,19309.414,21957.22,21909.736,18208.633,17540.12,17608.604,14628.566,8705.155,6967.3604,11125.229,19381.193,22814.85,21067.543,12981.094,6133.955,5469.301,8458.053,10023.554,9002.535,8480.751,6149.4595,-0.017920785,0.023111142,0.040536597,0.0020776317,-4337.982,3263.9368,13829.514,22289.064,21837.523,19541.143,16168.566,15246.344,14908.125,11587.275,7645.0737,7367.9805,13656.249,21291.68,24719.848,20333.822,10797.008,5246.638,6659.8403,11509.963,12836.1,14323.529,11434.143,6149.505,0.0035660565,-0.04458361,0.08380466,-0.059776485,6406.168,7808.5645,15900.78,20642.73,19076.28,13412.638,8236.822,5073.035,5270.194,6979.3965,8411.659,10267.694,15945.285,20456.506,21205.842,15434.481,9019.503,6770.612,11591.735,15583.194,16043.991,17382.367,14201.052,-0.07907666,0.04760059,0.022530802,0.022671841,-0.083635956,13691.187,15174.692,16975.514,17577.584,14192.064,7601.8667,227.12573,-3622.1592,1142.3243,5525.631,7993.5444,10884.553,14660.021,16418.736,14990.358,11208.878,8892.459,11183.947,14078.388,18397.947,16674.4,17018.824,10258.847,0.06436119,0.0085965395,-0.04393077,0.06810879,7325.1797,16704.574,23128.49,22263.58,18394.834,11392.955,3053.7002,-3211.519,-2422.6946,1651.2983,5874.5786,8478.0625,10663.151,11399.343,11733.454,13048.188,13634.975,13933.603,14360.888,15195.091,17578.938,14972.27,12484.501,6139.0957,-0.053024203,-0.06288672,0.023222044,0.012112103,7569.2437,18252.861,24453.066,26259.035,21694.75,13239.863,5082.665,702.1543,1355.5278,3243.9136,5616.8047,8145.387,8848.897,8897.577,10235.202,13773.543,16588.758,18153.924,17629.02,15961.847,17462.465,16761.92,12990.339,6257.38,1384.6344,-0.051406287,-0.026378509,0.015448257,8818.08,16611.867,23945.46,26819.312,22676.033,15696.762,8591.704,6906.9478,6390.742,6863.677,6580.307,7392.1245,7158.835,8094.0747,10836.815,14952.538,17417.492,17136.879,18117.36,18418.508,18458.344,16019.771,12460.745,6938.483,-88.72108,-0.04677213,0.06580535,0.05029259,6570.427,10397.33,17542.215,23133.096,20130.096,13895.716,8284.1455,7111.9644,8050.2686,8228.244,8721.52,8468.649,9196.8955,10510.647,12877.925,14370.524,14590.4,15464.74,17773.115,18324.379,16259.972,9852.973,6804.755,1384.6708,1384.654,0.06110642,0.029752843,-0.02958639,-0.062067643,4671.3853,9484.39,13674.79,13886.553,8041.24,3153.3286,3334.2212,5829.4097,6541.5493,8450.062,10528.659,11431.077,13183.545,14307.425,14098.338,15328.45,15765.111,16129.245,15338.439,11264.096,9722.039,6144.8984,0.061045937,0.08283908,0.04476974,0.039334357,-0.019122265,0.029802881,4671.2983,-119.92505,4134.0054,7506.805,5835.3306,3807.433,6964.8315,9544.795,8966.643,9532.999,10998.259,11599.842,12391.865,15634.162,15812.033,17301.205,16089.886,14252.164,11919.916,7789.152,8220.796,0.0062412247,-0.0817262,0.0446024,0.06535133,-0.050143838,0.050240763,0.044436403,0.011358626,4121.4756,6552.4917,8457.43,10097.099,13427.591,17596.352,18456.766,17208.805,17627.945,19038.469,18421.871,16564.947,16575.186,12415.331,12210.15,8996.444,8035.3564,6252.866,4697.5044,-0.056140196,-0.015719175,-0.058801487,0.019381896,-0.040175352,0.006550573,-0.014019348,-0.06256925,-0.020342238,4696.0625,5836.869,8281.268,8809.685,13624.561,14721.514,14210.4375,12779.482,11923.771,11415.208,12769.941,12549.123,12417.037,9659.841,8165.1353,4992.995,0.0022701025,0.012814321,0.0186432,0.01142779,-0.01739166,0.055545934,0.073042564,0.05452829,-0.025351763,0.083760895,-0.03975813,-0.06765587,-0.07937664,3346.0784,5262.978,4868.7695,3847.7395,-0.064065665,-0.03877162,-0.040791795,3340.474,3340.3906,3626.32,3346.4187,3346.4639,4107.8647,4701.8027,4701.7314,0.07519259,0.050484262,-0.04171313,-0.029225726,0.059206568,-0.026711676,-0.07011168,-0.030739117],[0.044939704,-0.05103848,0.02861417,0.002890095,-0.0057961345,-0.06018737,0.059825383,0.007668622,-0.083664976,-0.056488927,-0.04776943,0.064029016,0.037705846,0.030806102,-0.009041198,0.015679546,0.0815391,-0.0151589215,0.08151997,-0.045536414,-0.033056747,0.0081529245,0.029621929,-0.023916103,0.03614615,-0.009231515,-0.056154974,-0.00381241,-0.011672117,0.018760063,-0.04628586,0.035620533,0.025391132,0.0114749,-0.012253225,-0.004434414,-0.0018543452,-0.050002433,0.03641977,0.076174594,-0.04456442,4326.502,4326.5874,5087.147,4324.4023,4324.3545,0.0113706365,-0.028200444,0.061651222,-0.035786945,-0.017029993,0.030275047,0.018805362,-0.054398157,0.047765084,-0.07920568,0.075243674,0.03225991,0.067681514,-0.03900997,-0.07791696,0.026052073,0.011924952,0.04417249,-0.08181221,0.0062111616,0.0380778,-5807.043,-6933.396,-4765.128,-441.57025,9126.634,13284.951,14195.637,13221.388,10880.907,6996.649,-0.039866507,-0.055074282,0.0684515,-0.06229589,0.018573046,-0.048071336,0.062380947,-0.036713935,-0.05848819,-0.036115542,0.046348266,-0.049527895,-0.034076013,-5808.9287,-6928.5996,-10076.12,-10749.64,-10810.62,-11927.53,-9985.806,-10558.9,-5715.4893,2090.2922,7535.4473,4917.826,1692.9006,-288.9386,-8332.125,-11077.129,-6031.0854,-0.06528635,-0.026500862,0.06266401,-0.012661144,-0.027308688,-0.059882637,-0.052926637,0.007966176,-0.021309622,-0.05970762,-7577.648,-9229.897,-9487.064,-12183.236,-16346.295,-16892.684,-17000.09,-15024.092,-13217.139,-8074.2876,-5437.795,-3780.128,-4585.52,-7725.866,-10858.565,-13188.91,-13635.79,-7721.182,-2268.6987,5078.595,-0.06994636,0.028564759,0.03925275,-0.06877035,-0.06497444,0.061867766,-7307.1714,-6186.657,-10435.241,-12577.897,-14871.444,-19214.338,-21868.145,-22716.85,-21263.016,-16444.723,-11094.777,-5960.7188,-2775.1326,-3390.688,-4483.553,-7237.1807,-8868.225,-13783.833,-14263.813,-8891.629,-1706.2706,-703.6104,-1670.3009,5075.124,-0.08291356,-0.054688267,-0.058420204,-0.02788015,-7472.4346,-8596.586,-14799.459,-15652.078,-17935.66,-20881.91,-22211.297,-21264.385,-19795.635,-15115.189,-8954.637,-5798.341,-5796.6377,-6994.9795,-6732.4233,-7901.092,-10208.974,-14661.135,-13013.854,-9028.902,1258.9084,50.430096,2921.1597,5075.16,0.042857252,0.024560079,0.06701528,-0.043644708,-9524.637,-14490.801,-17348.39,-19173.205,-19125.275,-19794.559,-20998.377,-20831.865,-17512.893,-11770.109,-8721.079,-8435.502,-10422.576,-11595.779,-12799.201,-13227.955,-14278.844,-15520.974,-12961.413,-8529.8125,4076.0461,3948.9854,7655.87,3784.395,0.040923677,-0.0004159361,-0.0089553,0.054272257,-12011.376,-16443.236,-17861.047,-17821.873,-20073.62,-20318.254,-20450.55,-17958.883,-14066.218,-9200.016,-6686.9683,-8746.719,-11512.072,-15089.344,-17690.705,-18973.22,-19689.232,-18834.443,-14878.842,-6907.856,1337.318,7876.2466,7385.8936,3283.416,0.04616169,0.02937188,-3787.1497,-3787.7493,-10699.907,-15553.506,-16881.83,-18893.44,-20848.049,-18831.096,-17152.406,-13404.306,-8974.5,-5481.6704,-5044.1567,-7451.9136,-10753.004,-15165.084,-18669.305,-20702.078,-21090.707,-19558.541,-15655.668,-7546.278,2267.4844,8210.398,7970.333,5077.63,0.056348823,0.0770909,-3787.0967,-3787.7666,-9555.551,-15277.392,-16372.438,-18851.818,-19671.902,-16607.494,-12840.799,-10288.237,-5545.3965,-1024.1404,616.315,-2007.2219,-8208.529,-15035.3955,-19919.545,-22139.83,-22572.06,-19649.38,-14831.572,-9130.836,756.58044,4687.126,5650.062,5077.6675,-0.06656509,-0.023913916,0.015732892,-0.05219773,-9153.239,-12439.312,-15354.061,-17352.744,-18261.61,-14445.655,-11714.247,-8726.208,-3002.26,2410.591,2902.3489,-2025.6329,-7272.9766,-14439.006,-18817.074,-22018.877,-22065.072,-19089.691,-13772.897,-8789.79,-4035.7456,-1958.0768,2401.8264,-622.3237,0.011609748,-0.035955425,0.031355903,0.039828606,-8401.41,-11710.311,-14800.92,-16036.893,-17024.41,-15578.962,-12596.873,-9051.574,-4282.6025,1006.036,1094.9597,-2032.3756,-6269.6343,-12897.303,-18667.332,-20368.244,-19669.89,-15078.181,-10009.645,-5604.519,-1967.3997,-941.8256,-622.2606,-622.3251,-0.010367997,0.047205217,-0.074780405,-0.012867667,-7002.191,-12883.618,-13323.593,-14478.264,-17337.0,-16456.984,-14496.304,-11143.839,-7615.5684,-4705.4116,-1577.8739,-3305.1501,-7491.783,-14925.398,-20650.87,-21362.527,-17910.451,-10229.536,-3195.5947,-2362.6313,339.77637,900.8232,4473.0625,-622.37683,-0.07705809,-0.052012563,-0.082961194,-0.074434824,-6586.4883,-10907.869,-10789.384,-14132.534,-17868.564,-18699.117,-16655.611,-14343.685,-15641.126,-12858.049,-7926.088,-6413.271,-9417.482,-17400.098,-22031.35,-21143.514,-15489.395,-6866.4653,-1845.0634,-2657.173,-2416.107,-1951.8608,-6778.468,-5811.0366,0.0035500973,-0.039836306,0.049551956,-0.009570323,-1804.9362,-7442.6016,-11652.095,-16740.977,-19809.855,-20209.64,-17164.396,-16953.59,-17345.371,-14440.782,-8568.899,-7072.1255,-11551.891,-19792.422,-23139.752,-21544.777,-13692.742,-6230.71,-4698.2188,-6811.2407,-7853.9575,-7154.12,-8009.9155,-5811.0913,-0.011949077,-0.054850996,0.025442012,-0.011556946,3734.944,-3512.1887,-12067.808,-19879.0,-19758.201,-17999.504,-15321.608,-14780.604,-14470.838,-11096.726,-7222.5474,-7321.8804,-13910.082,-21409.15,-24805.137,-20707.375,-11458.386,-5363.7104,-5874.331,-10058.341,-10715.523,-12495.706,-10786.666,-5811.1123,-0.008418672,-0.038733073,-0.008073755,0.014336616,-6805.338,-8263.533,-14610.539,-18553.283,-17207.756,-12232.741,-7768.6323,-5094.2637,-5180.7266,-6517.4985,-7835.2812,-10183.061,-16079.99,-20563.654,-21426.871,-15944.624,-9532.453,-6667.798,-10715.387,-14097.527,-14260.051,-15764.538,-13385.715,-0.019833349,-0.019798554,0.05312165,-0.028558984,0.039606877,-13537.409,-15239.893,-16063.423,-16006.018,-12634.898,-6633.8604,-110.6746,3159.9973,-1173.8026,-5117.174,-7695.447,-10926.759,-14900.874,-16777.059,-15424.35,-11693.489,-9135.1455,-10790.343,-13247.149,-16984.416,-15097.363,-15552.265,-9693.745,0.019222662,0.07033258,-0.052203663,-0.026980791,-7164.4233,-16440.064,-22678.303,-21382.87,-17229.82,-10191.356,-2375.942,3150.7974,2238.6511,-1586.3207,-5753.2173,-8502.9795,-10838.635,-11873.581,-12244.776,-13313.479,-13726.209,-13708.521,-13891.516,-14222.578,-16196.127,-13434.102,-11326.63,-5804.005,-0.016766675,0.03359233,-0.013343342,-0.05868262,-7440.104,-17951.297,-24000.535,-25517.662,-20887.209,-12570.368,-4560.143,-546.53265,-1280.7844,-3159.141,-5672.4365,-8352.891,-9255.976,-9460.209,-10679.586,-13821.322,-16360.873,-17601.25,-16900.844,-14858.104,-15919.653,-15376.564,-12269.953,-5797.2783,-622.2916,-0.006742917,0.011485949,0.07155744,-8828.987,-16354.66,-23594.96,-26304.504,-22321.248,-15489.922,-8556.282,-6817.068,-6378.731,-6986.746,-6951.5254,-7891.5083,-7699.095,-8545.996,-11093.815,-14815.868,-16815.977,-16531.541,-17178.816,-17032.959,-17075.994,-15075.519,-11764.015,-6236.6533,897.46436,-0.07481057,-0.029514171,-0.07094814,-6847.749,-10640.229,-17482.027,-22935.506,-20391.328,-14416.427,-8726.787,-7410.165,-8358.508,-8612.298,-9190.721,-8881.292,-9462.784,-10692.09,-12766.223,-13907.307,-14047.749,-14593.446,-16587.38,-17106.312,-15279.351,-9312.819,-6444.416,-622.24255,-622.2689,-0.032583717,0.04118664,0.06516454,-0.06733571,-4867.027,-10025.2295,-14219.648,-14840.669,-9601.272,-4856.7305,-4479.279,-6706.191,-7324.3433,-9152.908,-10965.727,-11568.588,-13184.59,-14079.204,-13599.558,-14516.862,-14777.815,-15230.504,-14546.572,-10590.608,-9165.911,-5808.3833,-0.06330996,-0.05269643,-0.075979345,-0.042513154,0.019736044,0.04469917,-4867.042,-728.7387,-5108.914,-8180.46,-7000.124,-5702.501,-8448.951,-10768.872,-10096.921,-10632.854,-11845.874,-12254.253,-12781.432,-15578.316,-15410.87,-16523.717,-15482.129,-13780.623,-11355.181,-7310.797,-7755.5796,0.030510433,0.077893116,0.058394797,0.083782874,0.015905827,-0.07625823,0.07707905,-0.053921655,-4466.0103,-6887.719,-9059.525,-11017.336,-14531.97,-18269.912,-18996.912,-17883.066,-18105.318,-19261.008,-18718.639,-16521.176,-16333.16,-12054.056,-11930.388,-8731.47,-7497.3975,-5835.823,-4383.606,-0.064069994,-0.041418806,0.038708568,-0.014071211,-0.015093483,0.006089613,0.05044376,0.00029964,0.03924483,-4386.938,-5816.632,-8846.657,-9557.549,-14133.205,-15358.669,-15115.777,-13456.995,-12452.12,-12295.0625,-13368.607,-12819.914,-12173.416,-9331.544,-8135.218,-5206.9194,0.07936656,0.0022103786,-0.021488495,-0.037210032,0.054042943,0.08341146,-0.04895056,0.009850606,0.07858496,0.070321806,-0.008225001,0.050236605,-0.06306848,-3789.3787,-5967.5854,-5521.1084,-4369.761,0.01981987,0.07089222,-0.05442116,-3783.1765,-3783.1606,-4109.3057,-3786.7832,-3786.8267,-4442.705,-4389.982,-4390.0244,-0.071169704,-0.06247179,0.072920404,-0.06591487,-0.08244867,0.06357264,0.0072258785,-0.055189498],[-0.05464738,-0.026695192,-0.056636933,0.083463304,0.07246568,-0.05417864,0.0064473078,0.027846314,-0.06376994,-0.049074456,-0.07242082,0.0028885081,0.05809004,-0.04569585,0.022346333,0.036701284,-0.032015923,0.04596793,-0.07083028,-0.05638368,0.031176932,0.06892381,0.013047919,-0.027398653,-0.07703436,0.036757976,-0.0021354333,0.029166743,-0.049307495,0.0059277937,-0.00829237,0.023004413,0.022024512,0.0403338,-0.026701592,0.013051972,0.07032419,0.000043034554,0.06644272,0.03725341,-0.07659053,-4538.71,-4538.6655,-5363.6543,-4545.559,-4545.5845,0.071882896,0.047778882,0.04399646,-0.08241079,0.040497273,0.06306081,-0.011883058,-0.045829676,0.012253769,0.07247383,0.08069707,-0.022084821,-0.0020066574,0.033908434,-0.06582022,0.014277436,0.064535044,0.031098738,0.0571448,-0.023036018,-0.041389346,5958.6626,7129.1973,4823.1562,259.94235,-9701.296,-14044.615,-14964.677,-13974.37,-11461.878,-7371.63,0.057513483,-0.03953346,0.042077564,0.03170044,-0.04851176,0.074762724,-0.01071284,0.039761677,-0.04166843,0.023670413,0.07856653,0.07027913,-0.04002474,5959.0464,7105.731,10351.869,11042.2,11072.413,12276.582,10435.3,10863.216,5756.848,-2302.8015,-8006.2305,-5281.0903,-2056.1133,-15.565075,8456.986,11399.491,6217.4595,0.0706744,-0.0049263537,-0.011889696,0.027692415,-0.023619432,-0.045748413,0.042788796,-0.002763167,0.07940861,0.047613747,7788.221,9488.824,9896.156,12796.964,16888.121,17057.246,17278.268,15999.134,14180.178,8764.844,5809.32,4105.559,5325.088,8371.595,11156.633,13085.227,13637.275,7580.3423,2078.988,-5332.808,0.050282456,0.004029505,0.059550755,0.00539349,-0.060586482,-0.04957418,7170.351,5942.6123,10456.075,12411.354,14813.872,19241.824,21803.97,22589.908,21245.111,16554.293,11103.703,6073.96,3160.5596,3923.675,5340.281,8070.2715,9678.841,14051.805,14239.806,8783.469,1407.3383,414.2316,1517.2653,-5337.6177,0.043850727,-0.06865845,0.05822698,-0.06843136,7309.746,8498.079,14555.511,15140.289,17589.191,20495.834,21940.805,21006.693,19401.018,14865.077,8700.45,5749.6147,6114.361,7666.934,7548.023,8736.802,10871.527,14928.617,12847.626,8416.811,-1836.5973,-366.1728,-3297.7761,-5337.5693,-0.050586987,0.07383252,0.016845733,0.06940568,9008.099,13987.411,16769.027,18435.965,18375.684,19121.746,20448.865,20177.812,16852.568,11258.37,8498.798,8500.392,10746.182,12138.871,13423.879,13847.9795,14915.543,15763.278,12612.583,7639.387,-5053.2153,-4606.9565,-8621.249,-4287.726,-0.005014859,-0.059944868,-0.07391707,0.07087765,11064.721,15821.783,16976.834,17109.996,19359.84,19862.443,20034.146,17617.742,13712.427,8828.995,6378.7124,8599.625,11400.253,15038.822,17803.42,19116.188,19792.326,18777.865,14593.593,6250.665,-2196.1548,-8257.403,-8568.797,-3765.105,0.028292716,0.01251141,3135.7173,3132.875,9736.628,14901.311,16045.258,18835.035,20645.11,18584.07,16947.79,13292.124,8932.503,5209.6777,4720.053,7268.839,10381.906,14795.373,18392.754,20535.244,20989.756,19525.219,15553.533,7496.7725,-2688.336,-7988.177,-8840.98,-5339.873,0.044666417,0.0060098767,3135.669,3132.85,8554.131,14504.073,15970.711,19160.426,20074.877,16641.096,12912.064,10277.188,5339.868,738.1889,-937.2348,2055.2644,7979.3804,14679.085,19606.459,21817.367,22461.701,19691.268,15290.911,10241.8125,478.68765,-3602.2559,-5931.887,-5339.875,0.0024050921,-0.04808638,-0.021920312,-0.016960286,8145.315,11504.247,15878.275,18165.95,18937.852,14823.466,11979.26,8731.286,2748.6387,-3107.6921,-3671.12,1674.8363,6944.4497,14032.003,18366.941,21623.643,21822.25,19259.34,14668.7,10970.653,7120.935,4162.872,-1650.4076,1709.3275,0.04119543,-0.061920084,0.0024323612,-0.058936574,7568.7407,11138.022,15865.749,17460.596,18139.66,16448.695,13133.793,9012.436,3669.6313,-2284.2947,-2183.1006,1502.3837,5719.789,12203.781,18009.168,19740.207,19252.125,15401.121,11410.443,8447.045,5752.399,3762.99,1709.3949,1709.4379,0.07214413,-0.08212431,0.0146676,-0.0661577,6697.087,12683.026,14685.576,16592.844,19001.176,17690.09,15381.034,11212.021,6801.286,3375.716,778.5707,2801.177,6943.0347,14075.605,19766.629,20690.885,17422.957,10623.364,5147.0547,5533.05,3459.213,1943.8954,-4236.637,1709.3882,-0.050431702,0.06498162,-0.03140335,-0.018652543,6324.675,11253.98,13052.084,16927.457,20133.918,20355.76,17747.33,14655.435,15304.019,12119.797,7697.049,6163.978,8815.946,16332.696,21061.06,20136.357,14755.163,7376.751,3775.888,5663.872,6018.4272,4786.6484,6903.996,5966.488,0.05702541,-0.053723313,0.05178494,0.026738293,1485.9019,7866.104,14605.602,19736.828,22167.074,21997.793,18276.299,17432.193,17325.203,14482.541,8868.273,7172.6826,11041.387,18841.06,22108.232,20491.229,12915.249,6674.9766,6280.661,9275.532,10790.622,9594.202,8236.125,5966.44,0.047036164,0.060244225,0.0017472506,-0.07887814,-4354.558,3257.5635,14289.085,22486.727,22048.473,19736.26,16284.92,15217.197,14802.677,11673.124,7954.5776,7610.3926,13480.699,20704.19,23951.504,19870.49,10905.665,5840.174,7419.2925,12102.106,13448.9,14560.26,11074.08,5966.474,0.0012492314,-0.065978244,-0.013178818,0.024063163,6060.9443,7629.592,16107.703,20883.178,19402.697,13847.031,8680.629,5407.477,5551.1978,7299.6035,8738.577,10361.513,15637.23,19912.146,20664.69,15279.001,9307.402,7349.8574,12069.611,15910.542,16317.607,17356.324,13797.961,0.06926199,0.065668754,-0.0046074837,0.07957817,-0.06442759,13184.454,14755.553,17020.39,17820.621,14697.191,8297.71,977.6358,-2981.61,1636.6702,5966.725,8298.619,10910.277,14413.436,16094.634,14818.855,11324.456,9254.826,11576.718,14311.147,18481.8,16771.66,16889.72,9946.43,-0.031203628,-0.064229935,0.05886071,0.08262179,7077.974,16082.193,22412.193,21953.025,18457.86,11919.209,3856.121,-2355.8435,-1675.3771,2254.6665,6301.644,8697.117,10705.073,11341.36,11717.63,13091.712,13757.3955,14130.678,14532.667,15386.491,17619.086,15091.459,12476.751,5960.692,0.056870244,-0.00804399,0.017746791,-0.07040971,7309.591,17608.896,23615.264,25552.652,21441.572,13482.229,5749.6006,1458.0962,2062.523,3869.3198,6083.313,8414.988,9008.048,9048.475,10408.096,13886.41,16618.455,18102.207,17622.986,16059.2705,17477.64,16595.371,12623.313,6151.5337,1709.4224,-0.056963824,0.031964883,-0.024764378,8506.2705,16044.716,23123.986,25954.27,22186.72,15679.457,8946.66,7403.782,6893.4956,7297.0547,6929.352,7643.9214,7420.5728,8367.241,11053.992,15035.724,17410.633,17060.25,18006.99,18351.611,18221.918,15595.215,12100.073,6949.098,359.23236,-0.068267316,0.032366402,-0.072048366,6280.669,9996.3,16988.672,22384.988,19544.998,13697.821,8484.859,7478.538,8379.384,8502.173,8924.294,8687.732,9466.507,10749.125,13024.476,14458.445,14585.755,15436.128,17655.688,18034.246,15853.757,9564.829,6607.464,1709.3976,1709.3086,-0.0046513826,0.027438462,-0.006261505,0.046023227,4466.0493,9102.041,13222.392,13407.478,7775.645,3132.44,3527.9053,6001.1167,6707.268,8537.373,10587.659,11558.517,13196.706,14180.915,14005.453,15181.6455,15608.436,15845.25,14965.616,10939.787,9444.765,5966.293,0.05866108,0.024778917,0.06765904,-0.021240354,-0.0039527565,-0.056362223,4466.0435,-324.46017,3828.6028,7183.018,5580.1343,3457.8906,6594.0757,9144.871,8673.3955,9240.603,10708.988,11359.477,12064.769,15131.83,15365.108,16803.002,15620.211,13791.156,11541.456,7554.2427,7991.9873,0.037115194,0.02504073,-0.042581324,0.0796858,0.07095205,0.013625696,-0.07357991,0.08225625,3899.5725,6226.0176,7999.9473,9513.011,12662.412,16743.719,17620.52,16404.328,16825.494,18277.41,17608.842,15861.295,15922.456,11934.095,11715.11,8655.713,7790.9854,6069.834,4554.6064,-0.064867355,0.02446723,-0.022134334,0.074942835,0.062231265,0.018472455,-0.083468735,-0.016257621,0.044872276,4557.8257,5603.298,7836.7944,8314.764,12907.362,13985.087,13466.425,12120.37,11310.567,10841.31,12145.088,11968.632,11932.214,9288.479,7814.814,4763.3013,0.025116622,-0.027937405,0.057043843,-0.0025947094,-0.03412603,-0.012525588,-0.07590526,0.07811857,0.030613817,-0.04531595,0.035131052,0.029337533,0.031694286,3134.8872,4917.131,4551.2627,3604.1309,-0.049012568,-0.08016487,0.06093117,3133.3174,3133.3035,3408.2927,3134.805,3134.7588,3886.2454,4557.2236,4557.2544,0.06299359,-0.011141732,-0.054412838,0.015188344,-0.044333007,-0.03128852,0.030471303,0.05138188],[-0.043142233,-0.0767475,-0.018399872,-0.062436733,-0.02717382,0.0488042,0.07942832,0.014962606,0.025452763,0.056441955,0.015078567,0.024229214,0.05605089,0.07737411,-0.07585831,-0.06338933,0.02565702,-0.001029335,-0.03847978,0.057912253,0.07573847,0.03425496,0.06073191,0.03064131,0.039217077,0.081895076,-0.03188322,0.018384151,-0.05825431,0.012168013,-0.03631964,0.013635002,-0.055089004,-0.023134068,-0.055169947,0.035166472,0.0010031611,0.06692778,-0.059768826,-0.07229468,0.03167036,-4690.8403,-4690.8696,-5537.179,-4692.5815,-4692.598,0.000485003,0.03950099,0.027684674,-0.040785056,0.0009496957,-0.002012618,-0.07674726,-0.035813518,0.076732285,0.014921859,-0.045153007,-0.038122546,-0.023665015,0.02925434,-0.061712116,-0.006746389,0.011040933,0.013549164,0.07819807,-0.079972126,0.035971425,