{"batch_size":10,"layer_sizes":[784,64,32,10],"loss":1.0,"loss_train":[],"layers":[{"Dense":{"weights":{"rows":64,"columns":784,"data":[[-1.0014174,1.5513628,-2.8869014,-0.5666459,-0.51359725,2.4980485,-2.4234445,2.9281492,2.5289392,1.3296436,1.061519,-2.0169692,-0.648986,-0.7327737,-0.8400101,-2.252338,-2.1807556,1.6495779,0.69269097,0.27197322,-1.201791,-0.60933745,0.20612024,-1.450042,-4.884675,-0.44264448,-1.2788179,-0.6349159,0.6043095,3.4865584,-0.57719857,-1.492902,-0.4291522,-5.4635544,3.8551052,-3.593464,0.35286728,-3.7717736,-1.5424755,0.60009885,-0.07691568,0.67675394,2.7226546,-3.7485042,1.2663435,1.543922,-1.4051052,2.905562,1.4486653,-1.8103248,-1.0041988,0.58895797,-0.036184214,0.18038954,1.308468,-1.0936234,-0.76626515,-0.49867105,-1.28703,-2.3472803,2.1716177,0.8937109,-1.5534247,0.5666779,-1.2502735,0.8265136,1.8862115,2.4577208,-0.6432627,1.046094,-0.60424864,-4.898094,-6.617869,-4.1544037,-4.7568316,-2.4113495,2.0927272,-1.0345303,-0.76455104,2.3040097,-1.645012,2.8016417,-3.3656204,-1.4634603,2.2773652,0.40029112,-0.19580758,0.8341168,2.2184315,-0.37682047,2.135986,1.2476395,-0.21269068,-1.3936814,-2.2657242,-0.834656,-2.229564,-4.57093,-7.0545893,-3.7978704,-5.1874394,-4.129919,-2.8951507,1.0573536,1.6169534,-1.5982577,0.35467824,1.2322396,3.949311,-0.53672606,0.14829296,2.1803455,1.666486,2.8220346,1.0153252,-1.5785453,-0.1417616,-1.3987296,1.4637324,-1.0505672,0.9630028,1.7470833,0.22505401,-1.1197512,-3.471501,-7.3767266,-7.350561,-8.296511,-0.6499029,-5.731919,-3.0529084,-4.0676384,-0.21877585,-0.8234732,-6.077052,-1.1663308,-0.5847337,2.055394,-2.870737,0.6704055,-0.006016137,-1.2376238,1.4857721,-5.468787,-4.616419,-4.3168206,-2.2917004,-1.2414109,-1.8327794,-0.8947267,2.2257388,-6.271024,-9.622914,-10.892399,-5.813173,-5.5136633,-5.3877006,-7.9090576,-8.22259,-10.265271,-8.556421,-5.7108326,-4.7313757,-3.5725121,1.0954875,2.6177597,0.78530926,-2.2860913,-0.79284334,3.4888148,4.0509825,-4.105209,-5.6561165,-7.9138083,0.3453745,0.5740259,-3.8632448,-3.1359472,1.8659475,-6.9466815,-10.604086,-8.450848,-9.484428,-6.7908554,-7.55145,-7.3974614,-11.612116,-8.712965,-14.565315,-10.669148,-6.2317033,-8.848877,-2.708698,0.48755085,1.7648737,-1.7586806,0.6011823,2.8327253,-0.5808904,-5.6751475,-7.7046566,-6.812924,-7.0145283,-6.9454017,-4.92326,-4.7913027,-6.492137,-8.650693,-11.342253,-8.993818,-8.885592,-10.649527,-9.558457,-16.163492,-13.237533,-9.924142,-11.484448,-10.233121,-5.638262,-7.9804177,-6.0796723,-5.4016075,1.3108038,1.8108959,-0.9805065,0.19368501,0.3149717,-5.5236683,-8.267871,-8.511434,-5.611763,-7.6556997,-7.0731387,-7.5210066,-8.336245,-9.776154,-12.824863,-10.3887615,-12.001394,-9.155554,-12.087681,-13.77208,-11.499721,-13.198988,-9.522411,-9.360983,-10.010822,-0.16092291,-3.8660474,-7.002218,0.7831436,-3.688295,0.89469886,-6.70822,-3.8353996,-7.4949446,-4.4233603,-9.069415,-7.0246477,-9.576625,-9.539749,-12.801372,-7.528295,-13.658367,-11.102308,-12.291456,-8.977614,-7.873786,-11.814432,-9.8353615,-13.50046,-11.7302885,-10.272747,-8.547502,-7.078522,-10.43756,-6.216108,1.8827384,-2.4248495,-1.5703212,-2.9665031,-3.9920752,-1.4569713,-5.5826297,-8.023871,-4.278624,-1.1160942,-6.6137524,-5.222405,-4.357453,-8.995345,-6.9832397,-12.489898,-10.08224,-11.62825,-7.8373795,-12.384209,-14.419062,-15.984027,-9.569592,-9.062743,-2.5222845,-5.479224,-5.443511,-0.31380114,-0.23246998,2.2960594,1.4769036,-0.051749896,-0.9355309,0.5215192,-1.60941,-5.2941813,-2.8805113,-2.3471425,-5.859068,-7.2754292,-6.166594,-10.486693,-9.673752,-12.9819765,-9.414842,-10.819199,-8.015234,-7.989833,-13.869591,-9.493207,-6.3599424,-8.640395,-7.1964793,-4.8350577,0.3306895,1.400884,0.719741,2.056894,0.98275506,0.77817327,-3.5758445,2.0909076,-2.035704,-0.93975216,-4.407748,-6.140158,-2.0508182,-9.05294,-7.5211325,-10.268249,-9.629711,-9.589112,-8.466553,-9.855961,-11.180519,-12.28871,-14.224909,-8.383126,-9.772883,-8.495638,-5.434853,1.4270685,2.8804736,-3.2246392,1.8356833,0.12798055,1.874855,-0.14356814,4.0246058,1.5029644,-2.095861,2.3636405,-3.1185234,-6.2556176,-6.735113,-5.3562245,-11.697307,-7.1632056,-12.379668,-10.789719,-14.772171,-14.170837,-13.631821,-13.508081,-11.888784,-13.217055,-9.507644,-9.6857815,-0.7607567,-0.9437451,1.9277313,-1.8212149,0.3549729,2.3769188,2.3027115,-2.7460697,-4.410555,-0.32607007,0.55678,2.9314663,0.5518442,-3.8304648,-6.6984534,-5.075224,-6.137398,-8.836392,-13.972173,-10.271817,-11.095612,-13.7479925,-15.152274,-11.653947,-12.434126,-6.874643,-6.332972,-6.9020004,-5.675223,-1.6590105,-0.3222886,1.9652822,-1.3342351,0.64351887,-2.005495,-1.3945339,0.70178694,0.11852864,0.92338365,-3.5680513,1.2851999,-7.1726804,-5.4751935,-9.73677,-6.39774,-7.6920033,-10.393849,-11.084991,-10.46661,-9.904372,-10.868528,-10.31157,-9.18504,-9.234862,-9.562448,-6.536419,-10.011698,-5.5417547,-1.0896128,-2.9125218,0.25650442,2.9880533,2.0520775,-1.0526775,-0.93425065,0.6559498,-2.7368326,-0.7636819,3.348119,-8.296326,-9.620908,-8.674822,-10.011731,-7.0474296,-12.367835,-11.989047,-13.028404,-12.396452,-7.13086,-10.948548,-9.667365,-10.242896,-5.8032136,-4.1544075,-6.4662504,-2.7517917,0.7200465,-0.36149102,2.1463885,-2.154724,0.3959007,3.7164302,1.1426322,-2.7749805,3.5784583,1.566807,-2.2126093,-9.815575,-9.426859,-10.028702,-12.040849,-9.532102,-11.495707,-11.524392,-8.268993,-10.428595,-10.10081,-9.124958,-6.2654595,-8.163938,-7.328875,-4.978636,-6.4046726,-6.1900253,-0.8007479,4.396771,-0.13938455,1.6706827,-2.7146463,1.5521996,1.8054721,1.8876164,0.828757,-2.6648726,-0.39583564,-9.098187,-10.678888,-7.3731017,-8.901235,-13.416798,-10.01396,-10.925837,-10.459797,-8.922979,-7.3861895,-7.9937773,-7.091039,-5.943699,-6.6268578,-4.2523785,-6.908913,-2.9592724,0.39660802,0.45712698,0.85937035,0.28634495,0.059030116,-0.6252494,0.3480769,-1.830415,-1.4033889,0.7016397,-2.8897114,-5.1846867,-7.1663613,-6.9168105,-10.208313,-10.889393,-13.343496,-14.0054245,-10.078913,-10.127796,-12.603498,-9.654842,-11.212852,-5.787438,-9.588602,-7.6584797,-9.386312,-4.6527715,0.4306639,3.305552,-0.24413714,-2.439393,-1.4883655,-0.31830883,0.92727953,-1.1766216,-2.168265,-1.8291078,-5.171065,-4.237775,-10.413738,-8.019567,-7.164159,-9.461873,-9.587333,-8.453168,-8.948267,-11.727393,-10.05226,-10.802244,-6.5162463,-7.2362423,-5.5551543,-5.0098686,-5.7136545,-5.4371624,1.6209881,-1.3362085,-1.8766961,-0.045925222,4.531602,-2.0856276,0.16774297,1.4559406,0.21847552,-0.753771,-5.8749676,-6.780081,-3.2585554,-8.672303,-9.612943,-12.499676,-13.72259,-10.069752,-8.052271,-13.763683,-10.064877,-10.438623,-10.032237,-10.675621,-5.640921,-9.372716,-4.636602,-5.436687,0.10836511,0.4414612,1.9718013,-0.7173605,-0.71806157,0.95590043,1.0402385,-0.20025434,2.2054374,-1.3283832,-2.7050686,-6.276326,-3.8206787,-11.586119,-12.815637,-11.127458,-9.612794,-9.851027,-7.5243225,-9.034813,-10.225665,-10.35842,-9.162901,-6.7735248,-7.2955747,-2.1952586,-3.8923233,-5.8502264,-3.1621115,-0.61979586,-0.26501513,-3.0392568,-0.92277557,-0.28599668,2.5390468,-1.0461701,5.036554,0.89165527,-6.584406,-7.6092887,-4.1274486,-12.229462,-12.230202,-7.5891194,-8.104975,-8.496157,-8.886614,-5.7342615,-8.170699,-7.0059147,-6.8254604,-5.066152,-3.6127965,-6.099394,-6.400855,-6.8141294,-1.791287,2.2828164,-3.4546645,0.23972476,0.5918778,-1.1185613,0.42300612,0.031273276,0.790067,0.23845737,-0.05768263,-5.6890135,-8.502032,-6.7101803,-11.5209255,-11.998488,-10.992017,-6.964194,-6.9535575,-10.339758,-9.519182,-4.3823,-0.24573016,-0.124084204,-0.19314428,-0.28276032,0.58265144,2.2695346,-2.203792,-0.019447612,-1.6589813,1.6076134,-1.351482,0.612958,-2.3917737,2.8517072,-1.4839177,1.4524623,-3.0828247,-6.9661384,-5.9540997,-5.1159225,-6.190857,-11.880977,-6.2195334,-1.8913118,0.7301875,0.45579034,1.8369021,-4.0942645,-0.26643297,-0.9914662,0.5221069,4.550942,2.0656667,3.927924,-0.5821718,-2.9660864,3.4573898,1.0167063,-1.8675295,0.45832816,0.48616552,-0.49406254,-2.7991517,-1.8816164,-5.80162,-4.1438203,-3.6647406,-8.712277,-3.530339,-1.9445374,-1.0467161,-1.3945487,-0.8789327,-0.94516337,1.4510533,0.1877087,0.8668347,1.5882818,-1.350621,-0.7096406,0.03525552,0.33822393,-3.1922488,-1.4260716,2.1201699,0.032958947,-1.992434,0.8278299,1.3431935,-1.7224221,-2.3803205,-2.3236673,-0.9661582,1.2845323,0.44917965,-0.35839662,0.909731,3.6210852,-1.6073759,-0.43412086,0.6042277,3.3457246,1.2631121,2.3551111,-2.189722,-0.0009271584,-0.09043506,-2.3822637,0.44601688,1.0665656,-1.4537702,2.562058,-0.32353646,-2.925944,2.4001837],[-3.2781167,0.28567824,3.4689684,-2.708346,-0.1725678,0.59421897,1.2220922,-0.17279926,2.0185204,0.65199715,1.2195817,-1.0039926,-1.1826366,-1.118224,-0.3867737,-0.6756639,1.1221628,3.1063178,2.3595386,1.353037,0.3444703,-0.20679545,1.7327759,-2.2635868,0.452579,-0.8422898,-0.6399371,-1.3459384,-1.8623122,-3.0699902,0.6378576,-2.9278927,0.3650754,-1.2799779,-0.43685806,-1.662114,3.1376245,1.702769,0.9864633,0.71279854,-3.788735,2.2858021,0.4023884,2.3684726,1.1874827,0.006857099,1.1411095,0.8822078,-0.6743812,1.1981549,-0.38781202,0.88696,-1.0953972,-2.6532035,5.2204623,-1.7658558,-2.0329978,1.0105685,-1.4766707,-0.87974626,2.6738915,0.69254756,-2.1630473,1.0151701,0.5171916,-0.34597012,0.88531697,-0.63470995,-1.1634802,-0.030241106,0.2740538,-3.4303765,2.295359,1.688881,-1.7723438,0.4084772,-1.2603387,-0.66311115,1.1521143,2.3403664,1.5137073,-0.621972,4.146906,-1.1564264,0.85113764,2.8338647,0.7187052,-2.515214,4.1816154,3.630347,1.5545545,-1.4460354,1.7025951,-0.1351626,2.7334077,-1.4132118,-0.4138192,-3.8826978,-0.7436203,-2.5664718,-3.247711,-6.284563,-7.7016644,-6.2746453,2.6486545,0.81992006,0.22929014,-3.5704567,-2.4774003,1.0889205,0.37965587,-2.3239522,-3.4368522,-1.7621543,0.04594422,1.3391591,2.4832182,0.9831494,0.61445755,0.9767839,2.4234986,-2.2242553,-0.7604783,-6.680332,-9.207517,-8.071233,-6.1893473,-9.626293,-11.32727,-3.966811,10.638957,8.2024555,7.3695564,4.929223,-2.7141843,0.7367537,1.4682225,1.1728455,-1.3020781,-0.6206533,1.5849243,1.1255933,1.692438,-6.442738,-5.491764,-4.134422,-3.8398795,-0.8160635,-2.448935,-6.8374963,-5.2638717,-7.8913417,-7.1830926,-5.9298983,-12.824096,-10.391571,-8.633537,-11.452629,-6.1148634,-8.350076,-1.1883745,-4.7976003,-0.52915263,-3.7573445,3.3527086,0.3803141,0.41803873,-2.3867476,4.1605983,0.015061469,-2.3959064,-5.3348775,-4.0544734,-3.7698658,5.689555,5.290163,-1.546995,-3.5257697,-5.2538996,-14.734457,-9.388322,-12.49607,-9.0913725,-11.9510355,-11.2219925,-11.203987,-6.0473137,-10.840014,-7.5737376,-8.563821,-8.024827,-8.6431,-7.178418,-5.0307436,1.3906325,-1.5742251,2.4322982,2.4119458,2.0335653,-2.3124871,-5.83117,-2.2715085,6.7744007,1.6926367,-4.7610807,-7.2160277,-11.339865,-13.417049,-10.350283,-8.026733,-9.292127,-6.4107466,-10.458129,-8.372859,-13.274975,-10.809246,-8.628839,-9.172441,-11.876292,-4.000273,-8.1832075,-5.14255,-1.0775812,-4.047098,-2.2292802,-1.3728503,-3.848372,-4.6192513,-5.057084,3.9569018,6.035744,1.5845062,-2.132597,-4.1602154,-6.5999527,-5.8576603,-9.353765,-7.873826,-12.524206,-9.301881,-7.4743986,-12.590521,-13.885445,-10.312065,-7.090985,-11.695008,-2.4990718,-2.326549,-5.547408,-5.547518,-3.4199104,1.4445205,0.5346307,1.7755547,-2.1023169,-0.41402382,6.1250167,4.564227,6.5283036,4.7326574,-4.764979,-2.6680796,-4.6736073,-3.218182,-9.641143,-10.301171,-10.03911,-10.414175,-7.614749,-10.127036,-10.475994,-11.754028,-9.095545,-5.9353604,0.9732056,0.53899395,-0.7698602,0.7244483,-1.6812612,-1.3198606,0.081884556,0.45367756,1.7049273,0.71306914,-1.2716079,-3.4048398,3.6830206,5.805173,7.1764016,5.9326997,6.656215,-4.3261857,-8.017662,-8.590469,-8.104339,-12.259336,-11.3438835,-10.469581,-11.569056,-9.540988,-10.047111,-2.502274,1.8807154,-4.829671,-2.2805905,-0.36724988,-1.5519513,0.46541438,-0.68740416,0.19463591,-0.33601996,1.4155102,0.55540407,-3.4883409,-7.468956,3.2818198,8.149917,9.56818,-1.3974942,-9.527934,-9.281839,-9.755761,-16.340244,-10.0811615,-7.0251126,-10.624277,-7.3774533,-10.004154,-8.001899,-6.3167586,1.7363054,-1.1650051,-0.10269789,0.5466159,1.884504,0.054186568,-0.5151408,-0.01850589,3.767033,-4.155199,1.1965206,0.27576557,-4.490758,5.5476274,11.131608,3.0013762,-3.2696743,-7.1546803,-10.193075,-11.426406,-11.868122,-11.399914,-4.968112,-4.1264105,-6.83452,-8.636598,-9.315047,-1.786168,2.974874,-2.2357767,1.9177109,2.4668381,-1.9562905,-1.5532978,-1.0071708,1.0478318,1.3070036,2.6087546,1.502038,0.80379534,5.1474338,8.598741,6.6002116,-2.1464446,-7.642912,-9.314043,-10.756802,-13.876016,-7.5923114,-6.125477,-9.909332,-8.649873,-12.896199,-12.206931,-8.712698,-1.6770558,2.136192,-1.1993307,-0.99285394,-2.259764,-0.7179591,0.46737838,-0.9581943,0.9596303,-1.201639,1.5834827,2.4260228,-1.1378816,4.888261,8.880705,3.4461133,-9.846333,-12.193936,-16.393187,-11.356722,-8.291462,-10.518082,-9.8089,-10.935906,-12.198602,-13.223361,-9.660081,-3.2200272,-2.1172583,5.6032476,-7.6033654,-4.43144,-3.0715563,0.8432502,-0.49189055,0.75824094,0.083129264,-2.887844,-1.7468054,-2.9518783,6.580219,8.011469,4.254401,1.3745097,-13.640207,-9.482499,-13.985264,-10.132185,-6.820826,-10.433591,-7.8554544,-8.731468,-8.990352,-11.687038,-9.559274,-2.6335344,9.945803,-2.3599234,-4.607462,-4.7560253,-7.5102406,-3.0511637,0.7425736,-1.5074968,1.7259196,-1.5148703,-0.12900503,1.2972269,6.25503,7.248582,2.4231849,-5.018826,-10.518165,-7.756901,-14.495879,-10.54478,-10.103262,-12.898632,-11.688363,-13.042647,-10.580681,-11.993391,-10.593796,6.1699944,8.381252,-8.413012,-6.0449457,-7.6255236,0.2766224,-0.06537218,0.5778953,-1.554972,3.5742679,-0.39592832,-1.2665377,-2.8564615,3.971112,5.6925545,-6.2633443,-11.857328,-6.9979444,-12.84225,-10.957982,-8.8193655,-8.177056,-12.010636,-9.0846,-8.750837,-13.248612,-10.64324,-8.8356085,2.7471256,9.532587,2.5233536,-2.3071678,1.3457017,1.7508736,3.4521961,0.6186141,2.0720966,3.773006,1.4223207,0.69298625,3.166908,5.6125107,0.3038666,-8.231999,-12.321567,-10.140534,-9.019102,-7.0705643,-11.342092,-7.1890225,-6.102258,-16.61318,-11.963983,-10.972233,-10.9880705,-4.9493055,-1.3367698,-3.1067083,-8.391466,-7.153967,-5.556702,-2.953789,1.1708298,1.8256562,2.0957825,-2.770194,2.1657066,0.3572188,-1.7497098,1.2823743,-4.687666,-10.251065,-13.270778,-9.337757,-11.583686,-11.587388,-11.953005,-6.6264925,-9.660162,-9.749102,-10.310962,-10.98504,-10.753653,-7.727732,0.8533412,-8.852106,-2.6932983,-5.065001,0.52598524,1.6821685,-0.25285816,1.0800084,2.2115436,0.52398473,0.88084984,2.9891849,2.1060545,3.809624,-7.9046354,-11.929722,-9.736222,-11.489565,-14.319466,-12.336656,-13.603422,-8.21051,-11.468392,-9.961557,-11.794772,-11.340089,-9.77375,0.004819997,0.81999505,-4.8835917,-5.7136335,-5.7148304,1.1675717,-0.53184414,0.14564945,1.1332406,0.5689128,-0.14633074,0.721328,-1.7106682,5.560778,0.8697408,-9.285808,-11.145951,-11.020139,-11.692035,-11.801838,-10.107118,-6.9802036,-9.369722,-11.271121,-9.889035,-12.153843,-12.784901,-4.8580894,-0.40763026,-5.528065,-4.808778,-6.478874,-4.334188,-1.7490608,-1.666716,0.6796256,0.64245737,-0.45531934,-1.3988663,1.1205314,-2.6067417,5.049543,1.1294926,-9.360438,-9.389846,-10.082336,-6.4789095,-11.140244,-9.663142,-8.945418,-9.809459,-8.566431,-10.242941,-10.692785,4.394337,4.762718,2.7245898,-8.0073395,-1.5774764,5.5450754,8.116854,1.0494592,0.7846152,0.47984684,-0.98840344,-1.7180284,-0.45844164,-1.412614,-0.75684345,-0.25958753,-0.7472288,0.55647737,-9.060131,-8.470113,-8.999235,-10.08771,-9.138251,-9.530902,-9.234632,-9.317401,-10.38178,3.1173878,5.76428,1.7902421,4.88756,6.6235423,4.8769717,5.244853,2.1225698,0.5000685,-1.9907584,1.3573462,3.6144345,-2.9635203,-3.4247186,4.598333,3.8261228,-2.6731765,-1.9768913,0.18823256,-0.6781043,-5.8601766,-6.8552566,-7.7904153,-8.122242,-3.7629051,-5.8191786,-7.9198256,0.7514661,3.347013,3.0456038,8.400656,3.9087331,7.198159,4.228846,6.972899,0.8673934,2.4104695,0.8632292,-4.037577,-4.0821686,-0.7919031,1.1222254,-0.5506227,-2.7474637,-0.315176,-1.3145897,-5.1541,-3.4757397,-0.3522181,4.085782,7.976141,5.1574492,6.357643,5.280313,3.9902015,2.5329823,8.466411,2.1381826,7.0327187,0.44068187,-0.19544815,1.9291836,-1.7419906,-1.543365,-0.09906417,1.8192846,-4.2459145,0.57518846,1.9966059,-0.23241076,2.6813,-2.034668,-2.9325292,-5.8373547,-5.316415,-0.720752,4.9180446,7.82828,3.2902768,5.8402295,3.614201,6.5252976,0.14312503,2.1045823,4.0532937,4.236561,3.7846065,-1.4214664,-0.6875475,-1.350937,2.6616797,-0.628417,-2.3944497,-0.6352567,-1.9383417,-1.8389498,1.3635484,-0.27015996,2.0625598,0.7700441,2.4435728,0.0340614,-1.4344553,-0.05805446,-2.1673148,1.1578798,1.2370155,-0.8348854,-1.8313544,-0.8699477,-1.3254617,0.29537082,-0.85284114,0.99796623,4.1767683,-0.009202168,-2.5163202,-0.8132625,-0.09547472,-1.4324988,1.094576,1.0438557,-3.7886288,1.7195507],[0.3795955,0.82640517,1.6692317,-2.4714801,-0.2430822,-0.16250516,-1.4698243,-0.095556535,-0.09191078,-0.07318017,2.6373112,0.0036311597,2.5921848,2.436171,-0.5375605,1.0382441,-0.9890077,-1.2768481,1.6339787,-1.0692368,1.7269639,-1.0213791,0.649532,1.3992971,-0.5293098,3.692623,-4.289076,1.4178848,-1.59445,-0.06912129,-0.34649512,1.5430526,1.0281609,-1.315892,-1.2333953,-2.158201,-0.23574418,1.9661524,6.952317,-0.037118915,-0.8990698,1.4082516,-0.38057917,0.9199461,0.13535866,-2.4238882,1.4384758,-1.1388296,0.764019,-0.22829916,1.4303268,-2.7432134,3.0357602,0.24855489,1.1274352,0.062445845,0.69000167,-1.2558986,0.9091517,0.28214946,3.4754202,-0.027554827,1.6452115,-1.3034635,3.9378006,3.3598974,-2.3600633,0.52820194,0.05906925,0.5038956,-1.3577495,-5.600024,-4.345602,-9.103947,-5.852366,-3.0714,0.12456879,0.96891505,-0.99682605,-0.22828463,-2.8071716,2.1459372,2.228793,-0.36982825,-0.07304893,-2.3699293,-0.85622597,0.3408996,1.1931225,2.0325084,0.34280878,1.1912302,-0.0760334,0.4660789,4.332725,2.9475884,2.848998,-7.2042246,-5.865234,-6.890503,-8.847626,-4.758589,-3.7285063,-4.428956,-0.25798073,1.0072325,1.6511024,2.552417,0.3635336,-4.1894627,-2.5771677,1.0262933,-2.0593357,0.8719664,0.027954947,-1.2470597,0.9832283,2.2665763,-0.1893508,-0.5679813,-0.91209084,-2.0746121,0.8086969,-6.087078,-5.1298413,-1.2242748,-9.050722,-7.066571,-3.2440422,-4.413074,-11.151646,-10.558974,-6.639178,-6.7332063,-4.63181,-5.364048,-2.5946934,1.8455818,-2.490466,-2.3356168,1.8401177,-1.1413262,2.4631655,-3.9137459,0.7605131,-4.1557126,-6.9506893,-3.1371815,-6.048414,-5.523287,-5.3957434,-7.808321,-7.098007,-6.31243,-9.31927,-8.344789,-7.7026844,-10.719553,-6.6747355,-7.648942,-10.703301,-12.201182,-2.8693993,-7.3707323,1.3707528,-0.77569366,1.7786561,-1.3417245,2.291488,-1.1205592,1.4339949,0.52069145,-6.4965377,-4.4663134,-7.4847665,-8.10069,-5.700034,-4.212713,-8.226598,-6.5248113,-6.7585773,-11.594429,-10.087961,-4.74381,-10.957438,-8.968889,-11.881867,-9.813338,-11.222333,-15.543448,-8.643237,-7.6824045,-7.9647865,-6.041444,4.3060846,0.7929893,-2.5048723,-2.2780843,0.35181993,-6.1301928,-8.44553,-9.540344,-7.093239,-8.517862,-7.444721,-7.5063386,-7.292682,-5.656643,-8.726253,-8.611629,-10.072233,-12.187792,-8.655884,-10.671034,-9.96897,-10.034025,-12.247435,-14.274748,-10.859625,-3.5380132,-5.3438683,-5.36376,2.7648153,-0.3203192,-0.9741874,-0.48360136,0.9382074,-4.357921,-7.0056067,-10.283677,-6.2943044,-10.808807,-5.4195046,-12.815604,-11.627737,-7.890599,-10.3908415,-11.376658,-10.1975155,-12.323014,-10.668375,-10.980037,-7.587554,-9.446437,-8.086151,-10.852882,-11.82392,-2.8886306,-8.785575,-2.6061404,3.080048,1.2667079,-1.1890388,-5.8759284,-2.544762,1.2754083,-3.786492,-9.508458,-6.525996,-5.4135013,-4.4198456,-11.964917,-12.308822,-10.312116,-11.116793,-12.714456,-11.087482,-10.407643,-11.048065,-10.028033,-11.616382,-12.7941265,-10.27568,-10.449594,-6.383919,-1.1006712,1.5160241,0.9483677,-3.4330115,0.18645427,1.2831177,-6.2643514,-0.8325757,0.0014296125,-0.97159857,-4.021224,-7.334284,-7.310546,-5.053282,-11.363923,-9.634178,-14.1513405,-9.3955765,-9.315135,-14.319491,-8.186737,-9.945644,-8.583896,-9.024981,-10.205653,-8.086429,-7.0901823,-5.036843,0.44593772,2.3742526,-2.2499394,-1.1246042,-3.3897176,0.72165096,-1.8310978,0.671134,-0.40735772,1.4018142,-1.6193178,-3.2057993,-3.7421637,-8.603633,-8.469089,-14.646626,-9.650067,-12.545152,-9.975711,-10.260412,-12.089246,-10.713538,-10.680346,-6.703839,-12.465561,-7.2402186,-4.822172,-7.287129,1.3968316,-1.6577815,-0.8174438,0.518174,2.0716617,2.045259,1.2686514,-0.7746691,0.7050821,0.81041723,1.774963,-6.0227556,-8.0542755,-1.2941575,-7.0491595,-8.021502,-12.678072,-14.078782,-14.082755,-13.518881,-12.718106,-9.617754,-9.182992,-12.098545,-13.255865,-9.660006,-3.3478346,-4.2034755,2.1743405,-0.59693,0.6027211,3.938546,0.50091594,2.2857788,3.1675198,1.9881139,-4.3946824,1.9682333,-1.6413803,-4.509836,-8.039944,-6.014213,-7.500585,-8.565181,-7.8438478,-12.148743,-13.7126665,-12.334266,-14.770441,-9.156414,-10.7079525,-7.8830566,-7.4041905,-7.2195063,-3.5673604,-4.957057,-0.13039792,1.8971434,1.5644493,-0.555587,-2.055749,0.36714914,0.77303565,1.2372348,-2.1574743,-2.8439136,0.67526877,-7.983628,-4.0720763,-6.341738,-7.693205,-9.6347,-11.41732,-13.383607,-8.5363035,-12.5604725,-9.899824,-13.222794,-10.703195,-12.691319,-9.065963,-6.5308766,-7.139742,-7.892052,-6.8040433,-8.620204,-3.596003,0.812014,-4.1297984,0.7515995,1.5714961,-0.15526125,-2.5543814,-1.014781,-5.792398,-6.0285754,-5.8787165,-3.1041937,-5.901268,-13.717771,-12.989237,-8.669516,-13.271969,-9.228028,-15.8274555,-11.304444,-7.238739,-6.685181,-7.810343,-7.0135784,-6.5868626,-4.9307823,-9.281894,-7.1000085,-5.498433,1.9180678,0.3554645,-0.12796198,0.24647142,0.6455159,-1.6914526,-1.3255056,-3.4502547,-10.11661,-6.2452736,-8.179688,-14.756979,-11.753637,-10.590821,-7.1538434,-8.569145,-14.911494,-8.847515,-6.786812,-7.6097603,-8.818986,-11.733468,-6.851067,-10.240283,-7.5163407,-4.1208653,-6.894894,0.97961986,-3.339418,1.4864434,0.35304746,-0.6418639,1.6644547,-2.5290105,0.10545939,-6.8730497,-11.915138,-10.8341875,-8.358381,-10.815947,-9.556039,-6.8933744,-7.274357,-7.7679434,-9.862034,-9.193898,-10.312018,-9.975717,-10.729758,-7.8535066,-9.269938,-10.766327,-5.6617804,-6.229528,-4.341314,2.9294279,-1.6140306,0.31829676,-0.04163049,1.6240834,-0.22306325,1.753085,3.787184,-7.9823275,-6.12104,-9.067709,-5.3056717,-11.777775,-10.79542,-9.187844,-11.669892,-9.723382,-12.2067585,-9.00947,-12.915851,-7.4409833,-11.094223,-13.492492,-12.132436,-6.375698,-3.6328392,-7.9621286,-4.2303934,-0.06076624,-0.13992591,1.1090046,-0.89200944,0.61781216,-1.8511572,-1.4595802,-0.047929443,-7.0371566,-6.5677786,-12.096155,-10.862337,-10.499705,-12.859512,-9.903143,-6.8362575,-12.299238,-7.3009872,-6.601545,-9.23726,-10.555259,-11.54718,-10.661231,-4.0374193,-8.119835,-5.883757,-6.885306,-6.384386,1.1898466,3.8381085,1.2885269,-1.047073,3.154724,1.3828523,0.84450996,-0.5858894,-7.5190105,-8.000464,-7.5589285,-11.457818,-9.449027,-8.93493,-9.8935375,-12.460456,-10.308936,-6.3197713,-5.933493,-9.744955,-9.872901,-9.626888,-12.536117,-4.025294,-7.6270156,-0.42710352,1.1154338,2.712646,-1.4936025,0.5755911,-1.6837672,-2.197231,1.5095055,0.061738525,-1.5585225,1.7646204,-4.830363,-6.127168,-6.354201,-9.115303,-7.1736455,-8.033717,-6.1211257,-10.9031315,-7.637372,-5.877764,-7.2225394,-9.1631775,-11.634335,-7.841432,-5.961518,-9.186039,-3.4456258,-4.5939703,0.32303363,-1.0724134,2.9231,0.8338171,-1.2596143,1.3568895,-0.5902403,-3.374129,-0.52811056,1.5608566,-9.073493,-10.702096,-10.301134,-5.8487577,-10.107402,-9.777802,-7.8303924,-8.996012,-5.2526965,-6.370866,-9.37881,-10.321236,-7.2101045,-2.4685395,-9.042807,-5.3496075,-4.0636406,-6.846185,-4.932146,-2.4916527,0.098429546,0.20866252,0.44188792,-4.119921,-0.36356837,1.0117335,0.7659211,-4.338139,-4.040315,-7.342372,-11.051183,-9.526383,-8.580674,-6.953194,-7.8591404,-8.835837,-7.63191,-8.176812,-11.298882,-7.026157,-8.005752,-5.273612,-4.2742214,-1.767717,-6.8190317,-3.7320988,-5.4415865,1.3839034,0.119735084,-2.0051472,2.5076854,3.4948568,-1.0034714,1.624265,1.4114671,-4.003592,-2.3069987,-2.1417477,-8.962618,-8.944296,-11.628621,-9.382322,-8.540084,-5.949036,-2.9456768,-6.1064587,-7.74213,-8.401061,-5.9750333,-4.6898093,-6.7061315,-3.7450228,-2.3732588,-4.341116,-4.2321677,-0.5155105,-0.05898696,0.2176488,0.60956585,1.4854022,0.32132074,3.0463877,2.4489446,1.0086483,-3.3495378,-6.215142,-7.466191,-6.876946,-3.0498595,-1.9203569,0.31241,2.8007467,-1.9943513,-6.162206,-5.6810083,-3.0598867,-7.418907,-4.0761027,0.23206033,1.0394989,1.5353891,2.6340563,-1.0126152,0.65213627,-0.26468706,2.7559304,-2.747139,-1.6828744,-2.0439332,-2.6487904,-0.44335324,-1.4529141,-3.5953686,-6.6950426,-2.832134,-5.2047734,-2.594456,-0.09622276,5.8183064,-0.118480235,-3.8397985,-4.4008183,-4.213629,-3.6664505,-2.3170667,-5.0113354,2.6881454,2.3776615,2.4881516,-0.43037722,3.3766086,-1.1678153,-2.3042357,-0.76832557,1.122771,0.50289106,-2.0916045,-1.978809,-2.2499359,1.3031892,-0.045455985,-2.5054944,-0.18203515,-2.714549,2.0588102,0.95199764,0.09081963,0.47110954,0.10655059,-0.5942455,-0.73035246,-0.5374834,-0.35464954,-0.2786766,0.568922,-1.2453079,2.575103,-0.3580522,2.8019981,-0.71165586,-2.7332542,-2.9482038,1.9605402],[0.42478624,-0.47604397,-0.69339633,1.4876125,1.1126872,1.7623237,-0.17822203,-2.2631524,-1.9285076,1.7941792,1.2043052,-0.833941,-1.7097715,-3.6415703,-1.320505,0.20344506,-0.4268217,-1.1639707,0.78642863,0.4669694,-0.08288845,2.496727,-0.6599475,0.52283317,-1.211602,-2.4397655,0.8363155,-0.64883435,-0.8764939,0.5489406,1.4011598,2.243742,1.9290932,-0.2958324,1.9673774,-3.3249273,-1.4310256,2.5834384,1.6756496,-0.6458804,-1.7148694,0.47681466,-0.8644686,3.0236468,3.7215242,-1.3812066,-1.4623123,-2.301859,3.7198792,-1.3572874,0.51805645,0.6276238,-2.2447872,1.8913288,0.49435434,0.6745952,1.5484912,0.5720688,-1.1182299,-0.85783154,-1.3280605,-0.34631664,0.6876174,-0.14638054,-3.0223303,-1.475303,1.9512591,2.5294843,-1.1738303,-1.9673594,0.62791556,-21013.527,-24790.352,-26566.176,-21496.533,2.6419606,-3.0724196,-2.1028194,1.1505729,-2.9711032,2.7694557,-0.53540087,2.2464828,0.73065495,0.40031096,-0.97141993,-0.34953284,-1.8392385,1.2164683,0.06286171,-0.72908574,-1.2849679,2.5114079,-1.6954116,-0.44421956,-0.8073303,0.46477517,-21013.361,-26369.914,1079.0785,8300.12,-17685.482,-28405.588,-21017.2,0.5388981,0.19134766,-1.4434711,-1.445119,-0.015212256,-1.330999,-2.778845,0.22527355,0.1269917,2.8449204,0.11329831,-0.099460535,1.294116,-2.7195303,1.7740973,0.38767588,1.2233663,-2.2834263,-3.3210104,10596.657,30948.547,29427.617,22006.318,17439.365,10557.174,-37.249443,-22495.117,-31285.414,-22344.434,-18478.07,-22370.424,-22375.258,1.4214542,-1.4601972,-0.1875187,0.9820433,-0.30518174,-2.219039,1.6302905,-7682.017,5555.1304,24005.822,24186.076,24060.516,24333.652,24718.434,26789.45,32397.379,37189.49,34932.61,31000.994,24562.736,13801.759,7177.153,9868.754,18667.824,13854.417,-26172.371,-28282.78,-27219.46,2.5631912,-0.14946017,1.4009944,1.6198672,0.93305886,1.1619635,0.9274513,-6205.617,12586.067,22474.932,24969.453,27685.988,29268.186,30723.83,32290.967,32948.594,35288.96,32075.963,27981.91,24326.662,23640.932,21114.701,20396.482,18867.33,15868.346,-2950.0745,-19999.793,-32098.998,-27475.43,-21167.775,-1.1922992,-2.6159463,-1.9175639,1.6096992,1.9784414,-81.89241,14443.529,20274.64,24390.8,29247.889,28788.615,31569.707,30723.088,28792.715,28135.693,23454.268,21462.13,17335.174,20340.367,19340.275,22774.96,18360.398,12411.775,7944.0303,5470.5693,-31178.668,-31301.145,-27413.498,-0.92096156,0.3243333,0.23065758,-2.3583765,1.1244472,-4116.9795,19802.418,18035.168,18825.445,26762.88,28091.293,29856.877,27931.04,15863.255,10653.8125,11592.585,14972.034,8014.9707,8493.967,16766.635,24250.81,18192.69,6087.366,12482.74,10725.046,-24294.35,-25862.568,-26304.3,-2.476045,1.9146719,1.3064413,-17443.27,-1.0285813,-369.30283,14924.165,16778.273,17278.996,18659.916,15518.02,19094.287,8256.574,-6747.3984,-2119.3618,14857.455,21998.266,16089.737,18197.746,17096.895,25237.748,15133.712,5984.2188,17425.234,13922.982,-17407.785,-21210.56,0.44502482,-1.4191685,-0.5728023,-1.7947433,-17444.348,-0.02018373,8770.183,-10611.395,-21867.164,-15683.798,-26502.93,-27485.375,-7469.6997,-21520.92,-29833.73,-19851.637,15533.139,24862.809,31501.691,33392.34,27546.682,24970.29,15128.049,10510.519,11347.333,11897.289,-18488.55,-1.9288249,-2.603571,-1.4806142,2.607456,-2.3004506,-0.19839653,-3.6581879,-22304.658,-25935.613,-25173.172,-19867.342,-15860.527,-23511.395,-25843.633,-23170.242,-33292.297,-29392.047,8236.059,22640.053,35992.46,26810.922,20215.889,20257.346,15834.782,11381.291,6072.6465,17051.258,-1.049309,-0.42222577,-0.25203478,-0.24550591,-0.12912154,-0.6397398,-1.5916971,0.6966321,-22302.08,-22303.32,-25203.07,-14333.066,2728.7893,-11782.79,-23298.68,-31049.299,-29213.635,-27502.82,10488.676,31070.918,32256.139,20243.133,14348.776,13450.582,14774.507,4430.476,7041.5776,12733.427,0.43094438,0.7224759,-1.2850213,3.4287527,-2.3730881,-2.4329565,-0.35988852,1.3529245,-22304.338,-22301.607,-24910.395,-25522.018,-33983.41,-36100.22,-39743.258,-33498.492,-24574.996,-15392.93,22398.613,29862.348,27635.9,13086.655,9619.934,19323.885,14133.279,-2081.9688,131.78436,-21963.654,-4.7303543,0.7177913,2.1845198,-2.588673,-0.13344775,-2.020063,-2.4449084,1.8061098,-22303.94,-22306.586,-22301.65,-28610.322,-36749.633,-38955.875,-36780.7,-34438.59,-12759.761,4276.934,28642.123,29921.762,26256.08,9508.742,15186.06,15875.6875,9275.288,-2816.3997,-17153.898,-25325.064,16555.695,19894.059,23267.041,2.982926,-0.24954478,1.8156586,5.5418487,-0.28952208,-22304.807,-22300.143,-29050.83,-32217.12,-39327.664,-39673.94,-23132.227,-7472.8384,-2198.8142,11840.001,29296.246,26604.535,22301.793,9454.084,14793.362,15999.484,12544.276,-3858.2942,-288.85995,13124.307,19382.938,21028.486,23268.664,0.6167824,-1.2130108,2.9921613,-4.112973,-1.3839062,-5.8186,-22302.97,-26133.006,-33015.71,-37996.414,-31528.389,-1945.7307,-2822.6816,4775.184,11074.114,25591.736,27475.877,25402.871,18301.648,16574.191,15136.161,8117.7603,-2529.1936,12748.652,21910.44,23267.049,23269.062,-0.3648629,-0.6953847,1.1286305,-1.0568656,2.900097,-2.5670362,0.5916502,-1.3157889,-22541.055,-31296.83,1154.9827,11355.789,10713.732,3609.5352,6449.0913,15588.214,33935.32,31462.408,26580.441,23425.725,12376.207,-4864.8555,-8684.998,-3680.8523,13020.427,22002.455,23260.307,23262.777,-3.556503,1.3987662,-0.57095283,1.9699154,0.19191426,0.42864886,-2.3024583,-0.11503661,-25804.127,20145.383,16441.75,14428.07,3469.954,11552.002,15749.403,26007.555,31989.018,24142.729,21149.975,14786.391,-580.87714,-23502.104,-1609.8114,22169.242,28889.844,30968.115,30158.41,28648.305,-2.166985,2.5129128,0.26100093,-1.3162305,1.420055,2.3702917,-0.93816096,-2.5679946,11410.807,28017.443,20288.365,1364.0933,3126.3105,18455.65,24331.092,26198.854,23802.178,25616.037,20452.096,9300.352,746.9554,2703.3018,15952.906,23206.445,29474.44,29629.86,30191.527,23261.492,0.91096467,-0.4240336,0.036058206,-1.4504504,-1.177379,-0.33068353,0.8887134,10591.655,19311.738,27504.85,24629.291,11944.862,16192.902,26450.258,24887.22,22209.213,20399.412,21854.705,16824.541,6474.3223,8024.3184,14499.669,20836.74,22770.385,24140.033,23637.25,23269.988,-1.1065578,-1.9172949,-2.7102847,1.7555922,1.9304912,0.6682998,-1.4772896,0.14997417,10597.086,22203.133,25373.32,25087.475,21119.19,25483.064,26281.824,19915.863,12355.111,14171.074,21709.623,20453.21,17127.06,26068.283,24393.688,25588.74,25250.586,17355.91,24232.748,23271.346,-1.19001,-1.7413404,-4.0828853,2.7602057,-0.01825197,0.88418853,0.3223869,5.7869573,10593.3,8199.473,8531.01,22290.27,20293.254,22119.996,20391.607,15873.884,10070.064,16718.076,23299.066,29660.086,29305.674,26667.658,22439.662,21841.85,21226.354,19547.324,22132.043,23272.89,-0.48268294,2.0978382,-0.9924357,2.8563938,0.94582427,0.9936352,-3.7877948,-1.1075547,-6531.754,-7750.488,-11376.274,-10161.204,-784.57416,8181.3276,3418.9548,9290.401,15164.356,23159.025,27073.969,33200.824,27926.543,27281.498,24490.709,21803.773,19647.117,21151.469,23084.97,23273.672,-0.6032334,1.3979588,-0.12708855,0.5513615,0.14423704,-0.888667,-0.8157147,0.07916434,-21190.998,-21190.543,-15688.744,-11195.69,-9189.597,13948.126,7784.2256,-4379.4077,-2082.513,20665.098,25665.508,26130.309,20130.918,21912.469,22427.498,22204.098,23270.97,23275.11,23274.7,23273.576,0.25788277,0.33453634,-3.0395956,-1.0881271,-0.83897555,0.56450623,-1.3008306,-1.6864622,-1.9697622,0.4984527,-18955.178,-18958.135,-25097.826,-28538.908,-30704.564,-25905.604,-8882.914,-21003.033,-22851.129,-18933.494,-18936.984,-18934.727,-18935.031,-1.0008259,-0.4848989,1.6107943,-3.3734307,0.5718047,0.068148896,0.8082903,-1.0341765,-0.5282448,-0.036357824,-0.29390037,-1.1209873,1.1144749,-1.1884131,-18956.662,-18955.262,-21934.305,-25121.436,-23249.383,-26397.457,-18923.102,-23285.322,-18214.309,-17434.512,-18934.441,-18934.81,-18932.08,-18934.633,0.075573415,-1.0974607,-1.769349,-0.9266213,2.235569,0.5066526,-1.6584461,-1.1645089,-2.4999275,1.3007996,2.779182,1.7573195,0.09301687,1.3105263,-0.32567114,-0.29134503,3.1591132,2.6124778,1.1732267,0.081002705,2.33234,0.14611983,2.1114922,-0.65937304,0.64842445,0.49149758,0.93749046,-4.384548,-2.4733162,-1.9603326,0.27775267,1.1981035,-1.3788911,-0.9612827,1.6049055,3.499655,1.8656869],[0.7143681,-2.6377861,-2.147429,0.63088816,0.48982787,1.6893517,1.4726409,-0.023879122,-2.1285524,2.6662626,0.9663051,-1.6153933,0.969554,-1.0314072,-0.32965118,0.9265147,1.9046541,-0.72898227,-0.6143814,-1.5789292,-1.5983399,1.7640258,1.9462521,2.9883428,3.7790277,-0.62076414,1.1854079,1.0704197,3.500211,0.4047451,-1.441837,1.1855253,-1.7747817,-0.7143786,0.078461796,0.8664588,1.2922485,0.81307095,-1.7429849,0.35489333,2.874879,2.2050085,-3.3508177,1.7761309,0.31378496,0.027653132,-2.4813273,6.4073796,-0.6399581,0.5386913,-0.67292243,2.8624692,1.6350791,-1.6860393,2.1659198,-4.2790847,2.8905973,-1.5868436,0.21536005,0.60239244,-4.7015653,-1.2275203,0.9309069,0.15110378,2.306949,0.52533734,-2.8079696,0.6444806,0.20031221,-0.41738233,3.6433923,-5.301548,-5.2089577,-6.8021636,-0.8582319,2.2183924,3.085185,-1.5009189,-0.009031315,-3.1157756,1.1368302,-1.44429,1.3364758,1.2909511,-0.74826837,-1.5916961,1.8042241,1.1562028,-0.46624696,-1.2287943,-2.1924467,1.2268696,-0.41092828,-0.92489445,4.689035,-0.13626032,-0.57483023,-4.838114,-1.5198281,-5.4791536,-5.6461887,-2.3597753,-2.2187266,5.216219,2.0889866,1.1257793,0.267443,-1.041199,1.4463234,1.5195614,0.3617627,1.3179392,-0.40357625,-0.38660127,0.7326216,-0.047029465,-0.6137464,-3.6731052,-1.0695665,0.1232576,-0.47000685,0.1638449,-0.47413552,-0.5021893,-2.0054228,-5.5614033,-5.242892,-1.7105118,-1.2859352,-4.6016765,-5.2618923,-5.3231807,-1.8488649,1.6269797,2.9884536,1.8837258,-2.3387733,-0.23295732,-1.059739,-1.7933853,-0.6805576,5.1546946,1.5575758,-4.5338006,-2.540084,-9.503684,-6.7222757,-7.7054276,-4.0352883,-4.76191,-4.2041216,-7.091712,-8.243353,-4.6997538,-6.556447,-8.864714,-5.435761,-8.63615,-7.402768,-9.724819,-0.9023262,0.42635608,-0.75688034,-0.9000938,-0.4675945,-1.5179088,-0.90118796,-0.92473674,2.8987684,-1.2810318,-3.4949245,-5.0786834,-4.0175786,-6.4229097,-9.170367,-6.251982,-3.1684313,-5.6498327,-9.006471,-9.9074545,-5.0167456,-5.8164077,-7.286646,-7.095477,-8.713383,-8.2813015,-8.294281,-7.4722695,-4.624007,-6.359384,-4.026887,-0.07467566,-0.692018,0.8790537,2.7789295,3.05663,-0.27183366,1.3134239,0.618894,-8.225116,-6.4636364,-4.537971,-8.839066,-5.673472,-6.85325,-8.209166,-7.711618,-2.643949,-6.0311003,-6.484514,-7.55647,-8.949212,-6.1821103,-9.307717,-10.478863,-7.979657,-13.358157,-5.4057255,-5.7679296,-8.750875,-3.4099383,-5.6678033,1.8759202,0.505213,-0.15061639,4.342847,-0.963095,-7.8216915,-5.8988895,-6.7201056,-7.5527573,-5.726615,-9.64504,-10.809379,-7.737455,-5.197476,-4.2194386,-3.4293547,-3.8457952,-11.581909,-5.8818746,-11.757098,-12.902609,-10.506694,-5.09404,-8.35756,-9.041147,-0.81516254,-4.293822,-7.433537,-0.92978346,-3.8059888,0.61755,-0.17884718,0.28571782,-2.2151349,1.9864274,-4.6158233,-6.0526953,-5.2917337,-8.512605,-5.0260158,-4.689624,-4.385665,-4.826164,-7.929792,-6.6938453,-6.222314,-9.146497,-11.76593,-10.707268,-7.5887284,-6.2281084,-6.1393933,-7.034133,-6.585055,-4.0193586,-0.041686885,-1.1616248,0.24152006,0.41917494,0.21784584,1.6859401,0.73733795,-4.8348637,-3.4300663,-2.301105,1.7574311,-3.8862767,-5.71681,-7.484225,-5.4593067,-6.983815,-10.15645,-7.4481916,-5.133144,-10.852044,-8.146876,-7.077757,-8.803448,-8.588128,-10.955365,-5.4560657,0.7570613,2.1043289,0.27946234,-2.6460981,1.9316324,-2.0841749,0.18666893,0.8423927,0.3153498,-1.1371151,1.1137542,-2.4146192,-3.343798,-5.1382,-5.372899,-4.478436,-3.4457083,-7.2818875,-9.919364,-5.1026134,-8.561724,-12.040604,-10.96381,-7.21053,-7.911088,-6.096322,-9.077262,-8.875761,1.6652609,-3.7409236,-2.4768393,-0.3040929,-1.4601446,2.530728,-3.5313947,1.2068353,-0.95588714,1.0176082,-1.8587841,-6.5542235,-5.5223336,-8.585436,-5.703084,-5.355248,-4.259325,-11.3608,-9.849969,-7.899514,-6.497302,-4.5296583,-7.7729015,-5.4544835,-5.6155496,0.5383118,-3.7711437,-5.6076236,-1.5185877,-0.9720609,0.69803625,-0.61760354,1.5047847,0.55502814,2.1343942,0.80700153,-1.8657688,-1.1117334,-0.4895428,1.9584652,-3.0144942,-6.6265664,-2.4308286,-8.166764,-6.254374,-7.7118735,-7.870177,-8.531164,-6.967541,-8.314126,-10.084373,-4.5213165,-6.8934093,-1.1782444,-4.826049,-4.906842,-0.2209932,-0.74924755,-1.9503052,-2.0819197,0.5546947,-0.96090716,-1.2527882,2.96474,-2.8280528,-3.7017303,-0.0045693866,-1.0067242,-3.3523238,-6.2304416,-4.5733895,-5.4708834,-4.019801,-6.0880632,-8.676264,-7.9445705,-7.1485944,-4.4046545,-7.339103,-10.756472,-6.0353293,-5.652482,-8.968264,-10.10469,-5.234649,-5.6666355,-10.35646,1.918441,1.8196193,-0.7892201,-2.3865983,-1.6950802,2.8112807,-0.14223287,2.5183878,1.6528279,-3.3818727,-5.303556,-5.953256,-3.9004245,-6.512169,-10.816276,-8.240424,-12.984876,-6.882378,-4.2693644,-8.672079,-10.538257,-8.081857,-3.9293566,-5.8219543,-6.1338897,-8.423022,-6.4694276,-3.7412665,1.6114646,-1.9501883,-1.8556775,0.5616976,1.4441894,-0.31978393,-1.8649784,-0.5613295,2.1293623,-6.0132504,-7.401272,-2.8045778,-5.5011644,-9.889108,-9.92904,-11.1350155,-8.761103,-7.0670085,-6.716945,-10.796939,-11.593079,-3.3284748,-8.817379,-8.295667,-8.244399,-2.9047263,-4.797981,-0.47559094,0.82187676,0.3547153,-0.67897666,0.7579282,-2.1198378,1.2206042,1.1740216,-0.5512088,-8.597045,-10.026328,-8.096635,-8.529182,-6.7376695,-8.713246,-8.121115,-10.765431,-3.203625,-6.223365,-9.517547,-6.4352164,-8.079287,-5.207328,-9.162287,-9.707088,-3.9540718,2.2268515,-0.87143356,2.1832263,-0.4381694,1.1262838,-0.37637126,-0.7863036,-0.65330476,-0.53120375,-0.47150308,-2.4043238,-4.485124,-10.264577,-9.1286125,-7.06477,-4.350655,-4.3430657,-1.7532917,-5.2631526,-1.9011638,-5.6014857,-7.292984,-10.767836,-7.078568,-4.9741054,-3.523394,-5.691166,-3.3958266,-2.038985,0.4244888,-1.8708514,0.26650634,1.0547161,2.6914952,0.085807376,1.5555447,-1.7971227,-3.8667305,0.416499,-2.3839874,-7.9263964,-6.4134,-2.3065856,-6.085025,-8.258557,-5.0451927,-3.1689568,-6.2254004,-9.160023,-5.8010507,-4.2790303,-8.358608,-7.5900135,-7.159626,-5.621981,-4.948788,1.7552336,0.04060164,-0.47283444,0.55267215,-0.6409658,3.5609198,-1.7438616,0.5130858,-0.48212817,0.70258605,-1.2738149,-8.194559,-9.459751,-7.01834,-4.2479124,-7.4112997,-5.942381,-6.296757,-8.579763,-10.283702,-3.553848,-8.355993,-4.8397408,-3.18353,-6.434871,-6.7495947,-3.9186769,2.1452,-0.59845954,0.64592946,-0.047998086,-2.2605004,-0.79921913,-1.2264408,1.2213738,-0.26444718,-1.4877632,2.1186154,-2.6918778,-6.49897,-9.5368185,-10.214427,-7.435039,-11.396909,-6.3045278,-4.213448,-5.855893,-8.799822,-5.9472775,-7.0484815,-6.771839,-15.4807005,-7.1198883,-1.0047902,-6.1564407,-4.209371,1.8369889,0.1740775,4.089027,-0.30650306,0.8939811,-3.1410563,1.986783,0.7170621,-0.9626294,-1.5903832,-9.955498,-4.94902,-8.356526,-8.417049,-8.590321,-9.25216,-9.238136,-7.1027884,-2.1385365,-8.230233,-11.078204,-4.876209,-6.163794,-8.074879,-9.590229,-2.598607,1.8856548,2.695682,0.99830294,-1.3831033,-0.42282704,1.6168627,-2.358311,-0.9043471,-0.55587244,-1.0564368,-2.2146676,-1.4843668,1.4427483,-2.2887115,-5.385974,-3.9914937,-6.876101,-6.1690326,-12.346281,-9.826733,-3.973895,-6.853198,-6.4507813,-4.5101213,-6.9017553,-6.5571876,-4.739645,-1.4495832,-1.6372402,-3.2515538,1.0486456,-1.4607009,-1.9568373,-0.95829237,-0.17875983,0.09894514,0.61182255,-1.0333582,-2.2533247,-0.4673951,-2.1705358,-0.42135397,-7.9700212,-7.8422723,-8.618506,-5.124182,-6.8815665,-7.008232,-6.210263,-9.228404,-5.393863,-3.8267758,-7.2841597,1.7281901,0.028181294,0.12366917,0.93640804,2.4115288,-1.0441059,-2.3800013,-1.0157732,-1.563086,2.6857464,-1.0905362,1.518258,2.8326275,-0.9228317,-0.29316282,-1.8070627,0.27295056,-1.53092,2.0588193,-1.9555328,-1.7507879,0.51193553,-1.1889054,2.2162037,0.26227817,1.4889109,-0.43956262,-1.0790304,0.007389423,4.6001863,0.6314846,-2.392794,2.15979,0.5583918,-1.516772,1.072918,-0.0779452,1.3752753,-0.14929792,1.0337456,0.80220693,-1.4228457,1.798343,-1.1829321,0.39122668,4.581946,-0.48482352,-0.9358813,-0.2072106,-0.77706057,-1.2185585,-4.1289086,2.3933687,0.4415279,-0.048956815,1.1193681,0.15779607,-1.2692664,0.5311233,3.3292668,-0.63832057,-2.242364,2.7155988,-0.38097796,-0.016145406,-1.023205,-0.15634483,-1.0744841,-0.60723835,-2.8864133,-0.25338402,-1.8169609,-1.5225666,-2.532964,0.39854515,-1.83242,0.48277158,-1.2587888,0.7188338,2.509394,-1.5755752,1.1935045,1.8029625,-0.73220724,1.0563455,0.13176428,2.210121,-1.6013391,-0.72237647,3.329707,-0.6848423,-2.997621,-1.6346985,-2.619183],[0.32465804,-0.16786909,-2.7550576,-1.9942137,0.9750008,0.82549626,0.51764697,0.11292541,1.2095712,-3.4513586,-0.16605575,-2.6266694,-0.26285452,-0.33060992,-0.82427216,0.5673756,-1.4256245,-1.2454176,-4.4656253,-0.8466715,-3.5005324,-0.029486299,-0.2646562,-2.745529,1.5086223,-1.1916591,-1.7492763,0.85422784,3.2379034,-2.2451713,1.0673856,1.3871127,1.1057118,1.8790188,-0.76192176,-1.5752413,0.94896334,2.6735075,0.6190755,-0.75768334,-1.7482789,-3.6089554,0.7459351,0.64085174,-1.2692534,0.82657605,0.986696,3.1162584,1.4583578,0.6101284,-0.5067648,-0.2686188,-1.2521391,4.539535,3.2499077,0.13522333,0.118592165,-0.6523726,2.5993886,-1.5293516,0.7092897,2.9753866,-0.21143936,1.1536334,0.6702712,2.8094296,-1.7131208,0.17768995,0.4249468,-1.6811053,-1.2168746,1.1352514,-5.0990973,-6.040763,-4.5381975,-2.237924,-1.2882048,1.5962802,2.0034504,0.16423169,0.6146729,0.16341971,-0.32984528,0.73074204,-1.1256586,1.394727,-1.2715412,-0.025065657,3.6815407,-0.37787333,-2.0979252,-1.4725525,-2.3723078,-4.032396,0.41656494,0.8390026,-1.7086161,1.1457527,-0.35039613,-6.3463154,-8.206163,-6.0431595,-3.036135,-4.345106,2.9223642,-0.28584185,-1.2959063,-0.6648317,-0.28696427,0.88218343,0.26109353,-2.9214509,0.42828485,-0.4684597,1.0175172,-0.28536114,-3.1047847,2.2847214,-0.820371,-0.25194207,1.6390315,3.6524074,-1.2271427,-0.03927843,0.20791782,-3.2602031,-6.721596,-9.472998,-5.8213882,-7.853871,-7.8657837,-11.62549,-5.989782,-6.318463,-3.2942636,-7.964208,2.705435,4.447617,-1.3231686,-4.5016,-0.6258306,-0.030895155,1.4678745,-6.231757,-8.706937,-7.6259117,-7.6436553,-6.5330367,-9.330463,-7.5982466,-9.675306,-7.4900665,-4.9451203,-11.302689,-9.697745,-9.096183,-12.246707,-8.862796,-13.125153,-12.081432,-9.4872055,-8.161214,-4.5372744,-8.91515,-0.59663737,-0.7072906,-0.6971321,0.31239358,-1.305742,0.06702808,0.09666249,-6.49255,-7.834461,-8.717628,-4.8659267,-4.7665915,-7.0275874,-4.9783373,-7.6771193,-8.0027275,-4.792383,-14.191662,-10.471516,-7.7791185,-10.941776,-11.254243,-9.191221,-11.811508,-13.214783,-7.818865,-9.728093,-4.908666,-1.9568017,1.3974257,-0.22901806,-2.245423,-2.24668,-2.3174646,1.9583373,-7.707861,-6.3780217,-6.2537427,-7.5504007,-6.1527915,-5.3927865,-8.352426,-7.338626,-11.199622,-11.266728,-10.873308,-10.665601,-9.908647,-8.907371,-11.808107,-11.577683,-12.086117,-12.5538645,-11.736428,-10.125355,-4.5844784,-6.6191096,4.4422216,0.36163673,3.6334784,-2.5468774,-2.8310757,1.5046226,-5.4779167,-9.598808,-7.9936075,-3.297086,-1.1766629,-6.1867104,-10.849796,-10.647373,-8.780665,-6.0956235,-12.35132,-9.165626,-11.899015,-13.746654,-12.4493,-11.730921,-10.732517,-10.93549,-10.658444,-4.9853125,5.685855,-0.07166116,-1.8644543,-0.79575163,-1.8985258,1.7331583,-0.50898606,0.10131898,-7.778641,-8.764334,-5.927911,-8.99646,-1.7230259,-7.4877915,-14.105521,-8.720959,-12.285291,-12.182383,-11.589891,-10.783945,-12.26436,-12.115935,-12.366291,-14.005366,-11.12998,-12.604975,-9.884374,2.826486,1.7579539,0.26903424,3.4977756,2.6940668,-1.9482641,1.8894736,0.031061724,-0.15230119,-5.914047,-7.727012,-6.1576567,-7.5241456,-5.371062,-3.7676191,-10.5562725,-7.2263885,-10.837149,-9.040726,-15.819872,-12.710644,-12.085709,-9.687859,-12.985368,-12.742754,-10.473252,-9.768971,-9.889758,-5.50951,-5.214177,0.13123718,-2.2042227,-0.51778877,1.1754252,-0.6291245,0.83278555,0.25732312,-9.313671,-5.107526,-4.9281464,-5.8706484,-4.7077565,-9.795745,-13.169762,-8.616874,-13.302304,-10.117159,-9.958679,-12.534245,-8.146514,-8.049053,-9.43877,-11.918239,-11.210964,-9.424478,-6.0399213,-5.4965634,-0.53645694,0.18855645,0.15108751,1.1308839,0.7681059,0.49850458,2.2867198,-1.0105731,-8.896667,-5.607238,-7.4646397,-6.4569483,-7.61746,-2.6112778,-6.8402734,-12.432353,-12.320576,-8.383383,-10.705636,-11.802264,-11.663055,-9.180405,-14.448059,-9.354598,-9.550214,-11.129189,-8.409102,-4.5094156,-2.6277096,2.787439,-1.1849577,-0.8915652,1.3046376,-2.1274884,0.35785368,-2.046671,-5.102453,-1.90339,-7.524283,-7.2169003,-5.891414,-7.1817503,-11.909241,-9.609463,-14.580963,-10.602239,-8.685096,-11.938624,-9.289124,-12.239977,-11.302258,-11.6272135,-8.14752,-8.453975,-8.883225,-7.013752,-0.79245144,3.0611286,0.07816231,2.7001562,-0.034940347,-0.09443971,-1.9179807,-3.6199944,-2.315292,-3.5642626,-4.9013743,-10.38364,-5.484245,-6.875427,-10.693269,-9.813892,-9.841344,-12.852757,-12.022137,-11.9126835,-11.270319,-10.100702,-13.000605,-9.483882,-7.6065855,-12.427045,-9.050599,-6.111683,-4.8023725,-5.0510025,0.29757294,0.080403164,-3.0730855,-1.0445818,-3.2310212,1.2609519,-5.0594845,-4.8240457,-7.4428,-3.3786466,-5.5961766,-8.484128,-12.476789,-9.116037,-11.589394,-9.647538,-10.625521,-10.4970875,-14.052686,-9.120759,-8.514828,-9.687531,-9.660989,-11.317171,-10.677115,-7.9841833,-7.2642727,-8.253133,-4.0542846,0.19031961,1.7625129,0.3792083,1.2993146,0.29789928,0.7014099,-8.03293,-5.2872963,-5.1982245,-10.528774,-9.930755,-8.844037,-7.4881015,-12.099192,-11.945487,-6.975235,-10.182344,-13.324759,-9.766629,-11.800766,-9.93164,-12.117599,-12.09104,-12.915859,-8.160004,-2.3716133,-1.5964204,0.19668657,0.84122586,2.6343288,-1.3650188,1.6111716,-1.9970652,1.1332178,-0.28957018,-6.2581196,-9.514152,-12.0177555,-9.863402,-7.4195123,-10.64475,-8.43277,-7.7431397,-15.267146,-9.371322,-7.9316297,-11.997518,-7.7477984,-11.288547,-10.585806,-9.9724245,-7.732724,-2.8588462,-2.8895273,-3.9477763,2.4959884,1.7820102,-1.2208527,0.4328111,-0.6946356,2.0702362,-0.69299257,-0.75930107,-9.742492,-7.7700834,-9.643204,-9.694186,-10.192494,-11.932928,-11.996686,-10.136239,-10.455206,-9.811677,-10.534818,-12.713734,-10.339028,-9.910753,-13.316442,-9.987442,-7.449598,-5.8848944,0.12474945,-4.7683687,0.4221413,-1.4347677,0.7461928,0.53696495,1.7106055,-0.7163883,0.6672934,-1.4671401,-8.377108,-8.166469,-8.15138,-11.532993,-9.7413025,-8.515563,-11.703741,-5.9660378,-10.007251,-12.852441,-10.558914,-14.5204525,-14.441083,-9.916667,-6.6715384,-4.6721888,-10.698722,-5.264672,-5.999488,-6.393937,3.069141,0.14173156,3.0127952,1.9153243,-0.069582686,2.04041,-1.8670847,4.3395,-4.7679725,-7.4259934,-9.1310215,-9.204876,-6.3132644,-9.092347,-9.8521,-12.666372,-12.396412,-12.64302,-15.026224,-11.582308,-11.334193,-11.449288,-5.595152,-5.5427866,-8.0492935,-7.01225,1.113437,-0.50295347,2.437093,0.54369116,1.1085619,0.6731437,2.958937,3.12989,0.9964382,4.297626,-5.2241936,-5.957637,-9.375077,-9.503024,-7.4501,-10.090431,-13.336755,-12.988832,-13.501894,-12.075953,-11.047439,-17.206923,-10.872587,-6.3866477,-6.8451996,-7.782892,-4.685625,-6.4201365,-1.9904351,-0.7885245,1.3212334,-2.1120856,2.9237854,-1.6157763,0.97336036,-2.5747068,0.29090378,6.695864,1.8041358,-8.852569,-11.20481,-11.814659,-13.706922,-13.890228,-8.980618,-11.404251,-12.972046,-11.063282,-7.994779,-10.253482,-9.868793,-9.325272,-9.276991,-5.147971,-10.075252,-4.1114154,-7.945007,0.48097157,0.8640717,0.74381685,1.6446165,-1.1002635,-1.7111301,1.902007,0.1862121,4.2342153,7.2420764,8.044971,-0.24668589,-3.3348563,-9.619322,-10.979853,-12.017939,-11.1842985,-11.784682,-12.281518,-3.9851737,-5.2039695,-6.8308053,-6.779728,-11.524096,-5.48912,-7.27086,-7.78856,-4.955179,0.021614535,1.0134234,0.00048181214,-0.95265394,-1.5273913,-3.784675,2.69367,-1.8961871,2.8685846,1.8052955,3.9979672,3.4529693,6.490756,3.2670696,-9.964774,-8.137908,-8.546349,-10.438106,-8.419037,-11.126016,-7.470008,-9.980308,-4.6864033,-3.1183994,-2.8005946,-5.218652,-3.6129158,-6.8177395,-0.4458273,-0.5862262,2.2102108,-3.5236437,-0.40934905,0.35836956,1.6622883,0.5220686,-2.1292624,-1.2777472,-1.9312797,-1.1023006,-1.9113358,-5.168458,-6.3612413,1.6682726,1.008921,-6.3279195,-6.861459,-6.3523464,-6.2005734,-9.831138,-8.196287,0.7671854,-0.24536271,-2.5241306,1.8950672,2.1732237,-0.92620414,2.9133286,-1.4674339,2.3296926,-1.8068408,-0.6067285,2.2671893,-0.17450123,0.5005412,-1.7026858,1.0854614,-1.8287779,1.9222975,3.1459937,6.992662,6.352168,0.55229163,-2.7196782,-5.4752264,-5.50438,-4.744601,-3.5569582,-5.4535456,0.72696596,3.6739578,-0.16863286,-2.1904984,-1.2908814,-0.42309994,-1.5147045,-0.7098179,-0.47787976,-1.953407,-1.0750092,-0.35713515,1.183578,-2.0137095,-1.9060446,1.9210199,0.64618486,0.15742423,0.64383155,2.412467,1.7692221,2.1687748,1.4326732,-0.43743536,-1.5225943,-1.6447418,-2.160091,-0.9573905,1.5948335,-3.0864768,-0.7229315,-1.1151823,2.1304944,0.7172095,-0.15020919,-0.8413782,-0.20333858],[-0.09315807,-3.5037112,0.5098532,1.1004301,1.9652724,2.0991197,0.7368624,-1.0784551,3.0358412,-2.8463573,-0.54456806,-0.5927837,-2.275854,-0.57799894,-1.2172496,-2.9530814,-0.36003238,2.8294861,-3.4509532,-1.5521857,-1.4439245,-3.0934968,-0.5512205,-1.7073644,0.3090304,0.2789153,1.8938684,-0.7358487,-1.4323099,2.1713328,4.0719504,1.2933816,1.4002788,-0.65155333,-0.9980519,1.5021396,0.7911093,2.4929566,-0.9903502,0.30246696,-3.7323961,1.8789375,-1.7347602,0.6906348,0.049665023,-0.7347228,3.8851757,-2.3981707,1.9331137,-2.8629844,-0.2770113,-0.8143295,-1.1915598,-0.33215165,0.5253743,-0.24484065,1.119157,-1.1041801,2.2535336,0.1634068,-1.8862368,3.1833606,0.9149562,-2.9089189,-4.2932982,-0.58496237,1.2498231,1.4063177,2.435728,-1.8585131,-2.324584,-0.7641546,-4.816759,-6.4803634,-4.8161554,-0.89938045,2.3660417,-4.242997,-4.1348433,3.0241935,-2.2335086,-1.0559977,2.7212715,1.6909573,0.93122035,-1.0451674,-3.1994905,-2.802253,-2.284425,1.5316644,-0.03034016,-0.14600033,-0.9266879,2.0507839,0.31675473,-2.4210684,-2.3641846,0.7328356,-5.1852517,-8.103435,-3.722691,-5.890044,-4.925194,-1.3857045,-0.09791543,-0.2063367,1.9833549,-0.9061302,-2.383282,1.5681112,4.0963106,0.4143023,-4.8198676,-4.6445727,-0.9584134,-0.8702301,1.7567849,2.49842,2.0948753,-3.8513668,-0.36042348,0.81039965,2.3700085,0.8258374,-6.4717145,-4.7247906,-6.028717,-8.590411,-4.73971,-4.048813,-2.0981743,8.567124,6.9824057,4.234257,4.29608,5.6483803,0.1600828,2.3163505,-1.2269211,-0.9519316,1.0761036,1.6049511,-0.3575287,3.628439,9.946595,4.3652306,3.141442,-0.38738915,4.571257,1.3899446,-2.6583312,-2.5588586,-2.7036169,-2.224023,-6.6249604,-6.405286,-5.690717,-8.30579,-7.3122106,-7.5388846,-10.593255,3.3047554,4.0030894,2.1364224,-0.25730893,-2.184656,2.0296252,-0.9215699,-0.8798627,2.4302607,-0.61044294,5.3340955,9.841169,6.691452,7.968381,-0.11883706,-0.9801178,-2.5248613,-0.9747812,-2.8230839,-1.717662,-3.5354223,-8.0149,-9.935447,-5.8332205,-6.1352715,-4.4080415,-7.742043,-7.9881988,-4.6263847,1.0644374,3.4893072,0.8820351,3.609063,0.28706852,-0.01696115,-1.0042119,-1.959996,3.3816729,6.1954393,4.409874,4.2038283,8.227711,-6.7381625,-7.7600627,-8.499905,-8.366339,-5.0162907,-7.765582,-7.254838,-9.436544,-4.608762,-7.3622174,-6.6706014,-5.520067,-8.559154,-9.130571,1.6646034,-2.0116322,-4.240692,-6.263357,-3.5973735,1.3102697,-1.5196347,-0.37461317,-0.050333455,1.5917327,-1.4595867,-4.8122444,-3.9043996,-5.1794577,-4.0561657,-4.942827,-5.7134233,-5.8752375,-7.594722,-5.9581394,-2.419103,-5.5113893,-7.7739973,-7.4678683,-6.9675055,-3.184212,-3.8929899,-7.7718782,-3.493972,-6.196976,-1.3858974,-6.2644014,-6.863705,1.7769153,-1.2630613,1.3300841,6.4357667,3.6914775,-1.5146958,-4.592804,-4.434762,-4.441246,-4.1815977,-5.941695,-4.5090675,-7.213454,-7.2619586,-6.728544,-8.3729925,-8.804452,-9.255136,-6.879229,-7.6248,-10.740677,-5.232242,-8.285669,-2.182643,-3.0935304,-2.8536365,-6.9638023,2.1096623,-2.632611,0.5908935,-3.9566817,5.399272,0.5256148,-6.60898,-2.7391064,-2.5655596,7.7841787,5.420998,5.318911,-4.317066,-9.13152,-9.025058,-7.0156918,-8.342145,-7.833681,-6.4472456,-12.485348,-7.583653,-8.739642,-3.899584,-8.083655,-3.2857053,3.7896893,3.2938426,-2.3815994,-0.28310505,-0.5501478,-0.81705636,-0.49425313,-0.097899534,1.0841941,-4.7080574,-1.0373411,-0.13422388,7.007861,6.68305,2.0228186,-2.4462998,-5.842331,-5.7406573,-9.82015,-4.875204,-6.472644,-10.089836,-4.117226,-6.480589,-10.141121,-4.952901,-6.6816254,-0.062237073,-4.89658,-0.5837378,-1.4620302,-1.2541587,-0.025062295,3.067335,-1.2153016,0.46063334,0.3366042,-5.7137265,-4.8051496,6.007478,6.3856726,0.6258826,0.29576313,-3.081894,-2.0379193,-7.7123404,-5.70358,-6.634958,-9.296793,-7.752695,-6.8808036,-1.4799768,-4.0979595,-7.600176,-8.397012,-2.8131673,-5.608976,0.011002995,-0.30762163,-0.35857564,-0.58923423,-1.6656225,0.8606188,1.9502653,0.76277465,-4.9309387,-4.704083,2.93069,3.1970906,3.7323852,-5.666316,-5.8556776,-4.8610754,-10.981984,-5.9661837,-8.694574,-6.493304,-6.0252934,-8.987051,-6.142145,-3.667147,-3.9987137,-4.7397704,-4.9012804,-10.219204,0.54027945,1.1097956,2.3804765,0.7912583,-2.5925744,0.77011937,0.2682973,-0.25186735,-8.2814245,-2.7518146,-6.7608457,5.611033,1.6798455,0.66601604,-1.1415337,-6.3439956,-6.4268036,-5.3406205,-7.07994,-6.5312133,-4.9757257,-3.804284,-5.358438,-5.402993,-8.193957,-7.7060347,-5.3698707,-4.659117,7.4029555,4.63348,0.07784817,1.6645539,-0.48502037,-0.9258946,-0.88533485,-0.12102044,-8.790427,-3.9095678,-7.105402,4.2330575,0.67244613,-5.683693,-5.3818192,-11.812417,-7.4677916,-6.207814,-7.11973,-7.685573,-6.443178,-6.5404973,-4.7067485,-3.0932117,-5.2912607,-8.717726,-10.226537,-5.081548,2.6082764,3.2068937,-0.36474684,-1.4336249,-2.3829026,-0.13332392,-3.9433093,3.3295705,-2.664228,-1.3374897,-6.881819,9.249999,-0.41257307,-3.879274,-5.8681507,-7.2041364,-7.360596,-6.201074,-9.701115,-7.7357044,-6.8091083,-4.625012,-3.792561,-7.1801925,-6.946642,-7.70228,-6.3690453,0.32211745,-0.5665186,-0.61971277,2.0949779,0.5603592,1.9352443,0.403845,0.9606758,0.3600216,-1.1748589,-1.0574969,1.9441451,1.7478663,-10.21737,-5.0048523,-7.8546476,-5.8202014,-8.893799,-5.0067954,-11.353035,-8.147073,-5.1572704,-1.3241245,-4.482953,-8.795022,-7.3830395,-7.058575,-5.6514215,-5.0467243,-4.24796,-4.537591,1.2023084,2.3032563,2.615322,1.2917513,1.8246331,-1.6726065,-1.1329752,-1.4396143,-6.9054656,-7.7385626,-7.6893444,-10.380849,-12.299015,-10.217831,-7.964083,-6.737553,-9.007794,-7.3989625,-6.3722854,-6.090347,1.1871121,-1.3132555,-9.000443,-4.281587,-5.7379327,-6.220589,-7.8345475,-2.1769202,1.5501292,-1.5040988,1.1814541,-0.5544621,-2.3620708,0.15765569,-0.7392065,1.1313323,-7.408171,-5.1672454,-6.851823,-8.651854,-11.065736,-9.7035265,-10.434469,-8.841339,-6.8765793,-9.331369,-6.7001905,-6.162852,-2.0137248,-1.797322,-9.205427,-6.7685986,-3.6356447,-5.9296317,-6.6607156,-4.772358,2.9974654,1.0079156,0.28092045,1.6469396,-0.17756744,2.0463016,1.6475003,7.134583,-6.688594,-5.9390244,-8.014079,-10.33033,-6.3955693,-6.434297,-8.402708,-7.1362095,-10.335366,-9.034033,-10.7697,-10.17574,-8.137383,-5.949939,-7.9522047,-3.4372256,-8.353136,-7.1310477,-5.44301,-0.4296408,-1.2126828,-1.1510481,-0.76045567,0.5780955,-2.1603634,0.015956953,-0.9047033,4.934662,-6.019775,-7.018758,-8.502681,-7.6367154,-6.969277,-10.748851,-5.1359797,-5.1029377,-3.3337984,-7.7551017,-4.209095,-12.413262,-5.2746215,-5.198028,-9.451473,-1.9457725,-6.58029,-7.5802646,-5.2114205,0.55829954,0.30180913,0.10053824,-1.2567288,1.2079412,0.4228589,-2.3092813,0.31589842,6.4088407,6.162517,-1.6182446,-6.154012,-7.718934,-7.3870287,-5.1358366,-5.149666,1.7142302,-0.45833302,-1.7430121,-2.1538386,-9.020719,-7.141787,-7.5014524,-7.050588,-1.1895669,3.6255834,2.338913,-1.8860761,-3.08143,1.3970793,-1.3305287,-1.0125569,1.4589118,3.4425802,-1.084997,-0.31217188,8.504375,5.196759,6.2704425,5.6110086,-7.757247,-7.5414248,-5.634992,-4.309078,-0.35507223,2.8987596,4.4844856,6.74219,6.6679235,6.698597,-4.29161,5.3167324,5.291429,3.5146244,-1.1067573,-3.5307589,3.5670354,1.7967346,-2.4276385,2.992685,2.4388626,2.252114,-0.0052149105,1.0929192,9.984384,5.847101,6.3462763,5.5468035,1.3641175,-7.942351,-6.714024,-4.1877193,10.240483,7.444854,8.2505245,10.541576,6.335118,-1.9027276,-8.751105,-6.048127,-5.8554745,-4.291201,-4.875287,-5.730929,2.223889,1.1896604,-1.5373663,-1.045703,-3.2591631,0.17397149,2.2321846,0.58249885,-2.613593,2.361444,-4.063523,-7.1698074,-4.904099,-3.2317092,2.8281667,1.270153,-4.5132995,1.1068258,6.1317277,3.7032256,6.504417,6.2496543,1.0123298,1.3543776,0.557501,1.989906,3.170068,-4.653406,-0.95419365,2.3084729,0.64373446,1.760694,0.69414634,-1.7445652,0.9050416,0.9891224,0.7666243,-4.7490587,-4.727822,-5.967909,-6.717107,-2.5034275,-7.49588,-6.989124,-4.7071223,-6.642147,-0.15631664,5.4477262,6.067071,4.846096,4.2828016,0.7618232,-1.8074635,2.988597,1.9387914,-0.58258784,-0.21030428,-1.2394159,0.09900336,2.195027,2.1402507,-0.7075138,-3.5006294,0.72765386,0.79492444,-2.8118794,4.586939,1.709685,-1.6873716,1.8786021,-2.8992965,-1.5242013,-1.2228235,0.36484972,-1.507134,-0.06347991,3.0430017,2.660407,-2.3739476,1.0671219,0.65481406,0.6415389,1.2464062,2.239722,-0.08373898,-1.5988477,-1.958729,0.25617296],[-0.1191599,2.2163599,1.7596278,0.9369646,-0.6462416,0.7457743,-0.29949474,-2.43803,0.9805931,0.8269853,0.5424422,0.47427973,2.2728615,1.1876041,1.2680044,1.7813735,0.00013247808,4.021257,1.926523,-2.046947,-0.486502,-0.03277989,0.3448826,1.3998917,-0.7120193,-1.7985142,1.935333,2.0640562,0.42978907,2.8379672,-0.53660274,3.703936,0.11412746,1.9786925,-2.1268582,-0.8339697,-3.1266346,-0.3515123,-0.5432954,1.1718322,-2.7714195,1.2669415,3.221618,3.4207966,-2.3804064,-3.8072562,-1.4951807,-2.931938,-1.0183452,1.1300119,1.5958863,1.7526342,-1.7045773,-0.25609237,0.27079704,-3.0586085,-0.9467645,-0.11514109,2.125758,1.7349241,1.9384559,-1.8986167,-2.9186335,0.46067327,1.5863998,1.9180568,-0.7458271,1.3705275,0.40137452,-0.46978083,-2.076373,-7.4573865,-8.091127,-8.492314,-8.964001,-0.97769225,-2.2307255,-3.946738,-4.6260667,0.56145436,0.8181691,0.7724241,-2.3430924,1.3155258,0.98346907,-0.22825052,0.19385183,-2.3588223,2.1982398,1.501656,1.3646079,1.1251671,-1.7613249,0.12370621,-1.6924254,-0.23766637,0.7929813,-4.560747,-8.769429,-8.106727,-14.872979,-11.462581,-6.434721,-4.147699,1.6911925,-1.4429046,2.0373383,1.9916221,-2.9696817,0.7234302,0.4524407,0.17778969,0.71584684,0.7510176,2.245368,0.74243206,-2.5726824,4.657062,-2.5329764,2.0484724,-1.1626886,2.2683082,0.6297039,-8.307007,-9.269051,-10.047439,-11.407017,-10.973793,-13.2250805,-12.836481,-12.781808,-8.774312,-1.6110188,-1.7201169,-1.9484476,-0.869928,-0.15487939,-1.5774623,2.9891958,0.79867053,1.6310213,0.3134536,-2.1807783,-6.9205227,-5.1604643,-5.842078,-5.529385,-6.317061,-3.901507,-3.7366405,-3.8364878,-5.011579,-5.8553033,-8.965842,-8.669276,-10.94603,-12.496198,-9.871769,-10.217796,-12.561943,-11.658439,-9.2722,-5.9698215,-5.3683343,1.6416066,-2.6097064,-0.0038561877,-0.56972003,-2.3566115,2.0019114,0.48044643,-5.0588365,-6.3376417,-6.7819176,-4.902829,-5.7920675,-9.287006,-6.938459,-9.864677,-5.423275,-9.508828,-9.889869,-9.149463,-8.3076515,-10.134854,-11.502416,-14.327811,-12.205985,-11.1774,-12.151047,-10.841905,-10.512632,-11.206807,-4.7821784,2.3713202,-2.5712366,0.8109782,1.7302155,-0.20542793,-1.518336,-7.1265087,-6.369974,-6.2143817,-6.2197847,-6.424003,-7.227257,-7.9963775,-9.26436,-9.764235,-10.486796,-10.021275,-9.059499,-9.51515,-10.024079,-12.2622795,-13.159291,-12.823045,-10.855967,-13.801265,-12.324944,-10.165314,-9.592454,-3.3211594,0.15777166,-1.3345032,1.7136474,0.36709568,-4.1457386,-6.0097437,-9.440693,-7.425149,-9.732489,-7.4520226,-8.310799,-7.2435975,-9.721778,-11.79654,-6.7507563,-6.5542755,-9.515259,-8.161754,-10.252984,-10.072617,-7.3787084,-12.800691,-12.369118,-11.273426,-10.954859,-12.622966,-10.253151,1.61295,-2.0380647,0.26560527,-0.36986092,4.189639,-3.0665693,-8.049501,-9.463657,-6.415175,-7.186917,-9.120972,-10.526002,-6.491434,-7.098806,-10.253244,-9.8789215,-10.589785,-11.43917,-13.095378,-8.4752865,-7.756856,-7.394892,-10.39319,-14.005761,-11.8259,-7.4163804,-7.906805,0.27808794,3.6678689,0.19846033,-1.2028712,-1.6516448,-1.4139364,-6.4433956,-3.5137339,-7.143329,-3.7701638,-10.180851,-7.4025803,-8.839599,-8.211687,-7.470134,-8.111693,-7.862733,-6.3142076,-12.359522,-12.34428,-10.938188,-7.5371275,-11.138581,-8.30699,-16.82287,-11.92327,-9.284831,-1.4443942,1.105846,-0.88643265,3.0391657,1.06804,0.53323805,-1.142317,-4.9812255,-7.600067,-8.417991,-6.849805,-14.939514,-9.116043,-10.065685,-12.8714,-6.091733,-5.160148,-10.386366,-5.847042,-10.006712,-10.879912,-7.328445,-5.375664,-8.12563,-12.600287,-12.527024,-10.156561,-0.39012426,-2.2736356,-1.4174834,-2.5921648,0.12193096,0.4530253,-0.0057538627,-0.0717989,-5.8729725,-8.154748,-7.9843206,-9.228503,-12.147324,-11.8886175,-12.109023,-9.936312,-6.6585555,-7.8467836,-5.9234385,-10.883463,-5.5401926,-9.380356,-9.828517,-13.142759,-9.752853,-16.15184,-14.3201275,-6.8990703,2.0262916,-5.539009,-0.78059673,-1.9322792,-1.2682188,-2.3617744,-0.6965462,-1.5565135,-4.3469105,-5.3145804,-5.879455,-3.6152995,-14.099788,-14.214076,-16.321388,-10.406669,-6.08689,-7.257959,-8.546885,-9.546321,-9.579454,-10.361958,-7.796351,-11.80244,-14.134404,-13.771533,-12.959241,-10.290199,1.4422779,0.25712118,2.5126712,-2.5979064,3.404442,-1.1256772,-2.2109814,-0.20757788,-3.3566368,-4.5314617,-2.8105626,-8.964321,-16.634148,-12.314954,-14.581499,-15.945322,-12.587089,-6.5321927,-10.6955,-8.381234,-6.105896,-6.1688347,-10.284727,-10.918147,-7.863662,-14.250864,-10.717165,-7.881415,-5.4896607,-4.172532,-4.9654393,-0.8542427,-1.3712387,3.0108929,0.25611788,2.2538788,-6.3310013,-6.4890513,-7.4545736,-9.326014,-11.555757,-13.161918,-14.870757,-12.331986,-14.206523,-15.447543,-12.110688,-6.6403847,-9.383811,-7.907536,-11.216185,-9.747732,-9.851545,-10.080355,-9.627786,-4.3928924,-7.355708,-2.3111608,-8.152418,2.231227,-0.114306845,2.3244953,2.6849463,0.79287916,-1.6756246,-7.017042,-10.489782,-9.269473,-12.123516,-9.86053,-11.75481,-13.5691805,-9.662845,-14.166089,-13.992831,-11.449308,-7.8457274,-8.285842,-7.744234,-8.187355,-10.15935,-9.278878,-10.439114,-5.704787,-3.360813,-5.5369096,2.6646302,-4.418322,0.80073345,-2.4283538,-3.3974533,-1.4771376,-0.16975318,0.39125302,-6.670476,-3.835946,-11.33457,-10.709665,-13.900771,-9.355218,-9.051929,-6.8518186,-12.578511,-11.69981,-8.4051695,-11.481972,-9.561788,-9.104893,-10.7803335,-12.479773,-7.5104446,-10.204222,-6.2117453,-6.8422527,0.58933806,-0.519293,-0.8828638,-0.013881541,-3.0232055,-2.9329045,-0.62632436,0.8900659,-6.9310293,-5.7968926,-8.815804,-9.159139,-12.663043,-6.7265368,-7.7236624,-11.845452,-12.847515,-6.7213225,-6.8625255,-11.783092,-9.391605,-10.193643,-9.547646,-12.76592,-8.652819,-7.205374,-9.521939,-7.669061,-2.2211082,0.38602322,-0.20156777,3.1352794,2.9929912,1.4636416,1.9037161,2.6502514,-11.743964,-11.760489,-10.883673,-7.3715096,-10.228435,-11.897716,-13.015782,-10.87954,-11.909047,-12.211666,-13.668805,-13.4368725,-10.442476,-8.348813,-10.353844,-9.108346,-6.43596,-9.178187,-5.8714914,-5.5576434,1.3514965,-0.6331234,1.5440754,-0.47325578,-0.35088181,-3.9577188,1.956538,-8.143676,-13.127561,-16.915405,-13.819315,-9.104234,-10.029538,-10.702668,-14.072721,-13.318722,-8.547822,-12.484619,-9.998055,-10.378398,-9.179164,-7.270115,-9.954386,-6.9754972,-7.5267673,-3.3200493,-6.19731,0.5635854,-0.041833542,-0.7945548,-2.3718483,1.1192739,-1.9105855,-1.5085965,-1.1650808,-7.08303,-5.116864,-11.797155,-13.41027,-7.587542,-13.526044,-15.222686,-10.9856415,-9.940171,-10.356135,-11.819964,-10.781727,-9.262459,-11.199966,-7.1364694,-7.179374,-10.238151,-6.306045,-5.712175,-10.912044,-0.037460636,-0.33782908,-1.049076,-0.41211236,-2.1516743,-2.013145,-0.04713206,2.7549524,-5.4395375,-6.422651,-12.049271,-9.793169,-14.165218,-12.028234,-7.9879193,-9.166001,-8.310476,-6.693066,-8.3040905,-6.189529,-10.455282,-3.3189173,-6.7734885,-10.316301,-7.3514514,-13.124713,-9.340058,-6.056414,0.3531585,-1.019942,1.0247837,-0.26489884,0.3188965,0.9640063,-1.8373295,2.902166,-6.630804,-5.8675413,-11.073159,-10.593842,-10.474094,-9.47093,-6.9357696,-5.8769283,-8.072629,-7.9198356,-7.380973,-6.910111,-7.9056683,-9.522315,-6.4694977,-12.814985,-9.415579,-8.7056675,-4.275989,-6.6732783,-2.9501758,-0.0713034,-0.15000643,-1.6689956,1.9828831,1.1560131,2.0180767,0.8293344,-3.1090121,-6.653586,-8.25142,-6.328113,-9.396935,-9.489415,-9.660372,-7.294265,-8.841199,-6.782502,-9.865286,-9.61936,-9.772183,-8.616179,-7.437225,-10.078017,-8.590222,-3.3408918,-8.149838,-2.6068006,2.8545449,-1.3505706,1.2061332,-0.34674552,0.93084043,-2.7732012,-0.41216376,-3.2314541,-0.3739977,2.1987216,-0.30321997,-2.428293,-3.0250857,-3.7363951,-3.6515162,-5.168589,-6.042033,-11.371403,-10.553368,-7.1086617,-4.8880067,-4.583826,-5.329591,2.918271,1.3145043,1.0005828,-0.88179815,0.14255573,-1.7333136,-0.4109433,-1.1230018,-0.8271544,2.9820325,0.36109093,0.15410806,-0.92452955,2.9866333,-3.4482276,-0.9419064,-1.5878335,-2.195805,-1.804019,-5.706668,-6.7039995,-6.6064973,-1.9633826,-5.9860992,-4.2399187,-6.2508397,-5.8506913,-2.7902467,-1.3795309,0.692582,5.291532,-1.0406746,0.30809897,0.69648427,-2.322303,2.0082161,-1.2351009,-2.2592251,-1.6590153,-1.6376354,3.1050193,-0.07682909,1.5899872,1.4100395,1.5983086,1.8145093,0.45289904,-0.9287344,-0.9774579,1.0811021,0.8137613,0.2794191,1.6938308,-0.3651746,1.5599216,-1.2304215,3.0402145,0.25407687,1.092405,0.110546544,1.345587,-1.8539758,0.42918804,1.6472647,-2.750328],[-2.5836926,1.5463606,-0.3680034,-1.5385686,-4.8937516,-0.27249053,-1.0805229,2.4305432,-2.369487,-0.10633757,1.6460264,0.38778636,4.2110553,2.0650387,2.4824314,-1.2470748,2.9997597,1.149509,-3.345577,-0.6712048,1.1378914,0.3963571,-1.2699589,-1.1462893,0.043830656,1.7967613,-0.18724322,0.2822071,2.5595157,0.20002428,2.4095688,0.01775841,1.6617292,0.30680358,-3.182133,2.2028975,-0.2853616,-2.3729591,-0.8730511,-1.3252733,-0.33253223,2.5923765,1.1539203,2.1473565,-0.6747763,-1.2957612,-2.1140327,1.3795047,-0.10811672,-1.2224369,-2.1833062,-4.0735273,1.6775639,1.0462426,1.3833932,2.665871,-2.7180579,1.2202085,-1.3054236,-0.6385997,0.69994104,0.3661354,-2.4345028,-1.2590809,2.3380828,0.21031338,1.5495011,1.2849245,3.2819622,1.6270623,4.62228,-5.843665,-6.7989655,-4.713779,-6.899044,2.8321285,0.786559,0.030774802,-0.7860696,-0.94984496,2.1132169,-2.5267463,-1.371039,3.1568947,0.295433,0.1817814,-4.8071685,-1.9953669,1.1075027,-0.86740756,-0.49716455,-1.0906897,-2.4389608,0.4612016,-0.39785802,-1.9219804,-1.5744628,-6.9547367,-9.167525,-11.111441,-9.765743,-8.77552,-4.4426656,-6.3101196,-0.07965758,1.6961724,-0.77325886,-1.610804,1.7805425,0.65405947,1.1738691,2.0992866,0.6727341,0.9875681,3.5833247,1.5516278,-0.47362477,0.2604258,-0.8032256,1.4107436,2.1246042,1.008035,1.603368,-8.088088,-6.07064,-9.309166,-13.547265,-12.207255,-10.289246,-12.077568,-8.108802,-14.131911,-11.874079,-8.365555,-8.7656975,-2.2270057,1.6497093,-3.2906654,0.422359,1.9017804,-0.2360877,1.0567712,1.1908593,-6.3139906,-5.3384347,-4.609961,-7.343045,-7.6532354,-5.2832,-5.4105935,-7.302613,-6.7945123,-7.8879757,-14.970163,-9.13823,-9.801098,-12.379096,-13.600117,-7.750525,-14.964718,-12.180728,-14.981609,-12.445532,-8.456116,-3.0973732,2.7336388,-3.6777883,-0.018544639,-2.8601377,-1.4832988,-1.2664002,-6.5342646,-6.9253974,-7.1644173,-0.39950478,-4.788485,-4.5670037,-8.874866,-7.1588135,-7.653521,-8.488105,-13.593181,-10.904785,-15.313232,-11.530405,-11.5910015,-10.012224,-10.177103,-9.566037,-8.414944,-5.6193967,-5.6262894,-3.301405,-8.332463,-1.4332877,0.6659974,-1.0153189,-4.771404,0.62369615,-6.581311,-4.157777,-5.0285125,-2.2233844,-9.653649,-3.6984627,-8.182794,-11.612189,-10.83892,-10.934076,-9.525352,-6.8600974,-11.173012,-9.990804,-8.1829405,-7.7891517,-10.882979,-10.744857,-7.8249564,-6.7906237,-4.854654,-6.9997625,-2.9172354,2.368951,1.8388714,-0.9071585,4.0029354,-1.7007167,-4.4297867,-5.3199506,-8.213006,-3.8395474,-6.5520873,-6.986097,-4.872439,-9.578157,-12.466776,-10.139328,-13.7559805,-12.657516,-9.229914,-8.243561,-8.860828,-9.28475,-9.021424,-9.499907,-7.734122,-7.692378,-6.9951534,-4.9310145,-3.9128075,0.4882518,-1.6495603,1.687241,-2.940672,-3.102334,0.27182472,-5.5995774,-7.009978,-4.9484587,-7.05221,-8.348359,-12.642594,-12.931055,-10.442114,-16.910128,-11.629078,-13.223643,-13.684743,-11.6825485,-10.343382,-5.1461577,-4.9282155,-7.771816,-7.1536202,-8.412205,-6.1986747,-2.8697696,-0.57844174,-3.7957046,0.18421799,0.56204236,-5.3421354,0.55015594,-1.4733987,-3.1382396,-6.683118,-3.331901,-5.2572136,-3.6845093,-11.325535,-12.709706,-13.780323,-14.52767,-12.378371,-10.391079,-10.497417,-5.1387396,-7.4873953,-11.124393,-7.333366,-12.541201,-15.050446,-8.7725,-6.188088,-0.17181441,-1.9503233,-0.25978813,-0.49689445,0.7961983,-1.2375914,3.114563,-7.4781837,-4.8329916,-3.277493,-3.8545277,-5.609174,-10.15043,-9.567145,-14.544876,-12.768581,-13.015004,-9.249019,-7.1021795,-8.754284,-11.516001,-10.482342,-9.317509,-10.346158,-17.862734,-12.823466,-15.348957,-1.697965,-3.5602043,-0.9175814,0.5228238,0.35486743,0.63245964,2.064797,2.0577557,-7.694555,-5.7582693,-3.2894347,-5.023819,-6.09284,-9.756307,-12.095549,-12.051075,-15.143719,-8.828521,-7.788517,-7.357541,-7.8044367,-12.383636,-13.414211,-9.386637,-11.8888235,-13.55886,-15.335725,-7.6105733,-0.94443923,1.4317552,-2.4500158,2.0317683,-4.434577,2.7530386,5.170002,-2.7989202,-4.8746686,-3.3142755,-3.924499,-2.367187,-6.5086823,-9.750316,-10.187441,-9.476803,-10.918599,-9.250371,-8.147434,-7.559044,-7.427717,-8.697243,-11.208199,-10.223439,-11.329685,-16.749914,-11.251513,-13.845711,1.4498281,-0.35582885,0.2437456,-1.8401998,-3.3441582,-0.7879133,1.8296214,-0.2875833,-5.4869013,-7.192728,-4.517299,-5.161234,-10.563535,-8.342665,-6.655756,-7.425348,-5.0466294,-6.044114,-12.065974,-11.492822,-12.387556,-9.433526,-11.608823,-12.865752,-7.1261945,-10.635374,-16.014952,-7.4364657,-4.614878,-5.3153534,-7.2749596,-0.6428905,2.7966728,-1.4375203,-0.8293882,0.18413502,-8.689313,-5.611536,-7.9198503,-10.890318,-10.575189,-9.809956,-8.492279,-8.468796,-6.630202,-6.9438343,-8.608093,-10.129318,-7.2681537,-14.050924,-11.665865,-10.393917,-8.76742,-10.74339,-15.135927,-6.74807,-4.0212426,-8.271264,-7.0875077,1.8091246,-0.2527914,-2.6118817,-0.18964328,-1.6835737,0.09505964,-5.437643,-12.555193,-13.227911,-12.291613,-9.322595,-8.840575,-11.353582,-12.41821,-10.191429,-12.9243555,-10.466111,-8.720643,-9.788537,-8.309157,-9.644608,-11.580425,-10.287271,-10.462892,-11.582945,-6.295547,-5.3527455,0.5486836,-2.1471334,-0.42285436,0.4680754,-4.750633,2.7472842,-1.2596601,0.80493915,-7.163204,-9.088745,-5.705879,-10.001493,-10.05325,-11.416798,-9.659878,-14.591206,-10.926644,-13.238869,-9.160653,-10.018875,-8.342386,-9.900571,-14.204877,-10.697642,-12.495162,-13.792776,-4.923786,-7.02554,-0.6369647,-2.0138602,1.2218138,2.2831938,0.18804832,-0.014102415,-0.29638833,0.18244986,-4.9571195,-5.027955,-7.909412,-6.7136774,-11.761657,-14.0520935,-13.348586,-12.279678,-7.5020847,-8.714805,-12.686638,-9.304901,-5.489894,-10.710196,-7.598715,-8.90325,-18.231138,-12.953486,-11.446054,-11.623956,-0.09760877,1.8515625,-1.3953778,-0.19358426,-1.1483046,-2.8344119,-1.2933177,1.1122644,-5.138644,-3.1556983,-6.974231,-11.173606,-14.208792,-13.361951,-7.224508,-5.7474914,-8.813226,-10.130769,-9.832084,-9.58219,-9.393541,-7.487595,-7.0478888,-8.481687,-10.6843605,-8.7231245,-11.586486,-7.8975706,-2.1762693,-0.17758639,-1.6564202,2.5822828,-0.4068404,-2.4686136,-1.3661597,-1.7843744,-3.8874025,-7.4151373,-4.959076,-8.343425,-7.2806406,-11.672167,-10.892501,-12.527624,-16.904137,-16.419226,-12.505208,-11.229102,-12.719226,-9.820765,-6.370848,-7.3666124,-5.9202337,-5.0358458,-3.3834202,1.1395618,-0.34101945,0.13709421,-0.1600593,-1.9794301,1.0168267,-2.7886631,0.4943784,-0.84354544,-7.0798564,-5.3332195,-10.623976,-9.160162,-10.954433,-12.950617,-12.794188,-14.600405,-11.385781,-11.618174,-9.26556,-11.707504,-8.103491,-7.427131,-11.098318,-4.2732177,-1.559777,-8.758196,-2.9007926,0.5091898,1.5219107,0.3185401,3.6646128,-1.1993804,-1.2476946,-1.6253524,1.6283238,-1.3030204,-5.504239,-8.620667,-8.879124,-9.15174,-15.741948,-13.644662,-11.411944,-11.262722,-10.898927,-12.59224,-10.659715,-8.846666,-11.818567,-8.818571,-4.7731733,-6.5515513,-6.6004615,-7.701663,-3.0009525,1.5941658,-2.1903033,-4.1563993,3.31985,1.0367974,-1.4221299,0.7638574,-2.6748214,-8.6444645,-9.900465,-10.134409,-7.6796336,-9.911244,-9.625691,-14.347319,-14.938909,-12.493696,-8.137542,-8.028845,-6.8771253,-8.220223,-16.07245,-14.314524,-7.6504664,-4.013073,-5.1001506,-5.711658,-5.9005346,-1.0629967,1.7467582,-0.5943479,-1.9592899,-1.1577333,-0.61944413,1.4008416,-0.5308457,-4.9790454,-4.124554,-4.8022375,-10.238876,-9.682472,-9.479974,-9.730143,-8.299973,-5.2546983,-5.1610045,-7.3686996,-9.753668,-13.246342,-14.759894,-7.773966,-7.26033,-3.6626587,-5.3588824,-4.668389,-4.023214,-0.05427107,-4.0180984,0.02125968,-5.724453,0.7103525,2.0198514,2.2130408,5.1244006,-0.3137444,-1.4288867,-5.6893573,-3.6225495,-4.32523,-7.7991753,-6.771276,-4.7238774,0.61563045,-6.1307917,-8.225933,-6.0887723,-4.770794,-4.5911,-2.9716122,-5.5886164,1.186872,-2.853275,2.595779,-0.96478105,0.58267754,0.58827347,-3.7950273,0.9535753,3.0998194,2.0012007,1.4980714,-2.4080906,-1.9501703,-5.7101593,-6.2614985,-4.9912667,-9.075706,-3.8492935,-5.688042,-1.7666612,-1.9790585,-4.7452054,-2.0737877,-4.280547,-2.2649026,-3.3197489,-2.5317166,-2.1918368,-0.08381531,-2.491692,1.8471557,1.5384463,-3.245303,-0.32152465,-3.6407948,-1.6024911,-1.4288522,-0.55071753,0.62694067,3.5176752,1.0206982,-0.762936,1.0028131,2.7294686,1.7388248,-0.44176564,0.85879385,0.6818936,0.43599176,-1.0335023,-3.144541,0.6348248,-0.6842357,1.2514043,0.82280695,0.45428622,-1.1507198,0.69003195,0.7411563,-0.89779025,1.2282094,3.4020224,-1.7952126,2.339393],[4.38588,1.5322242,-1.1143925,0.52082187,3.2505693,3.5676494,-2.2448094,-2.6672277,0.8078057,-0.2321298,-0.2180005,-1.1543484,-0.79359776,1.3297479,0.8630375,-0.5441204,-3.8957946,0.29382107,-0.19968079,1.6581917,3.2547226,1.4821723,0.41891614,0.38364142,-0.011190912,1.0201501,-1.0661973,-0.83773214,-1.3705069,1.19119,0.5908275,-0.54992026,-0.07188363,0.22960526,-3.0510168,0.063668795,-0.052053116,0.008523371,1.2480878,-0.25368646,2.1546748,2.8232317,1.4002144,-0.52711207,0.24630432,-1.2659845,-0.98355925,-2.5286813,0.10435624,-0.20042233,1.8908753,-1.6503882,-4.416026,-0.2029478,-2.0335865,0.36669114,-0.7829416,-2.8213065,1.4256061,1.934045,-1.0132617,1.4273387,0.18298647,-0.81248313,-3.513339,1.0632111,-2.3863266,0.55269015,0.95625716,-1.3400435,-0.9670021,-6.890398,-10.169314,-5.5688233,-4.3218307,0.67773074,1.1650506,-2.8987072,-0.5230555,-1.456819,0.038698856,-3.8890421,-0.38970098,0.17219226,3.8070183,-0.6560257,-0.9747496,2.1561437,-2.7004156,1.6393604,0.07440028,2.7302835,-2.313578,-3.0996947,2.7392926,-1.8460215,1.6007903,-4.2198486,-7.0367017,-10.684683,-11.166872,-8.036363,-6.3655086,-7.466728,4.674005,-2.0179172,0.024419228,-0.71537876,-2.0132473,-1.8970346,-2.0960293,0.6629766,-0.23812316,-1.1471971,2.22663,-0.20274766,0.63612914,3.8475292,0.5758943,-0.05677802,-1.3483673,-0.48006195,0.9478683,-4.255634,-7.600828,-11.243793,-11.262002,-12.693092,-10.547361,-8.849773,-10.842526,-9.837113,-9.136296,-3.4179406,-5.248669,-7.0922995,-0.42116728,4.327143,-2.7275224,-2.6744864,-0.15373312,-2.4237082,-0.3118267,-7.132219,-6.9360256,-6.025711,-6.627852,-6.90442,-8.525876,-4.3432775,-4.262263,-5.339795,-9.461219,-5.8298526,-12.483749,-10.234132,-10.606757,-11.107111,-6.531517,-15.872974,-15.127026,-13.665167,-11.216359,-7.133821,0.6423491,-0.45242622,1.0543611,-1.9240208,-0.85750306,0.36254,0.8041326,-9.452138,-8.015949,-9.549817,-5.6065936,-5.3314314,-11.267387,-11.529494,-8.3145,-9.943638,-10.430753,-9.651914,-12.41453,-11.374284,-10.579787,-14.467172,-10.836073,-8.226633,-9.147109,-6.539557,-3.0287044,-5.9523063,-4.92637,-0.15028201,-1.0797551,-1.1780373,-0.5968247,1.107078,0.6991417,-5.0864697,-7.2115517,-9.372596,-9.619131,-8.769892,-7.3483605,-8.845615,-8.105685,-10.739294,-11.745169,-10.492142,-15.15754,-9.926125,-11.724912,-8.113608,-11.263266,-9.891894,-10.026995,-5.728188,-5.341339,-8.500393,-6.11456,-5.4142284,1.7801987,0.0086451415,0.91660553,0.8870148,-1.4872605,-6.7469945,-5.7951446,-12.797343,-5.7703557,-7.6400504,-9.659377,-9.120915,-8.448131,-10.351651,-11.105912,-8.992138,-9.637711,-10.1802435,-5.559124,-6.833494,-8.625846,-9.632985,-6.756347,-9.769779,-4.9132376,-4.9806433,-4.0867906,-6.8851132,1.6133412,1.0847956,1.325053,-5.9540586,0.1949598,-4.5474916,-11.949078,-12.572175,-9.343686,-8.933237,-9.98896,-10.550435,-12.744017,-10.335433,-8.9630165,-12.07638,-10.059747,-6.5832233,-6.852926,-8.358213,-7.5676303,-9.105576,-5.301552,-7.33514,-11.144946,-4.4352403,-2.6823,-0.849508,1.7144418,-0.9348166,3.0834742,-5.2002673,-1.3882772,-4.2771897,-6.5224824,-8.735557,-4.570628,-6.1737285,-9.551144,-12.711095,-14.90886,-9.282257,-6.392464,-8.483151,-8.046347,-9.710691,-11.865466,-8.007416,-7.4910693,-6.4687166,-9.745084,-8.438662,-12.655104,-6.1037955,-2.2048042,-2.1603236,1.4457691,1.8547121,0.23897777,1.8530438,0.15087838,-7.0912056,-8.885153,-9.2991295,-2.7358372,-10.26291,-11.024678,-13.126451,-12.119992,-9.356609,-10.908439,-10.164881,-8.598094,-9.506032,-7.9733596,-14.322619,-10.443878,-10.3224745,-12.488281,-11.657408,-9.939716,1.1593088,1.4510472,0.101769805,-1.3120832,-0.111335166,-5.320837,-0.9773162,1.1190088,-3.4853127,-4.348514,-6.352443,-10.116391,-10.632367,-13.031024,-13.657228,-10.360732,-9.128674,-6.7062473,-8.727809,-7.0231743,-7.1901584,-6.960357,-9.76799,-10.811847,-12.698143,-16.391483,-12.028877,-6.1178427,-0.7483102,1.5888542,-2.3402476,-1.4086205,-0.82445264,0.14123061,-0.78478426,0.71691626,-2.895761,-7.7796617,-11.656191,-6.401938,-11.549282,-12.7818,-10.9624195,-9.725048,-5.132445,-8.482795,-6.961492,-6.4960313,-8.383156,-8.844142,-9.180244,-12.240757,-8.819261,-12.203263,-12.803383,-6.849635,-1.0025545,-1.4383343,-1.9848465,0.81471366,-1.0496795,-1.7263858,0.3037928,0.83292633,-6.3726025,-5.3816533,-7.5354156,-7.1618967,-12.980378,-12.868582,-6.9619837,-9.195543,-9.610454,-8.044818,-8.432072,-9.203987,-10.660947,-9.875337,-7.568723,-9.877948,-11.044729,-11.974359,-12.799872,-7.096713,-4.378446,-4.107697,-6.7572465,3.155948,1.2249725,1.7004031,0.42733625,-0.5187424,-4.801854,-4.7452064,-4.508101,-7.6395636,-8.553629,-11.058562,-9.557059,-10.63799,-9.181878,-10.0006895,-15.911498,-11.331719,-7.2128997,-7.7999654,-11.634082,-11.683285,-10.376968,-14.561214,-8.648686,-7.310178,-8.019577,-6.81598,-5.573169,1.1994046,-2.6820872,3.0317104,-0.033628784,-3.486152,0.2409645,-4.194055,-3.9990234,-2.7162118,-11.274587,-8.932785,-13.209239,-9.283438,-12.928037,-14.441601,-10.239551,-10.830542,-9.353476,-7.129156,-8.693487,-12.964447,-8.61297,-12.767487,-10.111681,-10.063941,-4.1825795,-7.364671,3.9878507,1.3671232,2.9009004,-0.06352679,-1.7080708,1.0330226,0.9805924,3.188862,-3.136472,-4.6244845,-7.6564293,-11.191384,-11.72118,-8.991439,-15.881161,-15.004976,-9.49886,-7.928523,-7.3077626,-7.852449,-8.42176,-9.5642805,-9.975674,-10.420869,-11.699429,-9.228784,-4.799367,-3.65364,-0.10656785,-0.6406303,-1.9149698,0.71076167,-1.0093814,0.81503564,-1.9063439,0.5480386,-2.2553988,-4.6192155,-8.084645,-10.813793,-14.710047,-16.361486,-12.630125,-11.23837,-8.541898,-7.021893,-9.8102255,-10.472772,-9.456896,-9.687952,-11.515623,-9.442191,-11.898044,-10.1871805,-7.754254,-5.991779,0.27213934,5.268609,-0.6782569,-0.3823639,0.01991832,-3.522758,-2.774739,2.32387,-1.8272336,-5.4892125,-9.906002,-15.18893,-12.064417,-14.42693,-8.622999,-10.635511,-9.762078,-10.593524,-10.543559,-11.707922,-5.487579,-14.466525,-10.284726,-11.386329,-11.423192,-7.979535,-5.9011197,-5.4234157,-1.0419496,-5.0407524,1.3322453,1.4990714,2.0095508,1.9457686,-0.2892863,-3.6584117,-6.471663,-9.019219,-9.198028,-7.281615,-10.929,-8.623619,-10.74508,-8.698336,-9.9703865,-10.836615,-8.228018,-10.798244,-8.652212,-9.47442,-8.465798,-5.733557,-6.792449,-8.357654,-4.3234234,-0.42102855,-2.6576774,-3.5948484,-2.7500017,-2.5753582,-0.4524982,0.39055413,-1.4134126,-5.3009634,-5.724974,-9.665796,-8.672459,-8.067895,-10.990907,-8.318479,-8.61841,-6.257015,-6.703923,-13.114355,-10.846889,-12.141337,-9.59114,-11.712348,-10.78202,-6.554463,-7.1677046,-9.995943,-5.1045413,-4.1466117,2.38629,0.71853286,-2.4026449,-3.7274039,1.2396066,-0.30736646,3.1580184,-4.3153124,-6.0175557,-6.5223894,-7.993237,-4.5685925,-9.352602,-7.9049754,-10.00033,-8.451097,-10.485981,-10.663935,-11.982038,-11.3736925,-11.81193,-6.218074,-8.523531,-8.462209,-8.109749,-9.264713,-5.985137,-0.655088,0.14643995,-2.019456,0.14562657,-2.203632,1.2751025,-0.45785743,-1.3780545,-7.220917,-8.475417,-6.358394,-8.558712,-7.2728496,-10.205535,-9.773886,-11.651708,-10.814457,-6.768187,-9.723723,-10.108805,-9.993715,-13.766233,-7.814695,-10.257923,-7.9021144,-7.2552266,-10.365903,-5.6007314,0.27535307,0.60760325,-1.8182977,-1.3038146,-0.6397426,-1.031481,3.1967292,-0.7624555,-2.3474898,-6.6631246,-8.329511,-5.516553,-6.395256,-7.413233,-6.9489126,-6.9051456,-9.986087,-9.892055,-12.30688,-8.988603,-11.382331,-10.441653,-7.1283293,-9.333211,-2.776205,-6.3552027,-6.1077175,-4.7191405,-1.4455078,-2.0938754,-2.868594,2.104957,0.9708737,-1.0841817,-0.06637391,-0.3237531,-2.3629959,1.105322,-3.1526833,-0.8847923,-2.7162898,-2.4850662,-4.6851225,-7.1516204,-5.5217867,-7.5588517,-10.000758,-5.2055507,-3.1796763,-4.675194,-2.6200526,-0.43291193,0.42396834,-0.890332,1.5809562,0.25807106,-0.9228841,1.2027708,-0.18650094,0.80211765,-0.76485074,-2.9920938,-0.30872,-2.772049,-0.33133757,-4.552642,-3.4045012,-2.649253,-1.6414648,-4.752386,-6.4833283,-5.8649755,-7.919936,-5.183232,-3.1989093,-4.0284076,-3.2355533,-3.3410878,-3.6635838,-1.9699737,-0.5690599,1.9716653,-1.3738954,1.3399031,-0.055837166,3.236172,-3.5512435,5.7583213,0.11235116,-0.4814434,-1.0973661,-0.4781128,-2.7234185,1.8614277,-1.1509326,1.9102077,-0.4521825,0.6176437,-1.8828346,-0.98183984,0.027537601,-4.077102,-1.3732332,-4.392565,-1.990388,0.9388551,1.889019,-0.24624051,1.5386307,0.6411174,-3.4089925,0.35808486,1.799855,0.8996114,0.04770928,1.1559957],[2.4546146,0.16360451,-2.0171015,-0.8675493,1.1886393,2.530186,-1.4203423,3.4250896,-0.79001015,-2.0481176,-0.513074,1.2718909,2.5072308,0.2458877,0.17306608,0.17671898,0.38610905,0.77560717,1.1762683,2.6533647,-2.624675,2.4838185,-2.6252182,-1.9622247,0.45120907,2.1153822,-0.9976783,1.1737542,0.5228081,-1.5920451,0.8508489,-1.0412704,-1.2088804,0.52023226,2.171606,1.0532918,0.5449079,-0.9487487,1.104274,1.9195771,-0.82215834,-1.3244436,0.5075383,1.5978042,-1.256261,-0.24518454,3.4997444,0.04664885,-2.0746346,4.5450015,-3.486165,-0.68904316,-0.8979543,2.4541066,-1.1161631,-2.9649198,-1.6047298,1.8321626,-0.70914894,2.5400884,-0.6927481,-0.80795574,-0.6248153,-1.3732777,-0.67905015,1.3397464,0.5561523,1.520699,1.3926477,-2.0687056,0.7457121,-6.884639,-8.963426,-7.893113,-6.887649,-0.55694133,0.62993246,1.532908,-0.7166045,-0.83255124,-1.8844869,-2.557843,0.7044594,1.3810414,0.07310894,3.3363643,-1.6208134,-2.2773113,-0.3060406,0.8584227,-0.7254587,-1.3920074,-1.1527325,-0.2864788,2.0499983,-0.9287568,-0.72454923,-4.548379,-4.9179783,-9.720004,-7.0048013,-7.6833606,-5.9777994,-4.5528483,-0.78265244,-1.4062446,-0.94325536,2.0483038,-1.6394666,1.7678481,-4.002256,2.0083785,-0.06467891,2.7998946,-3.3294196,1.7512469,-2.1967044,-1.0879757,-1.3365299,1.3032315,3.3233569,-0.8087345,0.33335808,-4.9102416,-4.17583,-7.755381,-7.334217,-8.774561,-9.929125,-7.1308455,3.3670962,9.592243,5.069766,2.6559415,-4.945723,-4.38621,0.4143743,-1.6533198,1.9086443,1.168958,0.3663824,-0.6998402,0.5922945,-10.86792,-11.386511,-4.9887514,-0.58454585,1.4760224,-7.4357734,-0.003745654,-4.7395964,-4.184702,-11.160944,-14.069313,-9.227752,-13.317487,-11.500336,-4.2601957,-4.6932173,-4.1254244,-5.7799106,-8.128327,-9.971557,-10.814609,0.9379068,1.9077498,0.12160228,0.8122086,2.1575274,1.6165298,2.1290886,-9.60664,-9.345585,-5.2988706,-8.680487,-9.278731,-8.097184,-8.27351,-7.1381645,-9.1335535,-10.45311,-9.948444,-11.716064,-14.268225,-9.010842,-7.534823,-6.8336816,-5.0145774,-8.506527,-7.1923475,-12.222096,-10.158395,-5.879603,-0.18187305,-3.7623913,1.3992184,-0.56117004,-0.7571887,-1.564492,-11.2360525,-8.420392,-13.248862,-8.461904,-7.202318,-8.332302,-12.27569,-7.8433814,-10.803205,-11.64339,-11.760896,-9.194767,-9.840513,-11.986084,-10.878285,-6.8355207,-9.105083,-5.149072,-5.9491477,-11.991568,-11.721515,-11.170748,-5.752337,-0.47961676,0.9135303,-1.5021404,1.3185562,-1.5865782,-12.584265,-8.086871,-7.076239,-4.988451,-4.7289987,-2.6112268,-11.631014,-8.921846,-12.1041565,-11.209366,-9.616752,-11.220933,-9.211716,-10.878169,-11.251592,-10.019258,-9.201626,-11.12835,-8.625448,-10.197658,-11.4542885,-6.327331,-8.114893,-1.785238,-1.332946,1.0754931,-9.831696,0.54490614,-8.71204,-9.417962,-4.906612,-5.0868015,-7.4000096,-6.6532,-8.456102,-6.5346913,-9.471244,-7.405067,-8.964033,-8.321213,-10.842468,-12.886033,-15.616749,-10.465837,-6.405308,-3.575349,-7.77619,-7.5695415,-8.649419,-7.8031898,2.8079233,2.138835,1.6086447,-0.6053256,-7.8609476,-2.7809796,-8.491505,-10.963413,-8.967743,-9.367553,-7.166086,-7.9903064,-5.52519,-6.9197164,-5.7030907,-9.105557,-4.638701,-14.515314,-10.103614,-11.465531,-10.82842,-12.663642,-5.6356993,-4.2941966,-6.8866286,3.8603964,-0.5381795,-1.2291878,0.04188368,2.1696103,1.1654689,2.7188394,0.21518804,1.4356234,-4.167374,-9.721694,-9.243921,-9.699381,-10.714345,-4.3940587,-5.4344525,-7.209724,-6.888714,-11.598415,-13.445701,-11.147756,-7.638344,-10.533077,-16.14945,-12.5158,-7.6255956,-3.3083868,9.082866,4.7893186,-1.0324502,-0.41836908,3.7949514,-1.6384771,-1.7163105,-0.33449176,-1.6443212,-1.1003475,-7.5601726,-4.867338,-9.224287,-11.221071,-9.23815,-8.601315,-5.673806,-7.7090983,-10.87999,-13.05555,-15.275476,-10.053925,-8.906785,-11.800138,-10.287328,-6.226313,-6.477597,-3.256432,14.955754,8.430622,-1.8681257,0.7938337,0.42392126,-0.94750255,1.2267634,-0.50426495,0.067572616,-1.6565348,-2.33285,-7.320898,-8.606436,-10.733167,-5.994375,-4.451647,-4.6491833,-12.455342,-11.134302,-12.204276,-9.91346,-12.58676,-10.086042,-11.8183,-16.689037,-8.303125,-7.91741,-5.000258,6.24955,7.61975,-3.36869,3.2095125,1.5073609,-0.05569984,-2.8650444,-1.4153125,-1.9578136,0.0038689408,-6.940091,-8.075476,-5.938127,-9.677991,-5.5754104,-2.0168505,-9.235773,-6.5196395,-7.6889987,-9.92922,-12.328915,-8.634992,-9.255343,-8.247668,-13.673793,-9.76362,-11.606709,-8.492642,0.8965177,-0.6967456,-4.109367,-1.7749555,5.3046784,-0.3393657,2.920612,0.06281235,-1.2896433,1.5900569,-1.7393038,-7.416639,0.97418666,1.3286448,-2.5924466,-3.5162852,-9.385772,-11.716599,-4.242013,-10.841591,-8.971509,-7.448594,-9.074363,-12.211639,-10.765924,-14.1270075,-8.927723,-9.549674,-4.40628,-4.7867565,-4.027347,-6.560155,5.8103228,-0.5657604,-0.4022879,-1.687954,2.9562569,-2.450613,-3.6470683,-6.802841,2.388271,5.2149153,-5.0541387,-4.503254,-8.632908,-3.545644,-7.487306,-9.323517,-6.951551,-8.267514,-10.157324,-9.309162,-10.373956,-12.8168955,-10.507862,-11.147833,-6.0558505,-9.662007,8.933564,6.0006475,-1.73952,3.319671,-0.53975564,-1.1789156,0.85363996,0.038692407,3.4605424,1.9139838,3.2153583,0.9553608,-9.682187,-2.8774576,-7.2953095,-7.018083,-6.6672134,-7.904708,-8.488125,-10.208654,-8.384377,-13.043155,-7.987727,-8.237139,-9.885569,-7.3762364,-2.177915,-7.224166,-2.726492,-0.059397887,1.6997097,-0.35946453,-0.28119594,2.8273306,-1.3249696,-1.066557,0.25691956,0.47255778,0.77505857,-1.1922771,-1.0229546,-2.711575,-2.4901829,-5.586844,-4.027695,-5.318663,-11.478714,-10.507048,-11.956536,-12.291553,-10.139782,-12.281471,-12.382428,-9.707682,-11.783308,-5.559738,1.1569676,1.1922494,1.3073202,-2.7225246,-3.164651,-1.2154099,-1.0158161,0.0798011,0.30833697,-0.49062872,0.54736847,1.3167406,-1.775154,-1.7638915,-9.001353,-5.7543483,-8.949056,-7.2226605,-7.6246686,-9.138484,-8.997237,-5.3064413,-12.84025,-15.477791,-14.950396,-13.908515,-10.942693,-4.0713744,0.99342614,2.7439933,-1.1840765,-1.6863753,-0.25649127,3.288751,1.1485273,-1.1569682,-1.0709914,-7.1892447,-10.196264,-7.592524,-9.703498,-12.403152,-12.8851595,-9.453485,-10.61444,-10.58438,-6.9751697,-7.8142056,-12.6868725,-8.372982,-15.903735,-14.548827,-10.712803,-16.415009,-11.5534,-2.5575678,4.7812276,-0.2116586,-1.3421398,1.1681826,-2.6486385,-0.32967007,2.0668986,1.5948436,-0.48127383,-6.322867,-3.8869545,-6.002954,-13.089916,-14.429474,-15.76056,-10.395387,-12.003121,-11.426942,-9.369069,-10.346261,-5.9446993,-11.950322,-7.208029,-12.019638,-10.4758625,-11.747636,-8.017329,4.8378983,6.041121,-2.7624156,0.83610755,3.8817902,3.1413488,-0.1009051,0.5300834,1.5393101,1.0941586,-12.281787,-10.184379,-5.931133,-9.622259,-12.515901,-13.331606,-12.517564,-8.72145,-13.967661,-6.976853,-7.0319805,-12.688349,-12.530092,-10.19879,-7.908524,-9.2945385,-7.863662,0.9491011,4.174451,2.495176,1.6109176,-2.972826,1.8240192,-1.232456,-0.54537475,0.71395063,0.004057458,2.5781536,-10.420794,-12.11307,-10.443075,-12.750692,-10.081725,-12.310897,-11.636689,-11.374969,-11.23417,-10.539515,-9.171674,-11.963651,-9.664367,-6.619774,-4.4786825,-3.9588451,-0.50853294,3.3376808,5.0435576,6.647971,3.0172322,-0.6131923,0.3597747,0.8999794,4.5324216,1.0254406,-2.19576,2.1971247,-6.3238115,-2.2711074,-8.041339,-13.175115,-12.624796,-11.632524,-14.101566,-11.223528,-9.617699,-9.282879,-10.471717,-8.621032,-7.580833,0.8445857,4.7813883,4.532565,5.5692945,8.838892,5.104493,4.2460794,-0.35983127,-1.6574322,-0.25989705,-1.7023214,2.175525,1.259995,-0.9653338,0.7404644,2.7627072,-3.609202,-10.45373,-10.001136,-5.525652,-5.4580607,-4.447437,-7.6790733,-8.107719,-7.726498,-6.3699665,-4.141497,-5.826299,-8.648191,-2.5826826,-0.6568333,1.2433978,-2.685891,-0.54221255,-0.5545153,0.4938684,0.55603814,-1.7190951,1.0004624,-0.57444507,2.5104966,-1.9088442,0.36460236,2.7491968,-12.067111,-10.028555,-6.3450503,-7.72465,-2.6720924,-7.6676836,-3.28292,-7.0624623,-3.400961,-5.339529,-6.416621,-4.3825326,-6.1100645,-4.3205543,-0.25920013,0.050714392,-1.5664712,-0.9205226,-1.992797,-1.7651678,0.09360856,-1.6852604,-0.9512886,3.5854714,1.0864626,-1.6992351,-0.4966456,1.0172503,-0.67315334,-0.4405854,-0.53406173,2.7451563,-2.4397626,-0.49786612,-1.8850701,1.7706642,-3.1777692,-1.1771803,-0.3452854,0.9452547,1.1385822,2.4687734,1.033573,-1.9983637,2.0929394,0.6719994,0.76407146,-0.9918486,0.40666234,-2.3620927,0.14009728],[1.705946,0.008273874,-1.1867021,0.4652388,1.6557301,0.6352734,1.8849579,-0.6796996,-1.7422359,-0.0071442015,-1.6506141,-4.4788833,1.0542891,-1.5683817,-1.7416388,-0.37598094,-1.0968937,-1.2270752,0.3155403,-2.8465095,1.1969024,1.454958,2.3000195,-2.9076014,-0.2184531,-1.494114,3.8634963,-1.0254698,1.3073691,-0.6962648,-0.8023126,1.1865838,0.15239866,-1.401447,-0.6876957,-2.1857188,-1.4361694,0.14412037,-0.86133796,-0.49216712,0.12148888,0.32756084,2.569171,-3.3541703,2.0826511,-1.369657,-2.8115046,-2.0940914,1.7452787,-1.383146,1.945446,0.40049738,1.1072882,-1.0639999,-1.0146921,-1.2081743,0.12343841,-3.3675294,-1.5376483,0.96032286,-0.122944,0.6820355,-2.0415707,-0.836785,0.006846626,-2.0495398,0.073103026,1.3071011,-2.3424332,-0.35532752,-2.7490952,0.35909402,-7.0595975,-6.7790966,-3.3834581,0.25416097,0.80815923,3.0313137,-0.8241765,1.8418965,0.46876425,2.379723,-1.4811198,0.1470884,1.1077827,2.0339475,-2.899412,-0.35111174,0.90500754,4.415066,-0.18847658,3.289491,-0.69888926,2.0696735,0.57550883,-0.11013857,-0.12937307,2.875463,-0.51935303,-7.776297,-7.2729807,-4.0673995,-5.9053907,-8.987005,0.51161593,3.8937,-3.4352667,3.1408474,-1.1776466,1.4877126,-1.3852926,2.010197,-0.91303515,-0.78069645,1.4714016,-0.64649814,-2.4246457,2.0628428,0.7422918,-1.597508,1.026478,-0.9708585,-2.8082948,-4.144448,-6.740999,-7.8861575,-10.668754,-6.8250136,-9.452454,-10.719276,-7.054612,-11.364785,-7.6730146,-5.9552774,6.8680124,6.822272,1.6005946,-0.42457622,1.5383128,2.1708097,0.046458878,-1.5415486,2.2901342,-5.098729,-5.4372787,-3.7897408,-4.762312,-5.4303813,-6.895972,-4.7669215,-6.067042,-4.706058,-1.1364075,-3.7146864,-1.6129433,-5.171111,-10.224612,-10.077908,-10.521059,-10.6871195,-7.7598047,-11.523891,-3.0357077,5.9707,1.2616988,0.4939795,0.06341618,-0.24819237,0.966383,1.962563,-1.2005091,-11.142035,-6.3915987,-10.335552,-0.8389928,1.6652446,-0.6504413,-1.4799126,-2.8473823,-0.35450223,-6.0217385,-5.276046,-9.776093,-9.500419,-11.238039,-8.279164,-13.572182,-11.294424,-6.7874637,-12.181315,-10.18524,-2.5401852,-5.7695885,1.5105027,2.5695639,-1.8285704,1.9126197,-0.32017758,0.68326074,-9.0805025,-8.934525,-11.142395,-0.13716637,0.32894558,-0.15016408,-1.0418776,-1.2294444,-1.7942135,-4.3559904,-9.825793,-8.770628,-13.462162,-9.593362,-15.890497,-14.151963,-11.6681385,-8.759365,-7.8960137,-1.2304225,-4.9773717,-6.369825,-6.0409493,-1.8050324,0.42182955,0.06976985,-1.2913718,1.729907,-1.8202988,-8.730573,-6.9463906,2.9173586,4.675293,4.193069,-1.5695336,-2.2862875,-7.70778,-6.0217214,-12.257388,-11.742321,-11.000327,-5.434387,-7.6612363,-9.222507,-10.273029,-11.6063595,-4.4423547,0.4672282,-3.2530398,-6.388478,-6.547457,-0.6172478,1.0086989,0.47926462,1.4624621,0.7308478,2.9830687,-0.7619564,-4.914789,-2.5432708,-1.9033196,-2.235769,-2.4044652,-11.005844,-10.159788,-9.247363,-12.003393,-10.419784,-7.8029103,-8.736585,-9.752352,-8.426062,-11.2749815,-8.509827,-3.5308197,1.880685,-2.874763,-8.8146925,-3.0408294,-1.156381,-0.012778634,0.250005,1.705633,1.9336141,3.4947255,-3.9632418,-6.4047284,-0.97153157,-6.9084587,-11.240938,-8.802087,-10.528668,-7.713138,-9.837856,-7.455459,-14.591823,-10.345659,-3.8436196,-7.3492765,-13.010338,-11.264296,-8.430127,-3.7292087,-2.0146194,-5.2654867,-0.9978376,-1.9999087,-2.1460752,-0.15560481,0.20931572,0.89071834,0.12992114,-2.7017636,-7.4845257,-2.9122772,-3.0950422,-5.5589523,-11.404523,-11.184499,-9.639208,-9.255725,-10.196655,-7.6900077,-11.100326,-5.2247744,-6.094064,-6.186143,-7.406716,-8.304116,-11.008644,-7.193575,-6.608077,-2.1573925,-2.0962846,-3.3374321,0.8941165,-1.7965978,0.21762916,-1.3828621,0.35007912,-1.6372803,-7.383419,-7.22883,-5.8594623,-3.241195,-8.737667,-12.512718,-10.209564,-14.61893,-0.42344978,-8.620314,-7.694474,-5.929873,-7.612962,-8.048939,-9.862215,-12.911108,-12.058023,-6.503707,-6.012666,-0.44930857,-2.1638942,-0.686439,1.2945563,-1.9712981,-0.50841737,0.37836376,1.0650897,-2.8861256,-4.5678077,-6.5332375,-2.8116565,-5.6261907,-8.943848,-11.935768,-10.474694,-5.6648335,-5.81091,-10.800519,-6.0405526,-3.534181,-9.313086,-7.939489,-8.753467,-10.422817,-8.360747,-8.259765,-9.043571,-0.9195969,-3.7122576,0.08257079,-2.240538,-2.4126978,1.7600521,-1.2342396,-2.612988,-3.0808592,-3.8327925,-4.0790453,-5.3542066,-4.707853,-6.3212323,-7.4846377,-12.560915,-10.697399,-7.8778834,-7.493031,-8.735682,-10.508399,-10.0467825,-8.18916,-5.940745,-3.9097388,-11.484816,-9.067018,-8.074119,-5.6411886,-4.2512813,-7.529703,-1.3045563,0.28928638,0.023327593,-1.846533,1.0381743,-6.4148445,0.4512514,-5.54867,-8.586965,-5.5390167,-9.290698,-10.432872,-10.394414,-16.990555,-10.039219,-11.733928,-12.7125845,-8.60208,-7.6785064,-10.935691,-8.781577,-6.6932616,-5.14539,-1.8700382,-3.6307614,-6.395195,-4.4334736,-5.6143775,-2.976844,2.4251246,-0.29532164,-3.5995538,-3.6577246,1.1546651,-6.6737323,-4.1488786,-6.9268823,-10.293411,-14.741318,-10.175787,-11.697913,-13.746792,-11.531193,-12.4312315,-11.618252,-12.475574,-12.910684,-10.682492,-13.46201,-10.158418,1.8615037,3.517307,2.874939,-3.0684047,-2.4587257,-0.099103585,0.3249301,1.2055136,-0.48265386,-3.4388871,-2.2582376,2.6674588,-1.0103085,-4.3434,-9.454221,-10.97293,-11.513781,-11.054413,-13.115583,-10.516055,-9.03375,-12.843891,-12.226555,-9.933121,-8.331718,-10.302568,-11.4784155,-4.9705715,3.6340249,4.657132,5.4368725,-5.398561,-2.624619,-2.1017118,1.0621535,4.634046,-0.67976224,0.751808,-0.05063909,-0.75358075,0.03558413,-8.326053,-8.357982,-13.117507,-11.643551,-9.228454,-10.768801,-9.40211,-11.702125,-9.418115,-11.982214,-11.376144,-12.520009,-5.3110695,-8.299386,-4.4261193,-3.0467553,-9.463751,-7.5881815,-8.585527,-5.678412,2.2271776,0.67625564,-2.6213264,-1.7837328,1.0406833,2.4674141,-1.7265891,0.9852915,-8.170146,-11.224237,-14.407126,-10.339438,-9.296046,-11.884008,-8.739503,-12.098333,-13.531731,-9.731145,-12.655744,-10.63108,-10.3063755,-6.3128147,-5.9394336,-3.547944,-3.55969,-7.1711235,-7.0419855,-4.22858,-0.7235604,-1.173028,1.4264531,-1.4389364,-1.5892518,2.9343762,2.6788976,4.0613613,4.2205048,-5.480088,-10.311769,-10.9579935,-8.907264,-8.800912,-10.735452,-10.653104,-9.438685,-9.887096,-8.927836,-2.744505,-5.3724713,-2.868293,-1.6996163,-2.0823913,-2.5382142,-4.0361214,-6.7223177,1.5509806,-0.017095089,-0.7863936,0.014425628,3.0255752,1.1777631,1.7450068,0.26166427,8.008838,2.4768722,-3.484475,-7.8838496,-10.120065,-8.034979,-11.499025,-12.34794,-7.4809084,-7.160626,-10.488355,-9.044844,-6.609787,-4.254821,1.2562017,-2.2771595,-1.966416,-1.3911808,-5.7788873,-4.6627765,-2.6504955,-0.3743891,2.6221685,-0.33446598,-1.1213961,-1.4112539,1.1310208,-1.4127972,3.4605558,4.3995423,1.0339001,-2.3559484,-8.915769,-10.698683,-11.008465,-7.68132,-8.302749,-8.966181,-10.464247,-6.2766185,-2.0125756,-2.2619865,-2.8445735,-1.454099,-6.7284837,-8.681709,-6.012824,-5.3167467,-0.8675218,-1.0145099,0.9126991,1.5993235,-0.8050792,1.5298793,2.481555,0.988367,4.937837,2.1258674,1.1744951,-2.027589,-0.5631127,-7.4476647,-10.158126,-6.599409,-6.0568256,-9.453201,-5.5443497,-3.5583982,-2.2876391,-3.3446584,-5.8690305,-7.165894,-6.9259553,-7.2142177,-6.99529,-3.351103,1.097753,0.6574832,0.00014524111,-3.5504506,-4.3383,0.22094871,-2.2603273,-2.8373363,0.979453,0.8258562,3.5607708,0.7653753,-0.46605557,0.89667374,-3.0404744,-0.20006879,-10.457929,-5.1479855,-4.619865,-8.536207,-4.926462,-6.4006495,-4.554041,-4.7745442,-5.4262714,-7.12929,-4.5673227,-7.4731975,2.430386,0.15889262,-0.75589234,-1.0297045,3.223485,-1.4299306,0.11903856,-0.7575122,3.1450639,0.5043295,0.14697587,-0.119092286,5.5964403,4.29104,5.029809,3.959046,4.4186826,4.622249,4.208701,4.08834,1.7327601,-1.5960779,2.2607677,-3.891448,1.7445585,1.8802105,1.24849,-1.6317663,-0.49976194,-2.4714727,0.3042887,-2.8163633,-1.6488961,-0.59607434,0.6876432,-2.4389281,-1.9576553,3.3883271,-1.8539417,4.6177464,5.8982763,3.859066,4.7903533,0.4505724,1.3648,1.0307795,1.671267,1.6566604,0.62037116,0.7222054,0.68942446,0.7547922,0.28298765,0.5481649,1.343881,2.1259334,1.740774,0.5115336,0.3012187,0.81242484,-0.8270301,0.09342082,-1.7772638,-3.4443867,1.3997926,-1.3764274,-3.5118282,-1.5353061,0.73009604,0.46658966,-3.4129503,-1.578361,0.11004333,-1.9141539,-1.7815007,-1.7392803,3.6555774,-0.16013576,-1.5729023,0.84677196,0.026382396,-2.3151114,-0.51290286,1.9645877,0.9788022,0.027407937,-4.9201636,-1.3606259],[1.5717945,1.8993738,0.96888983,-1.2910903,1.6753829,0.46615556,1.5176247,1.8408654,-0.60155094,-0.69790965,-0.50780636,-0.09561555,-3.771977,-3.198795,-0.09275166,-0.7749673,1.0345569,0.26333275,2.8773713,0.4833306,1.2864457,1.5863128,0.44667673,0.69059825,-1.09632,-1.1753763,0.35549766,-3.9281557,0.9915472,-0.049300436,0.26167428,-1.5759121,-3.8647988,3.1471822,2.508706,3.6271513,-0.9981493,0.996117,-2.9280603,6.226358,1.1597356,-0.9355592,-0.8748808,0.58339185,0.82559645,-2.0137866,-1.4654051,-2.4686563,-0.3924147,0.9326685,-1.2470268,2.7400355,-1.4901307,-0.23360367,-2.143766,2.7397912,0.9422839,-4.9070797,0.92504966,3.5724642,1.1559325,2.4975085,1.8078432,-1.7212484,0.15808992,-0.59288704,1.2149295,2.6317708,0.09120799,-0.034525376,